{"learner":{"attributes":{"best_iteration":"99","best_ntree_limit":"100","scikit_learn":"{\"n_estimators\": 100, \"objective\": \"reg:squarederror\", \"max_depth\": null, \"max_leaves\": null, \"max_bin\": null, \"grow_policy\": null, \"learning_rate\": 0.1, \"verbosity\": null, \"booster\": null, \"tree_method\": null, \"gamma\": null, \"min_child_weight\": null, \"max_delta_step\": null, \"subsample\": null, \"sampling_method\": null, \"colsample_bytree\": null, \"colsample_bylevel\": null, \"colsample_bynode\": null, \"reg_alpha\": null, \"reg_lambda\": null, \"scale_pos_weight\": null, \"base_score\": null, \"missing\": NaN, \"num_parallel_tree\": null, \"random_state\": 21, \"n_jobs\": null, \"monotone_constraints\": null, \"interaction_constraints\": null, \"importance_type\": null, \"gpu_id\": null, \"validate_parameters\": null, \"predictor\": null, \"enable_categorical\": false, \"feature_types\": null, \"max_cat_to_onehot\": null, \"max_cat_threshold\": null, \"early_stopping_rounds\": null, \"callbacks\": null, \"_estimator_type\": \"regressor\"}"},"feature_names":["categorical__ProcessingMethod_PPP","categorical__ProcessingMethod_PPS","categorical__RuralUrbanIndicator_R","categorical__RuralUrbanIndicator_U","categorical__HubzoneIndicator_N","categorical__HubzoneIndicator_Y","categorical__LMIIndicator_N","categorical__LMIIndicator_Y","categorical__Industry_Type_Accommodation and Food Services","categorical__Industry_Type_Administrative and Support and Waste Management and Remediation Services","categorical__Industry_Type_Agriculture, Forestry, Fishing and Hunting","categorical__Industry_Type_Arts, Entertainment, and Recreation","categorical__Industry_Type_Construction","categorical__Industry_Type_Educational Services","categorical__Industry_Type_Finance and Insurance","categorical__Industry_Type_Health Care and Social Assistance","categorical__Industry_Type_Information","categorical__Industry_Type_Management of Companies and Enterprises","categorical__Industry_Type_Manufacturing","categorical__Industry_Type_Mining, Quarrying, and Oil and Gas Extraction","categorical__Industry_Type_No Response","categorical__Industry_Type_Nonclassifiable Establishments","categorical__Industry_Type_Other Services (except Public Administration)","categorical__Industry_Type_Professional, Scientific, and Technical Services","categorical__Industry_Type_Public Administration","categorical__Industry_Type_Real Estate and Rental and Leasing","categorical__Industry_Type_Retail Trade","categorical__Industry_Type_Transportation and Warehousing","categorical__Industry_Type_Utilities","categorical__Industry_Type_Wholesale Trade","numerical__Term","numerical__JobsReported","numerical__UTILITIES_PROCEED","numerical__PAYROLL_PROCEED","numerical__MORTGAGE_INTEREST_PROCEED","numerical__RENT_PROCEED","numerical__REFINANCE_EIDL_PROCEED","numerical__HEALTH_CARE_PROCEED","numerical__DEBT_INTEREST_PROCEED","numerical__Loan_Count","numerical__Revised_Loan_Amount","numerical__Days_With_Loan"],"feature_types":["float","float","float","float","float","float","float","float","float","float","float","float","float","float","float","float","float","float","float","float","float","float","float","float","float","float","float","float","float","float","float","float","float","float","float","float","float","float","float","float","float","float"],"gradient_booster":{"model":{"gbtree_model_param":{"num_parallel_tree":"1","num_trees":"100","size_leaf_vector":"0"},"tree_info":[0,0,0,0,0,0,0,0,0,0,0,0,0,0,0,0,0,0,0,0,0,0,0,0,0,0,0,0,0,0,0,0,0,0,0,0,0,0,0,0,0,0,0,0,0,0,0,0,0,0,0,0,0,0,0,0,0,0,0,0,0,0,0,0,0,0,0,0,0,0,0,0,0,0,0,0,0,0,0,0,0,0,0,0,0,0,0,0,0,0,0,0,0,0,0,0,0,0,0,0],"trees":[{"base_weights":[-4.9999946E-1,-4.833031E-1,-1.14346E0,-2.5274737E0,-4.815495E-1,-9.268378E-1,-3.8289285E0,-1.9797275E0,-1.016838E1,-4.7257757E-1,-5.981439E-1,-7.8437716E-1,-1.5496874E0,-2.542643E0,-7.5376897E0,-1.6937917E0,-4.382615E0,-8.545939E0,-1.9377502E1,-4.7251755E-1,-1.0532805E1,-5.6363684E-1,-1.4323319E0,-7.814634E-1,-1.3562794E1,-1.1648273E0,-2.1305304E0,-1.5354255E1,-2.2206178E0,-1.2846328E1,-6.419357E0,-1.4491787E0,-2.4338229E0,-2.458972E0,-4.9703774E0,-9.321592E0,-3.6963913E0,-2.153384E1,-3.2197418E0,-4.7247392E-1,-1.2612476E1,-4.754275E-2,-1.7507133E1,-5.6218636E-1,-8.067825E0,-9.1646767E-1,-7.782842E0,-1.990057E0,-7.5166243E-1,-5.7535753E0,-1.8495224E1,-4.759549E0,-1.0618479E0,-1.0262904E0,-3.0650728E0,-9.741308E0,-3.805347E1,-2.07541E0,-1.357142E1,-7.1444187E0,-2.040516E1,-4.670899E0,-1.0567275E1,-1.2767488E0,-1.6322726E0,-2.2253625E0,-2.9714756E0,-1.7461567E0,-4.2481866E0,-6.146354E0,-4.1368136E0,-9.698719E0,-1.5631597E0,-4.52932E0,-1.731133E0,-4.7233263E-1,-3.11698E0,3.4061414E-1,-1.9259329E1,-5.287485E-1,-7.7323866E-1,-3.105484E0,-1.7216137E1,-8.789049E-1,-2.3112358E1,-2.2118515E1,-4.598271E0,-1.8331846E0,-4.1656203E0,-6.116715E-1,-9.447297E-1,-5.067585E0,-2.1771364E0,-1.0264274E0,-6.2421384E0,-9.990697E-1,-4.8551483E0,-3.012327E0,-1.7445187E1,-3.9973114E0,-1.2884994E1,-4.4663204E1,-2.5024056E0,-1.9165123E0,-6.4448695E0,-3.2324963E1,-8.583416E0,-8.849221E0,-3.394838E0,-8.528443E0,-2.4503578E1,-4.465333E0,-2.1272234E1,-1.4496908E1,-3.229754E0],"categories":[],"categories_nodes":[],"categories_segments":[],"categories_sizes":[],"default_left":[1,1,1,1,1,1,1,1,1,1,1,1,1,1,1,1,1,1,1,1,1,1,1,1,1,1,1,1,1,1,1,1,1,1,1,1,1,0,0,1,1,0,0,1,1,1,1,1,1,0,0,1,1,1,1,1,1,1,1,1,1,1,1,0,0,0,0,0,0,0,0,0,0,0,0,0,0,0,0,0,0,0,0,0,0,0,0,0,0,0,0,0,0,0,0,0,0,0,0,0,0,0,0,0,0,0,0,0,0,0,0,0,0,0,0],"id":0,"left_children":[1,3,5,7,9,11,13,15,17,19,21,23,25,27,29,31,33,35,37,39,41,43,45,47,49,51,53,55,57,59,61,63,65,67,69,71,73,-1,-1,75,77,-1,-1,79,81,83,85,87,89,-1,-1,91,93,95,97,99,101,103,105,107,109,111,113,-1,-1,-1,-1,-1,-1,-1,-1,-1,-1,-1,-1,-1,-1,-1,-1,-1,-1,-1,-1,-1,-1,-1,-1,-1,-1,-1,-1,-1,-1,-1,-1,-1,-1,-1,-1,-1,-1,-1,-1,-1,-1,-1,-1,-1,-1,-1,-1,-1,-1,-1,-1],"loss_changes":[1.0045922E4,3.2660625E3,1.375442E4,3.2485693E3,9.523906E2,1.9407617E3,8.400811E3,4.9413892E2,6.113462E2,5.058125E2,1.8721719E3,6.526885E2,9.0800977E2,5.3787705E3,2.6128535E3,1.1486072E2,7.483777E1,1.3857568E2,1.7455737E2,4.4192188E2,3.648059E2,6.7556836E2,8.458053E3,6.4000586E2,4.7660034E1,9.0263306E2,1.6706924E3,3.7064126E3,2.0832139E3,3.216E3,2.6848193E3,1.3511963E1,1.143219E1,1.8089592E1,3.1428345E1,9.894995E1,5.254509E0,0E0,0E0,3.145E2,2.648519E2,0E0,0E0,4.4047266E2,4.9130017E2,1.9731597E3,8.754971E3,1.3843396E2,4.6927148E2,0E0,0E0,4.305957E1,4.3121265E2,7.279651E1,6.134053E2,4.3604248E2,1.2981338E3,8.6662744E2,1.2192253E3,2.640039E2,1.3973213E3,8.1619385E2,3.1537256E3,0E0,0E0,0E0,0E0,0E0,0E0,0E0,0E0,0E0,0E0,0E0,0E0,0E0,0E0,0E0,0E0,0E0,0E0,0E0,0E0,0E0,0E0,0E0,0E0,0E0,0E0,0E0,0E0,0E0,0E0,0E0,0E0,0E0,0E0,0E0,0E0,0E0,0E0,0E0,0E0,0E0,0E0,0E0,0E0,0E0,0E0,0E0,0E0,0E0,0E0,0E0,0E0],"parents":[2147483647,0,0,1,1,2,2,3,3,4,4,5,5,6,6,7,7,8,8,9,9,10,10,11,11,12,12,13,13,14,14,15,15,16,16,17,17,18,18,19,19,20,20,21,21,22,22,23,23,24,24,25,25,26,26,27,27,28,28,29,29,30,30,31,31,32,32,33,33,34,34,35,35,36,36,39,39,40,40,43,43,44,44,45,45,46,46,47,47,48,48,51,51,52,52,53,53,54,54,55,55,56,56,57,57,58,58,59,59,60,60,61,61,62,62],"right_children":[2,4,6,8,10,12,14,16,18,20,22,24,26,28,30,32,34,36,38,40,42,44,46,48,50,52,54,56,58,60,62,64,66,68,70,72,74,-1,-1,76,78,-1,-1,80,82,84,86,88,90,-1,-1,92,94,96,98,100,102,104,106,108,110,112,114,-1,-1,-1,-1,-1,-1,-1,-1,-1,-1,-1,-1,-1,-1,-1,-1,-1,-1,-1,-1,-1,-1,-1,-1,-1,-1,-1,-1,-1,-1,-1,-1,-1,-1,-1,-1,-1,-1,-1,-1,-1,-1,-1,-1,-1,-1,-1,-1,-1,-1,-1,-1],"split_conditions":[2.0375032E0,-1.3029237E0,2.4166696E0,1.0515987E0,1.2963495E0,2.2048584E-1,-3.97399E-1,1.4978927E-1,5.6775875E0,2.0126099E2,2.423738E0,2.8864088E1,-5.4345137E-1,-1.5073969E0,1.4699104E0,-2.6531538E-1,6.390165E-1,7.2115993E-1,-1.7410806E0,1.7272826E2,-5.0397217E-2,1.5421723E1,-5.4345137E-1,-1.0984504E0,5E-1,-1.6826597E0,5E-1,5.0371265E0,5.1565256E0,3.6529975E0,7.0216203E0,-4.453493E-1,5E-1,-1.0279918E-1,1.1860586E0,5.0743628E0,9.6349967E-1,-2.153384E0,-3.219742E-1,1.4136502E0,5E-1,-4.754275E-3,-1.7507133E0,3.060024E-1,5E-1,4.8893646E1,1.3552293E0,1.8625844E-2,-6.895037E-1,-5.7535756E-1,-1.8495225E0,4.0266442E-1,5.3021097E0,5E-1,1.8196344E1,2.505136E0,9.5989645E-1,5E-1,5E-1,2.8868754E0,2.6346135E-1,1.961041E0,6.6233835E0,-1.2767488E-1,-1.6322726E-1,-2.2253625E-1,-2.9714757E-1,-1.7461567E-1,-4.2481866E-1,-6.146354E-1,-4.1368136E-1,-9.6987194E-1,-1.5631597E-1,-4.5293197E-1,-1.731133E-1,-4.7233265E-2,-3.1169802E-1,3.4061413E-2,-1.9259329E0,-5.2874852E-2,-7.732387E-2,-3.105484E-1,-1.7216138E0,-8.789049E-2,-2.311236E0,-2.2118516E0,-4.598271E-1,-1.8331847E-1,-4.1656205E-1,-6.116715E-2,-9.447297E-2,-5.067585E-1,-2.1771364E-1,-1.0264274E-1,-6.242139E-1,-9.990697E-2,-4.8551485E-1,-3.012327E-1,-1.7445186E0,-3.9973113E-1,-1.2884994E0,-4.4663205E0,-2.5024056E-1,-1.9165123E-1,-6.4448696E-1,-3.2324963E0,-8.5834163E-1,-8.8492215E-1,-3.3948383E-1,-8.5284436E-1,-2.450358E0,-4.465333E-1,-2.1272235E0,-1.4496908E0,-3.229754E-1],"split_indices":[41,30,33,33,41,33,30,33,31,36,33,32,30,30,31,33,41,32,30,34,33,35,30,30,25,30,0,31,41,33,33,33,8,32,41,31,31,0,0,30,6,0,0,33,8,37,30,33,30,0,0,39,41,28,38,41,40,25,6,33,31,39,31,0,0,0,0,0,0,0,0,0,0,0,0,0,0,0,0,0,0,0,0,0,0,0,0,0,0,0,0,0,0,0,0,0,0,0,0,0,0,0,0,0,0,0,0,0,0,0,0,0,0,0,0],"split_type":[0,0,0,0,0,0,0,0,0,0,0,0,0,0,0,0,0,0,0,0,0,0,0,0,0,0,0,0,0,0,0,0,0,0,0,0,0,0,0,0,0,0,0,0,0,0,0,0,0,0,0,0,0,0,0,0,0,0,0,0,0,0,0,0,0,0,0,0,0,0,0,0,0,0,0,0,0,0,0,0,0,0,0,0,0,0,0,0,0,0,0,0,0,0,0,0,0,0,0,0,0,0,0,0,0,0,0,0,0,0,0,0,0,0,0],"sum_hessian":[9.35124E5,9.11475E5,2.3649E4,7.8E2,9.10695E5,2.1885E4,1.764E3,7.29E2,5.1E1,8.45629E5,6.5066E4,1.7813E4,4.072E3,1.311E3,4.53E2,6.53E2,7.6E1,4.5E1,6E0,8.45625E5,4E0,6.2483E4,2.583E3,1.781E4,3E0,2.451E3,1.621E3,3.1E1,1.28E3,7.7E1,3.76E2,4.93E2,1.6E2,1.9E1,5.7E1,3.8E1,7E0,5E0,1E0,8.45623E5,2E0,2E0,2E0,6.2472E4,1.1E1,2.39E3,1.93E2,4.27E2,1.7383E4,2E0,1E0,6.7E1,2.384E3,7.44E2,8.77E2,2.6E1,5E0,1.265E3,1.5E1,4.5E1,3.2E1,2.66E2,1.1E2,2.58E2,2.35E2,1.19E2,4.1E1,1.5E1,4E0,2.1E1,3.6E1,3.6E1,2E0,4E0,3E0,8.45579E5,4.4E1,1E0,1E0,5.3931E4,8.541E3,8E0,3E0,2.387E3,3E0,3.4E1,1.59E2,4E2,2.7E1,1.0079E4,7.304E3,5.9E1,8E0,2.369E3,1.5E1,7.4E2,4E0,8.75E2,2E0,1E1,1.6E1,4E0,1E0,1.222E3,4.3E1,2E0,1.3E1,3E1,1.5E1,9E0,2.3E1,2.64E2,2E0,7.1E1,3.9E1],"tree_param":{"num_deleted":"0","num_feature":"42","num_nodes":"115","size_leaf_vector":"0"}},{"base_weights":[-4.5004806E-1,-4.3506864E-1,-1.0332575E0,-2.2858636E0,-4.3347728E-1,-8.364502E-1,-3.4633617E0,-1.8039677E0,-9.467651E0,-4.3275386E-1,-1.6752973E0,-7.2551197E-1,-1.4938297E0,-2.3033128E0,-6.740917E0,-1.5310677E0,-4.019198E0,-7.8921227E0,-1.7793375E1,-4.2494342E-1,-5.339639E-1,-1.1917832E1,-8.599839E-1,-7.2286415E-1,-1.2812735E1,-5.062154E0,-1.4080747E0,-1.4018978E1,-2.0053627E0,-1.1664079E1,-5.715333E0,-1.3058143E0,-2.2098913E0,-2.3829398E0,-4.5249014E0,-8.57573E0,-3.1513221E0,-2.120301E1,-6.1795225E0,-4.2488727E-1,-9.830618E0,-5.3306806E-1,-2.9481024E1,-6.733187E1,-7.102699E0,-1.0787753E1,-5.0361407E-1,-1.8436937E0,-6.955066E-1,-1.5131759E1,-2.9278314E0,-4.505495E0,-1.6549028E1,-1.0393142E0,-1.9702688E0,-8.829704E0,-3.5034218E1,-1.8319136E0,-1.0207103E1,-6.5317755E0,-1.846474E1,-4.266974E0,-9.635188E0,-1.2880373E0,-3.1659303E0,-2.0046806E0,-2.7311792E0,-1.5824546E0,-4.120411E0,-6.2604485E0,-3.8072648E0,-9.201199E0,-2.7324915E0,-3.6800506E0,-1.2196673E0,-4.2484573E-1,-1.1981853E1,-4.4373233E-2,-1.633999E1,-4.8844934E-1,-9.2517304E-1,-3.93081E0,-6.064535E1,1.8061028E-1,-3.0926521E1,1.5023571E-1,-3.4704936E0,-1.642044E0,-3.671939E0,-5.628493E-1,-8.7856275E-1,-3.3075793E0,-6.861685E0,-4.2207875E0,-9.2459804E-1,-1.0193305E0,-2.7974498E0,-1.6986969E1,-6.672486E0,-4.1090145E1,-2.3772855E0,-9.34985E0,-1.7509005E0,-7.782341E0,-2.620283E1,-1.0982942E1,-5.152223E0,-8.397728E0,-2.2476585E1,-4.083419E0,-1.9854084E1,-1.3694127E1,-2.7273073E0],"categories":[],"categories_nodes":[],"categories_segments":[],"categories_sizes":[],"default_left":[1,1,1,1,1,1,1,1,1,1,1,1,1,1,1,1,1,1,1,1,1,1,1,1,1,1,1,1,1,1,1,1,1,1,1,1,1,0,0,1,1,1,0,0,1,1,1,1,1,0,0,1,0,1,1,1,1,1,1,1,1,1,1,0,0,0,0,0,0,0,0,0,0,0,0,0,0,0,0,0,0,0,0,0,0,0,0,0,0,0,0,0,0,0,0,0,0,0,0,0,0,0,0,0,0,0,0,0,0,0,0,0,0],"id":1,"left_children":[1,3,5,7,9,11,13,15,17,19,21,23,25,27,29,31,33,35,37,39,41,43,45,47,49,51,53,55,57,59,61,63,65,67,69,71,73,-1,-1,75,77,79,-1,-1,81,83,85,87,89,-1,-1,91,-1,93,95,97,99,101,103,105,107,109,111,-1,-1,-1,-1,-1,-1,-1,-1,-1,-1,-1,-1,-1,-1,-1,-1,-1,-1,-1,-1,-1,-1,-1,-1,-1,-1,-1,-1,-1,-1,-1,-1,-1,-1,-1,-1,-1,-1,-1,-1,-1,-1,-1,-1,-1,-1,-1,-1,-1,-1],"loss_changes":[8.1689375E3,2.68425E3,1.1196092E4,2.6927842E3,8.176094E2,1.5787656E3,6.6534004E3,4.3818066E2,5.0232617E2,7.194375E2,4.415715E3,5.840078E2,9.4973926E2,4.499301E3,2.245834E3,9.742151E1,5.541443E1,1.123313E2,1.461687E2,4.4215625E2,1.6756328E3,9.927976E3,1.7352424E3,5.670303E2,4.7390076E1,3.922202E2,6.312998E2,3.1803813E3,1.7822954E3,2.60183E3,2.121959E3,1.2290527E1,1.1854614E1,2.2686852E1,5.0894287E1,1.10083984E2,2.6608124E0,0E0,0E0,4.005E2,3.177865E2,1.1405488E3,0E0,0E0,6.0453745E3,3.7607036E3,9.239107E2,1.5655176E2,4.3889453E2,0E0,0E0,1.77703E2,0E0,6.701902E2,9.48146E2,3.6177368E2,1.0889253E3,7.394619E2,8.045117E2,2.2588184E2,1.1440283E3,7.200332E2,2.8225967E3,0E0,0E0,0E0,0E0,0E0,0E0,0E0,0E0,0E0,0E0,0E0,0E0,0E0,0E0,0E0,0E0,0E0,0E0,0E0,0E0,0E0,0E0,0E0,0E0,0E0,0E0,0E0,0E0,0E0,0E0,0E0,0E0,0E0,0E0,0E0,0E0,0E0,0E0,0E0,0E0,0E0,0E0,0E0,0E0,0E0,0E0,0E0,0E0,0E0,0E0],"parents":[2147483647,0,0,1,1,2,2,3,3,4,4,5,5,6,6,7,7,8,8,9,9,10,10,11,11,12,12,13,13,14,14,15,15,16,16,17,17,18,18,19,19,20,20,21,21,22,22,23,23,24,24,25,25,26,26,27,27,28,28,29,29,30,30,31,31,32,32,33,33,34,34,35,35,36,36,39,39,40,40,41,41,44,44,45,45,46,46,47,47,48,48,51,51,53,53,54,54,55,55,56,56,57,57,58,58,59,59,60,60,61,61,62,62],"right_children":[2,4,6,8,10,12,14,16,18,20,22,24,26,28,30,32,34,36,38,40,42,44,46,48,50,52,54,56,58,60,62,64,66,68,70,72,74,-1,-1,76,78,80,-1,-1,82,84,86,88,90,-1,-1,92,-1,94,96,98,100,102,104,106,108,110,112,-1,-1,-1,-1,-1,-1,-1,-1,-1,-1,-1,-1,-1,-1,-1,-1,-1,-1,-1,-1,-1,-1,-1,-1,-1,-1,-1,-1,-1,-1,-1,-1,-1,-1,-1,-1,-1,-1,-1,-1,-1,-1,-1,-1,-1,-1,-1,-1,-1,-1],"split_conditions":[2.0463266E0,-1.3029237E0,2.4166696E0,1.1494992E0,1.3081006E1,4.4024616E-1,-5.142409E-1,1.4978927E-1,5.6775875E0,1.2963495E0,1.3388457E1,2.8864088E1,-4.2168254E-1,-1.5073969E0,1.4699104E0,-2.6531538E-1,6.3460493E-1,8.095509E-1,7.683399E0,2.0126099E2,8.976466E1,3.6891806E0,2.944459E0,-1.0984504E0,5E-1,3.937805E0,-5.4345137E-1,5.0371265E0,4.8433E0,3.6529975E0,7.3353577E0,2.4852499E1,5E-1,-1.0279918E-1,1.1242958E0,5E-1,1.7077215E0,-2.120301E0,-6.179523E-1,1.7272826E2,-5.0397217E-2,9.0515447E-1,-2.9481025E0,-6.733187E0,1.3381268E1,2.6912537E0,1.2345866E0,1.8625844E-2,-6.895037E-1,-1.5131758E0,-2.9278314E-1,1.3260188E0,-1.6549028E0,-7.479247E-1,5E-1,6.65611E-1,9.5989645E-1,2.0551498E0,1.2282236E1,4.347473E-1,3.6772236E-1,1.961041E0,6.6233835E0,-1.2880373E-1,-3.1659302E-1,-2.0046806E-1,-2.7311793E-1,-1.5824546E-1,-4.120411E-1,-6.2604487E-1,-3.807265E-1,-9.201199E-1,-2.7324915E-1,-3.6800507E-1,-1.21966735E-1,-4.2484574E-2,-1.1981853E0,-4.437323E-3,-1.6339991E0,-4.8844934E-2,-9.251731E-2,-3.93081E-1,-6.064535E0,1.8061029E-2,-3.092652E0,1.5023571E-2,-3.4704936E-1,-1.642044E-1,-3.671939E-1,-5.628493E-2,-8.785628E-2,-3.3075795E-1,-6.861685E-1,-4.2207876E-1,-9.2459805E-2,-1.01933055E-1,-2.7974498E-1,-1.698697E0,-6.672486E-1,-4.1090145E0,-2.3772855E-1,-9.34985E-1,-1.7509006E-1,-7.782341E-1,-2.620283E0,-1.0982941E0,-5.152223E-1,-8.397728E-1,-2.2476585E0,-4.0834188E-1,-1.9854084E0,-1.3694128E0,-2.7273074E-1],"split_indices":[41,30,33,33,33,33,30,33,31,41,33,32,31,30,31,33,41,32,33,36,37,31,31,30,22,32,30,31,41,33,33,36,8,32,41,9,33,0,0,34,33,33,0,0,33,31,41,33,30,0,0,30,0,30,0,31,40,41,40,31,31,39,31,0,0,0,0,0,0,0,0,0,0,0,0,0,0,0,0,0,0,0,0,0,0,0,0,0,0,0,0,0,0,0,0,0,0,0,0,0,0,0,0,0,0,0,0,0,0,0,0,0,0],"split_type":[0,0,0,0,0,0,0,0,0,0,0,0,0,0,0,0,0,0,0,0,0,0,0,0,0,0,0,0,0,0,0,0,0,0,0,0,0,0,0,0,0,0,0,0,0,0,0,0,0,0,0,0,0,0,0,0,0,0,0,0,0,0,0,0,0,0,0,0,0,0,0,0,0,0,0,0,0,0,0,0,0,0,0,0,0,0,0,0,0,0,0,0,0,0,0,0,0,0,0,0,0,0,0,0,0,0,0,0,0,0,0,0,0],"sum_hessian":[9.35124E5,9.11709E5,2.3415E4,7.82E2,9.10927E5,2.1662E4,1.753E3,7.34E2,4.8E1,9.10398E5,5.29E2,1.8536E4,3.126E3,1.296E3,4.57E2,6.55E2,7.9E1,4.2E1,6E0,8.4518E5,6.5218E4,3.8E1,4.91E2,1.8533E4,3E0,7.2E1,3.054E3,3.1E1,1.265E3,7.7E1,3.8E2,4.94E2,1.61E2,2E1,5.9E1,3.6E1,6E0,4E0,2E0,8.45176E5,4E0,6.5217E4,1E0,2E0,3.6E1,1.6E1,4.75E2,4.4E2,1.8093E4,2E0,1E0,7E1,2E0,1.846E3,1.208E3,2.6E1,5E0,1.24E3,2.5E1,4.5E1,3.2E1,2.79E2,1.01E2,4.91E2,3E0,1.19E2,4.2E1,1.5E1,5E0,1.5E1,4.4E1,3.2E1,4E0,4E0,2E0,8.45174E5,2E0,2E0,2E0,5.8556E4,6.661E3,3.5E1,1E0,1.1E1,5E0,3.9E2,8.5E1,3.98E2,4.2E1,1.0493E4,7.6E3,4.8E1,2.2E1,6.3E1,1.783E3,5.63E2,6.45E2,4E0,2.2E1,4E0,1E0,1.2E1,1.228E3,2.3E1,2E0,9E0,3.6E1,1E1,2.2E1,2.77E2,2E0,6.3E1,3.8E1],"tree_param":{"num_deleted":"0","num_feature":"42","num_nodes":"113","size_leaf_vector":"0"}},{"base_weights":[-4.0510258E-1,-3.9152095E-1,-9.2852426E-1,-2.062468E0,-3.900857E-1,-7.51436E-1,-3.1238928E0,-1.747621E0,-1.1526126E1,-3.8941348E-1,-1.5459591E0,-6.260932E-1,-1.2374676E0,-2.0638185E0,-6.117978E0,-1.3739628E0,-4.084146E0,-4.348641E0,-1.4647964E1,-3.824514E-1,-4.7995043E-1,-1.1064275E1,-7.867732E-1,-6.241966E-1,-1.6813875E1,-3.1880674E0,-1.1584874E0,-1.2826853E1,-1.7918553E0,-1.0537611E1,-5.190383E0,-1.175391E0,-1.9759445E0,-5.4931893E0,-3.5187254E0,-5.935886E-1,-5.3367143E0,-1.5533215E1,-2.4197519E-1,-3.8239893E-1,-9.175243E0,-4.7909588E-1,-2.8006973E1,-6.2843082E1,-6.5669594E0,-9.889836E0,-4.59323E-1,-5.4810643E-1,-9.1943634E-1,-2.9557352E0,-1.5445761E1,-3.9189641E0,-1.1106983E0,-8.034362E0,-3.2255253E1,-1.6733854E0,-1.2334626E1,-5.978319E0,-1.6711826E1,-4.633948E0,-1.3698321E1,-1.0102041E0,-1.3345307E0,-9.176425E-1,-2.0399537E0,-2.8509543E0,-6.407536E0,-3.7026885E0,-7.2471404E-1,1.4950882E-1,-1.0398917E0,-5.691327E-1,-6.036456E0,-5.3727584E0,-1.7464645E1,-3.8236013E-1,-1.1183063E1,-4.1415017E-2,-1.5250658E1,-4.392882E-1,-8.28769E-1,-3.5486479E0,-5.7613083E1,1.6405435E-1,-2.8349312E1,1.352506E-1,-3.1889577E0,-1.5523788E0,-5.292124E-1,-7.088281E-1,-1.1672016E0,-1.7731866E0,-3.9888477E0,-4.35473E0,-2.3455276E0,-7.7643585E-1,-1.6049919E0,-3.0273297E0,-1.0801596E1,-3.7802937E1,-2.2584212E0,-1.5294994E0,-5.61838E0,-2.9037127E1,-7.131116E0,-7.538544E0,-2.484225E0,-3.7592854E1,-1.415199E1,-3.4677105E0,-7.4068046E0,-7.506755E0,-4.1231575E1],"categories":[],"categories_nodes":[],"categories_segments":[],"categories_sizes":[],"default_left":[1,1,1,1,1,1,1,1,1,1,1,1,1,1,1,1,1,1,1,1,1,1,1,1,0,1,1,1,1,1,1,1,1,1,1,1,1,1,0,1,1,1,0,0,1,1,1,1,1,1,0,1,1,1,1,1,1,1,1,1,1,0,0,0,0,0,0,0,0,0,0,0,0,0,0,0,0,0,0,0,0,0,0,0,0,0,0,0,0,0,0,0,0,0,0,0,0,0,0,0,0,0,0,0,0,0,0,0,0,0,0,0,0],"id":2,"left_children":[1,3,5,7,9,11,13,15,17,19,21,23,25,27,29,31,33,35,37,39,41,43,45,47,-1,49,51,53,55,57,59,61,63,65,67,69,71,73,-1,75,77,79,-1,-1,81,83,85,87,89,91,-1,93,95,97,99,101,103,105,107,109,111,-1,-1,-1,-1,-1,-1,-1,-1,-1,-1,-1,-1,-1,-1,-1,-1,-1,-1,-1,-1,-1,-1,-1,-1,-1,-1,-1,-1,-1,-1,-1,-1,-1,-1,-1,-1,-1,-1,-1,-1,-1,-1,-1,-1,-1,-1,-1,-1,-1,-1,-1,-1],"loss_changes":[6.6473438E3,2.185125E3,9.19216E3,2.309906E3,7.070156E2,1.3325322E3,5.5894023E3,6.561692E2,4.964751E2,5.7353125E2,3.8139397E3,5.237593E2,6.8741455E2,3.7969434E3,1.8352344E3,7.597388E1,6.3528076E1,3.0224594E1,2.1304077E2,3.8640625E2,1.515291E3,8.669072E3,1.45903E3,3.903838E2,0E0,4.4987378E2,5.646201E2,2.7203838E3,1.5705884E3,2.1239443E3,1.7496885E3,1.1664307E1,9.034424E0,4.9378174E1,3.6894165E1,1.1504132E0,1.9916992E1,2.2015405E2,0E0,3.498203E2,2.768274E2,9.042334E2,0E0,0E0,5.496256E3,3.1596729E3,7.713415E2,2.6173242E2,1.8514722E2,2.030603E2,0E0,3.9838257E1,6.994678E2,3.4140186E2,9.13103E2,7.071875E2,1.00969556E3,2.3749646E2,1.2319014E3,1.1417207E3,3.6113857E3,0E0,0E0,0E0,0E0,0E0,0E0,0E0,0E0,0E0,0E0,0E0,0E0,0E0,0E0,0E0,0E0,0E0,0E0,0E0,0E0,0E0,0E0,0E0,0E0,0E0,0E0,0E0,0E0,0E0,0E0,0E0,0E0,0E0,0E0,0E0,0E0,0E0,0E0,0E0,0E0,0E0,0E0,0E0,0E0,0E0,0E0,0E0,0E0,0E0,0E0,0E0,0E0],"parents":[2147483647,0,0,1,1,2,2,3,3,4,4,5,5,6,6,7,7,8,8,9,9,10,10,11,11,12,12,13,13,14,14,15,15,16,16,17,17,18,18,19,19,20,20,21,21,22,22,23,23,25,25,26,26,27,27,28,28,29,29,30,30,31,31,32,32,33,33,34,34,35,35,36,36,37,37,39,39,40,40,41,41,44,44,45,45,46,46,47,47,48,48,49,49,51,51,52,52,53,53,54,54,55,55,56,56,57,57,58,58,59,59,60,60],"right_children":[2,4,6,8,10,12,14,16,18,20,22,24,26,28,30,32,34,36,38,40,42,44,46,48,-1,50,52,54,56,58,60,62,64,66,68,70,72,74,-1,76,78,80,-1,-1,82,84,86,88,90,92,-1,94,96,98,100,102,104,106,108,110,112,-1,-1,-1,-1,-1,-1,-1,-1,-1,-1,-1,-1,-1,-1,-1,-1,-1,-1,-1,-1,-1,-1,-1,-1,-1,-1,-1,-1,-1,-1,-1,-1,-1,-1,-1,-1,-1,-1,-1,-1,-1,-1,-1,-1,-1,-1,-1,-1,-1,-1,-1,-1],"split_conditions":[2.0375032E0,-1.0984504E0,2.4166696E0,2.5172763E0,1.3081006E1,1.4471073E-1,-5.142409E-1,1.4978927E-1,1.1154726E0,1.2963495E0,1.3388457E1,6.4820786E1,-4.2168254E-1,-1.5073969E0,1.4699104E0,-2.6531538E-1,5E-1,-1.9163435E0,5E-1,2.0126099E2,8.976466E1,3.6891806E0,2.944459E0,3.3080525E0,-1.6813875E0,3.937805E0,-1.6826597E0,5.0371265E0,5.1565256E0,3.6529975E0,3.096103E0,-4.2168254E-1,-2.477211E-1,3.3279908E-1,5E-1,5E-1,2.8371506E0,1.2762827E0,-2.4197519E-2,1.7272826E2,-5.0397217E-2,9.0515447E-1,-2.8006973E0,-6.2843084E0,1.3381268E1,2.6912537E0,1.2345866E0,-1.390555E0,-6.895037E-1,3.163642E-1,-1.544576E0,3.709511E0,-5.4345137E-1,2.505136E0,9.5989645E-1,5E-1,5E-1,2.8868754E0,2.1080894E0,7.014476E0,8.567574E0,-1.0102041E-1,-1.3345307E-1,-9.176425E-2,-2.0399538E-1,-2.8509542E-1,-6.407536E-1,-3.7026885E-1,-7.24714E-2,1.4950882E-2,-1.0398918E-1,-5.6913268E-2,-6.036456E-1,-5.3727585E-1,-1.7464646E0,-3.8236015E-2,-1.1183063E0,-4.1415016E-3,-1.5250658E0,-4.392882E-2,-8.2876906E-2,-3.548648E-1,-5.761308E0,1.6405435E-2,-2.8349311E0,1.352506E-2,-3.188958E-1,-1.5523788E-1,-5.2921243E-2,-7.088281E-2,-1.1672016E-1,-1.7731866E-1,-3.9888477E-1,-4.3547302E-1,-2.3455277E-1,-7.764359E-2,-1.604992E-1,-3.0273297E-1,-1.0801595E0,-3.7802937E0,-2.2584212E-1,-1.5294994E-1,-5.6183803E-1,-2.9037127E0,-7.131116E-1,-7.5385445E-1,-2.484225E-1,-3.7592854E0,-1.415199E0,-3.4677106E-1,-7.4068046E-1,-7.506755E-1,-4.1231575E0],"split_indices":[41,30,33,33,33,33,30,33,41,41,33,32,31,30,31,33,6,30,23,36,37,31,31,41,0,32,30,31,41,33,35,31,41,33,15,18,33,31,0,34,33,33,0,0,33,31,41,30,30,33,0,41,30,41,40,25,6,33,41,33,33,0,0,0,0,0,0,0,0,0,0,0,0,0,0,0,0,0,0,0,0,0,0,0,0,0,0,0,0,0,0,0,0,0,0,0,0,0,0,0,0,0,0,0,0,0,0,0,0,0,0,0,0],"split_type":[0,0,0,0,0,0,0,0,0,0,0,0,0,0,0,0,0,0,0,0,0,0,0,0,0,0,0,0,0,0,0,0,0,0,0,0,0,0,0,0,0,0,0,0,0,0,0,0,0,0,0,0,0,0,0,0,0,0,0,0,0,0,0,0,0,0,0,0,0,0,0,0,0,0,0,0,0,0,0,0,0,0,0,0,0,0,0,0,0,0,0,0,0,0,0,0,0,0,0,0,0,0,0,0,0,0,0,0,0,0,0,0,0],"sum_hessian":[9.35124E5,9.11475E5,2.3649E4,7.81E2,9.10694E5,2.1885E4,1.764E3,7.57E2,2.4E1,9.10166E5,5.28E2,1.74E4,4.485E3,1.304E3,4.6E2,6.54E2,1.03E2,8E0,1.6E1,8.45179E5,6.4987E4,3.8E1,4.9E2,1.7399E4,1E0,1.73E2,4.312E3,3.1E1,1.273E3,7.8E1,3.82E2,4.94E2,1.6E2,2.7E1,7.6E1,2E0,6E0,1.5E1,1E0,8.45175E5,4E0,6.4986E4,1E0,2E0,3.6E1,1.6E1,4.74E2,1.3836E4,3.563E3,1.71E2,2E0,7.2E1,4.24E3,2.6E1,5E0,1.26E3,1.3E1,4.6E1,3.2E1,3.6E2,2.2E1,2.46E2,2.48E2,1E1,1.5E2,8E0,1.9E1,7.1E1,5E0,1E0,1E0,1E0,5E0,3E0,1.2E1,8.45173E5,2E0,2E0,2E0,5.8346E4,6.64E3,3.5E1,1E0,1.1E1,5E0,3.9E2,8.4E1,2.54E2,1.3582E4,1.928E3,1.635E3,8.1E1,9E1,5.5E1,1.7E1,2.531E3,1.709E3,1E1,1.6E1,4E0,1E0,1.217E3,4.3E1,2E0,1.1E1,3.1E1,1.5E1,2E0,3E1,2.55E2,1.05E2,1.9E1,3E0],"tree_param":{"num_deleted":"0","num_feature":"42","num_nodes":"113","size_leaf_vector":"0"}},{"base_weights":[-3.6464906E-1,-3.5185754E-1,-8.176226E-1,-1.8696756E0,-3.5057765E-1,-6.6261226E-1,-2.7174172E0,-1.5065101E0,-8.9843E0,-3.499448E-1,-1.442564E0,-5.9401035E-1,-1.36138E0,-1.7720797E0,-5.4677296E0,-1.2294909E0,-3.4627638E0,-7.3199525E0,-1.50715065E1,-3.423486E-1,-4.1178805E-1,-1.0275808E1,-7.336724E-1,-1.6502018E0,-5.699552E-1,-5.1693196E0,-1.2423564E0,-1.1712574E1,-1.5455444E0,-6.298419E0,-1.2070819E0,-1.0226442E0,-1.70082E0,-2.0330358E0,-3.8954253E0,-7.8012958E0,-2.2698312E-1,-1.81096E1,-4.9841843E0,-3.4229735E-1,-8.5635605E0,-4.1127405E-1,-1.7295382E1,-5.865354E1,-6.0755653E0,-5.963392E-1,-2.273708E1,-1.3727121E0,-3.3153563E0,-5.678534E-1,-1.1536142E1,-4.3942475E0,-1.5696838E1,-1.2205849E0,-1.2122326E1,-7.2821436E0,-2.9697416E1,-1.4079175E0,-8.553148E0,-5.740785E0,-3.0754076E1,4.7403477E-2,-7.303683E0,-1.0039688E0,-2.8446121E0,-1.5116814E0,-2.1288953E0,-1.0340931E0,-2.8625586E0,-5.4279113E0,-3.2351723E0,-8.624408E0,-2.125479E0,1.4203338E-1,-4.8250806E-1,-7.9943657E0,-2.21883E1,-3.422595E-1,-1.0437525E1,-3.865401E-2,-1.4233947E1,-3.5823005E-1,-5.3517795E-1,-2.6606625E1,6.635517E-1,-3.2036405E0,-5.473243E1,-9.0666485E0,-2.8869754E-1,-3.5241116E1,1.1354951E0,-1.1303037E0,-1.7918156E0,-3.4278352E0,2.64301E-1,-4.4918954E-1,-7.340531E-1,-4.7327366E0,-1.5973181E1,-5.662885E0,-1.5103953E0,-8.9672536E-1,-1.6845907E0,-2.6163575E-1,-1.5988677E1,-1.4763883E1,-5.339063E0,-3.4778698E1,-2.1455E0,-1.2878678E0,-4.5898895E0,-6.42495E0,-2.3437086E1,-5.391357E0,-1.6764404E1,-4.7534138E1,-7.823198E0,-1.8956059E0,1.8811512E0,-1.3544965E1,-9.2960083E-1],"categories":[],"categories_nodes":[],"categories_segments":[],"categories_sizes":[],"default_left":[1,1,1,1,1,1,1,1,1,1,1,1,1,1,1,1,1,1,1,1,1,1,1,1,1,1,1,1,1,1,1,1,1,1,1,1,1,1,0,1,1,1,1,0,1,1,1,1,1,1,1,1,0,1,1,1,1,1,1,1,1,1,1,0,0,0,0,0,0,0,0,0,0,0,0,0,0,0,0,0,0,0,0,0,0,0,0,0,0,0,0,0,0,0,0,0,0,0,0,0,0,0,0,0,0,0,0,0,0,0,0,0,0,0,0,0,0,0,0,0,0],"id":3,"left_children":[1,3,5,7,9,11,13,15,17,19,21,23,25,27,29,31,33,35,37,39,41,43,45,47,49,51,53,55,57,59,61,63,65,67,69,71,73,75,-1,77,79,81,83,-1,85,87,89,91,93,95,97,99,-1,101,103,105,107,109,111,113,115,117,119,-1,-1,-1,-1,-1,-1,-1,-1,-1,-1,-1,-1,-1,-1,-1,-1,-1,-1,-1,-1,-1,-1,-1,-1,-1,-1,-1,-1,-1,-1,-1,-1,-1,-1,-1,-1,-1,-1,-1,-1,-1,-1,-1,-1,-1,-1,-1,-1,-1,-1,-1,-1,-1,-1,-1,-1,-1,-1],"loss_changes":[5.4180312E3,1.7660547E3,7.5609395E3,1.9656448E3,6.2746094E2,1.1374502E3,5.026461E3,3.9134412E2,2.645327E2,4.2648438E2,3.2861748E3,5.4845703E2,9.5534155E2,3.231351E3,1.7443369E3,6.07536E1,4.7753418E1,1.0406799E2,1.2426172E2,3.3782812E2,8.550254E2,7.568379E3,1.4610778E3,2.1770142E2,4.8079834E2,4.532378E2,4.7292603E2,2.333518E3,1.3497395E3,5.469291E3,6.274901E2,1.2387665E1,1.2489136E1,1.6098686E1,5.124414E1,1.1715198E2,3.5141098E-1,2.8903687E1,0E0,3.05625E2,2.4114734E2,6.526992E2,5.193149E2,0E0,4.9949946E3,1.263811E3,9.3552673E2,4.0034668E1,2.8285217E1,4.1661084E2,4.5151E1,2.1461926E2,0E0,3.074502E2,1.7924713E2,3.1369055E2,7.6537744E2,5.235337E2,7.0466907E2,1.4735146E3,3.091165E3,2.4941216E2,5.4436273E2,0E0,0E0,0E0,0E0,0E0,0E0,0E0,0E0,0E0,0E0,0E0,0E0,0E0,0E0,0E0,0E0,0E0,0E0,0E0,0E0,0E0,0E0,0E0,0E0,0E0,0E0,0E0,0E0,0E0,0E0,0E0,0E0,0E0,0E0,0E0,0E0,0E0,0E0,0E0,0E0,0E0,0E0,0E0,0E0,0E0,0E0,0E0,0E0,0E0,0E0,0E0,0E0,0E0,0E0,0E0,0E0,0E0,0E0],"parents":[2147483647,0,0,1,1,2,2,3,3,4,4,5,5,6,6,7,7,8,8,9,9,10,10,11,11,12,12,13,13,14,14,15,15,16,16,17,17,18,18,19,19,20,20,21,21,22,22,23,23,24,24,25,25,26,26,27,27,28,28,29,29,30,30,31,31,32,32,33,33,34,34,35,35,36,36,37,37,39,39,40,40,41,41,42,42,44,44,45,45,46,46,47,47,48,48,49,49,50,50,51,51,53,53,54,54,55,55,56,56,57,57,58,58,59,59,60,60,61,61,62,62],"right_children":[2,4,6,8,10,12,14,16,18,20,22,24,26,28,30,32,34,36,38,40,42,44,46,48,50,52,54,56,58,60,62,64,66,68,70,72,74,76,-1,78,80,82,84,-1,86,88,90,92,94,96,98,100,-1,102,104,106,108,110,112,114,116,118,120,-1,-1,-1,-1,-1,-1,-1,-1,-1,-1,-1,-1,-1,-1,-1,-1,-1,-1,-1,-1,-1,-1,-1,-1,-1,-1,-1,-1,-1,-1,-1,-1,-1,-1,-1,-1,-1,-1,-1,-1,-1,-1,-1,-1,-1,-1,-1,-1,-1,-1,-1,-1,-1,-1,-1,-1,-1,-1],"split_conditions":[1.9757404E0,-1.0984504E0,2.3033752E0,1.4537673E0,1.3081006E1,8.3575094E-1,-5.142409E-1,1.4978927E-1,5.6775875E0,1.146354E0,1.3388457E1,-1.0984504E0,-2.4294934E-1,-1.5073969E0,6.593595E0,-3.0355656E-1,6.3460493E-1,1.5725978E-2,7.683399E0,2.0126099E2,8.976466E1,3.6891806E0,1.8963311E0,1.869643E-2,2.8864088E1,2.7128944E0,1.920279E1,5.0371265E0,4.8433E0,1.2323159E1,5E-1,2.4852499E1,-8.1583865E-2,-1.7410808E0,1.1242958E0,5E-1,5E-1,4.418866E0,-4.9841842E-1,1.7272826E2,-5.0397217E-2,-6.602932E-1,5E-1,-5.865354E0,1.3381268E1,2.944459E0,5E-1,-3.6227715E-1,3.6682787E0,-6.895037E-1,5E-1,5E-1,-1.5696839E0,-5.4345137E-1,3.3286276E-1,6.65611E-1,9.5989645E-1,5E-1,1.2282236E1,9.288327E0,1.3392408E1,3.2462897E0,3.7139225E0,-1.0039689E-1,-2.8446123E-1,-1.5116815E-1,-2.1288954E-1,-1.0340931E-1,-2.8625587E-1,-5.427911E-1,-3.2351723E-1,-8.6244076E-1,-2.125479E-1,1.4203339E-2,-4.8250806E-2,-7.9943657E-1,-2.2188299E0,-3.4225952E-2,-1.0437526E0,-3.865401E-3,-1.4233947E0,-3.5823006E-2,-5.3517796E-2,-2.6606624E0,6.635517E-2,-3.2036406E-1,-5.473243E0,-9.0666485E-1,-2.8869754E-2,-3.5241115E0,1.1354951E-1,-1.13030374E-1,-1.7918156E-1,-3.4278354E-1,2.64301E-2,-4.4918954E-2,-7.340531E-2,-4.7327366E-1,-1.597318E0,-5.6628853E-1,-1.5103953E-1,-8.9672536E-2,-1.6845907E-1,-2.6163576E-2,-1.5988678E0,-1.4763883E0,-5.3390634E-1,-3.4778697E0,-2.1455E-1,-1.2878679E-1,-4.5898896E-1,-6.4249504E-1,-2.3437088E0,-5.391357E-1,-1.6764405E0,-4.7534137E0,-7.823198E-1,-1.8956059E-1,1.8811512E-1,-1.3544965E0,-9.296008E-2],"split_indices":[41,30,33,33,33,33,30,33,31,41,33,30,31,30,31,33,41,40,33,36,37,31,41,33,32,35,38,31,41,33,8,36,33,30,41,9,8,33,0,34,33,30,12,0,33,31,15,33,32,30,25,12,0,30,30,31,40,25,40,35,33,41,41,0,0,0,0,0,0,0,0,0,0,0,0,0,0,0,0,0,0,0,0,0,0,0,0,0,0,0,0,0,0,0,0,0,0,0,0,0,0,0,0,0,0,0,0,0,0,0,0,0,0,0,0,0,0,0,0,0,0],"split_type":[0,0,0,0,0,0,0,0,0,0,0,0,0,0,0,0,0,0,0,0,0,0,0,0,0,0,0,0,0,0,0,0,0,0,0,0,0,0,0,0,0,0,0,0,0,0,0,0,0,0,0,0,0,0,0,0,0,0,0,0,0,0,0,0,0,0,0,0,0,0,0,0,0,0,0,0,0,0,0,0,0,0,0,0,0,0,0,0,0,0,0,0,0,0,0,0,0,0,0,0,0,0,0,0,0,0,0,0,0,0,0,0,0,0,0,0,0,0,0,0,0],"sum_hessian":[9.35124E5,9.09444E5,2.568E4,7.65E2,9.08679E5,2.3744E4,1.936E3,7.29E2,3.6E1,9.08154E5,5.25E2,2.1623E4,2.121E3,1.442E3,4.94E2,6.4E2,8.9E1,3E1,6E0,8.08814E5,9.934E4,3.8E1,4.87E2,4.8E2,2.1143E4,6.3E1,2.058E3,3.1E1,1.411E3,4.13E2,8.1E1,4.47E2,1.93E2,2.2E1,6.7E1,2.8E1,2E0,4E0,2E0,8.0881E5,4E0,9.9338E4,2E0,2E0,3.6E1,4.85E2,2E0,4.13E2,6.7E1,2.114E4,3E0,6E1,3E0,2.055E3,3E0,2.6E1,5E0,1.385E3,2.6E1,4.05E2,8E0,6.8E1,1.3E1,4.44E2,3E0,1.37E2,5.6E1,1.1E1,1.1E1,1.8E1,4.9E1,2.4E1,4E0,1E0,1E0,2E0,2E0,8.08808E5,2E0,2E0,2E0,6.9562E4,2.9776E4,1E0,1E0,3.5E1,1E0,1.6E1,4.69E2,1E0,1E0,2.64E2,1.49E2,6.5E1,2E0,1.2336E4,8.804E3,2E0,1E0,4.1E1,1.9E1,1.212E3,8.43E2,1E0,2E0,4E0,2.2E1,4E0,1E0,1.336E3,4.9E1,2.4E1,2E0,3.94E2,1.1E1,4E0,4E0,3.3E1,3.5E1,6E0,7E0],"tree_param":{"num_deleted":"0","num_feature":"42","num_nodes":"121","size_leaf_vector":"0"}},{"base_weights":[-3.282411E-1,-3.172229E-1,-7.5722575E-1,-1.6871943E0,-3.1604347E-1,-6.1104596E-1,-2.5622063E0,-1.422034E0,-9.68058E0,-3.154812E-1,-1.3230832E0,-4.8432514E-1,-9.551087E-1,-1.7182386E0,-4.9967327E0,-1.1197534E0,-3.3179612E0,-3.5127237E0,-1.237647E1,-3.0966648E-1,-3.9082548E-1,-2.091832E1,-6.433228E-1,-4.8166278E-1,-1.0900177E1,-2.2166767E0,-8.879503E-1,-1.0581169E1,-1.4869533E0,-7.406569E0,-3.512467E0,-9.260046E-1,-1.5515833E0,-4.596389E0,-2.809988E0,-2.8116333E-1,-4.3958607E0,-1.3175167E1,2.0134401E-1,-3.0962068E-1,-7.9926567E0,-3.900564E-1,-2.5276293E1,-6.902876E0,-4.546282E1,-3.9908926E0,1.6377354E-2,-1.1322168E0,-4.497325E-1,-4.4172206E0,-1.5174522E1,-2.0945008E0,-1.3369588E1,-3.1917374E0,-8.5101813E-1,-6.6283846E0,-2.4316029E1,-1.376233E0,-1.009248E1,-6.639274E0,-4.816199E1,-2.0191822E0,-6.509438E0,-9.0890294E-1,-2.631266E0,-1.3727306E0,-1.9719638E0,-3.2656248E0,-6.0986056E0,-2.3708394E0,-4.2204633E0,1.3493173E-1,-5.5667675E-1,-4.344021E-1,-4.983703E0,-1.4078431E1,1.8690217E-1,-3.0986366E-1,1.0002652E0,-3.6077082E-2,-1.3285018E1,-3.669605E-1,-9.650608E-1,1.923373E0,-5.1995808E1,-7.27663E1,-1.3619506E1,-2.9460008E0,-1.9284048E1,4.5827687E-1,-3.5977426E0,-9.243516E-1,-1.9236711E0,-1.1971294E0,-4.321663E-1,-1.6758591E0,-3.2215962E0,-3.5274446E0,-1.8046049E0,-6.066566E-1,-1.2088312E0,-1.4696197E1,-5.0075665E0,-3.545812E1,-7.094934E0,-8.226722E0,-1.3035964E0,-2.6105917E1,-5.940138E0,-5.7588964E0,-1.4697955E1,-1.7529722E0,-1.7939875E1,-4.7640386E0,-2.4458805E1],"categories":[],"categories_nodes":[],"categories_segments":[],"categories_sizes":[],"default_left":[1,1,1,1,1,1,1,1,1,1,1,1,1,1,1,1,1,1,1,1,1,1,1,1,1,1,1,1,1,1,1,1,1,1,1,1,1,1,0,1,1,1,0,1,1,1,1,1,1,0,0,1,0,1,1,1,1,1,1,1,0,1,1,0,0,0,0,0,0,0,0,0,0,0,0,0,0,0,0,0,0,0,0,0,0,0,0,0,0,0,0,0,0,0,0,0,0,0,0,0,0,0,0,0,0,0,0,0,0,0,0,0,0,0,0],"id":4,"left_children":[1,3,5,7,9,11,13,15,17,19,21,23,25,27,29,31,33,35,37,39,41,43,45,47,49,51,53,55,57,59,61,63,65,67,69,71,73,75,-1,77,79,81,-1,83,85,87,89,91,93,-1,-1,95,-1,97,99,101,103,105,107,109,-1,111,113,-1,-1,-1,-1,-1,-1,-1,-1,-1,-1,-1,-1,-1,-1,-1,-1,-1,-1,-1,-1,-1,-1,-1,-1,-1,-1,-1,-1,-1,-1,-1,-1,-1,-1,-1,-1,-1,-1,-1,-1,-1,-1,-1,-1,-1,-1,-1,-1,-1,-1,-1,-1],"loss_changes":[4.4197656E3,1.4725938E3,6.176785E3,1.6479441E3,5.153672E2,9.440425E2,3.59529E3,4.3184253E2,3.7222144E2,3.9873438E2,6.7531357E3,4.338374E2,4.9197803E2,2.6572913E3,1.5871387E3,5.3532166E1,5.462256E1,2.4449219E1,1.7343237E2,2.9504688E2,1.238459E3,5.5342104E3,1.0865945E3,3.2833813E2,4.3812347E1,3.7260742E2,4.6839355E2,1.6304253E3,1.1980801E3,5.0276533E3,1.2444243E3,1.0906677E1,1.2480621E1,3.60589E1,3.7688416E1,4.1903263E-1,1.4136078E1,1.9574292E2,0E0,2.6934375E2,2.100662E2,8.6582324E2,0E0,4.8760244E3,4.2255596E3,1.2375442E3,6.596448E2,1.1996356E2,1.9762451E2,0E0,0E0,1.3238098E2,0E0,3.4147583E1,4.758789E2,2.7947217E2,1.0915796E3,6.1475415E2,9.088197E2,1.1143569E3,0E0,7.6958044E2,2.7970571E3,0E0,0E0,0E0,0E0,0E0,0E0,0E0,0E0,0E0,0E0,0E0,0E0,0E0,0E0,0E0,0E0,0E0,0E0,0E0,0E0,0E0,0E0,0E0,0E0,0E0,0E0,0E0,0E0,0E0,0E0,0E0,0E0,0E0,0E0,0E0,0E0,0E0,0E0,0E0,0E0,0E0,0E0,0E0,0E0,0E0,0E0,0E0,0E0,0E0,0E0,0E0,0E0],"parents":[2147483647,0,0,1,1,2,2,3,3,4,4,5,5,6,6,7,7,8,8,9,9,10,10,11,11,12,12,13,13,14,14,15,15,16,16,17,17,18,18,19,19,20,20,21,21,22,22,23,23,24,24,25,25,26,26,27,27,28,28,29,29,30,30,31,31,32,32,33,33,34,34,35,35,36,36,37,37,39,39,40,40,41,41,43,43,44,44,45,45,46,46,47,47,48,48,51,51,53,53,54,54,55,55,56,56,57,57,58,58,59,59,61,61,62,62],"right_children":[2,4,6,8,10,12,14,16,18,20,22,24,26,28,30,32,34,36,38,40,42,44,46,48,50,52,54,56,58,60,62,64,66,68,70,72,74,76,-1,78,80,82,-1,84,86,88,90,92,94,-1,-1,96,-1,98,100,102,104,106,108,110,-1,112,114,-1,-1,-1,-1,-1,-1,-1,-1,-1,-1,-1,-1,-1,-1,-1,-1,-1,-1,-1,-1,-1,-1,-1,-1,-1,-1,-1,-1,-1,-1,-1,-1,-1,-1,-1,-1,-1,-1,-1,-1,-1,-1,-1,-1,-1,-1,-1,-1,-1,-1,-1,-1],"split_conditions":[2.0463266E0,-1.0984504E0,2.4166696E0,2.5172763E0,1.330118E1,-3.1026036E-2,-3.97399E-1,1.4978927E-1,1.1154726E0,1.2963495E0,1.3388457E1,2.8864088E1,-4.514714E-1,-1.0984503E0,2.8253036E0,-3.0355656E-1,5E-1,-1.9163435E0,5E-1,2.0126099E2,8.976466E1,8.8606787E-1,5.9233456E0,-6.748879E-1,5E-1,3.937805E0,-1.6826597E0,5.0371265E0,5.1565256E0,1.2323159E1,7.3353577E0,2.4852499E1,5E-1,8.5242915E-1,1.2233444E-2,5E-1,2.8371506E0,1.9007428E0,2.0134402E-2,1.204693E1,-5.0397217E-2,2.423738E0,-2.5276294E0,1.3381268E1,1.0537097E0,5.871215E0,1.4198751E0,-3.9405352E-1,-1.390555E0,-4.4172207E-1,-1.5174522E0,3.144542E-1,-1.3369588E0,3.7271576E0,-5.4345137E-1,2.4856691E-1,2.540429E0,2.0551498E0,5E-1,5.015353E0,-4.8161993E0,1.961041E0,5E-1,-9.0890296E-2,-2.631266E-1,-1.3727306E-1,-1.9719638E-1,-3.265625E-1,-6.098606E-1,-2.3708394E-1,-4.2204633E-1,1.3493173E-2,-5.5667676E-2,-4.344021E-2,-4.9837032E-1,-1.4078431E0,1.8690217E-2,-3.0986367E-2,1.00026526E-1,-3.6077083E-3,-1.3285018E0,-3.669605E-2,-9.650608E-2,1.923373E-1,-5.1995807E0,-7.27663E0,-1.3619506E0,-2.946001E-1,-1.9284048E0,4.5827687E-2,-3.5977426E-1,-9.243516E-2,-1.9236712E-1,-1.1971294E-1,-4.321663E-2,-1.6758591E-1,-3.2215962E-1,-3.5274446E-1,-1.804605E-1,-6.0665663E-2,-1.2088312E-1,-1.4696196E0,-5.007567E-1,-3.545812E0,-7.094934E-1,-8.226722E-1,-1.3035963E-1,-2.6105917E0,-5.940138E-1,-5.7588965E-1,-1.4697956E0,-1.7529723E-1,-1.7939875E0,-4.7640386E-1,-2.4458807E0],"split_indices":[41,30,33,33,33,33,30,33,41,41,33,32,31,30,31,33,6,30,23,36,37,41,31,31,25,32,30,31,41,33,33,36,8,33,35,18,33,41,0,33,33,33,0,33,41,31,41,33,30,0,0,33,0,41,30,31,41,41,6,41,0,39,8,0,0,0,0,0,0,0,0,0,0,0,0,0,0,0,0,0,0,0,0,0,0,0,0,0,0,0,0,0,0,0,0,0,0,0,0,0,0,0,0,0,0,0,0,0,0,0,0,0,0,0,0],"split_type":[0,0,0,0,0,0,0,0,0,0,0,0,0,0,0,0,0,0,0,0,0,0,0,0,0,0,0,0,0,0,0,0,0,0,0,0,0,0,0,0,0,0,0,0,0,0,0,0,0,0,0,0,0,0,0,0,0,0,0,0,0,0,0,0,0,0,0,0,0,0,0,0,0,0,0,0,0,0,0,0,0,0,0,0,0,0,0,0,0,0,0,0,0,0,0,0,0,0,0,0,0,0,0,0,0,0,0,0,0,0,0,0,0,0,0],"sum_hessian":[9.35124E5,9.11709E5,2.3415E4,7.83E2,9.10926E5,2.1662E4,1.753E3,7.59E2,2.4E1,9.10419E5,5.07E2,1.5833E4,5.829E3,1.303E3,4.5E2,6.56E2,1.03E2,8E0,1.6E1,8.45196E5,6.5223E4,1.6E1,4.91E2,1.583E4,3E0,2.93E2,5.536E3,3.2E1,1.271E3,1.7E2,2.8E2,4.55E2,2.01E2,2.7E1,7.6E1,2E0,6E0,1.5E1,1E0,8.45192E5,4E0,6.5222E4,1E0,1.1E1,5E0,8E1,4.11E2,7.39E2,1.5091E4,2E0,1E0,2.91E2,2E0,8.6E1,5.45E3,2.6E1,6E0,1.256E3,1.5E1,1.68E2,2E0,1.88E2,9.2E1,4.52E2,3E0,1.44E2,5.7E1,1.6E1,1.1E1,6E1,1.6E1,1E0,1E0,1E0,5E0,1.4E1,1E0,8.45036E5,1.56E2,2E0,2E0,6.2705E4,2.517E3,1E1,1E0,2E0,3E0,7.6E1,4E0,3.67E2,4.4E1,5.87E2,1.52E2,3.45E2,1.4746E4,2.14E2,7.7E1,6.8E1,1.8E1,3.24E3,2.21E3,3E0,2.3E1,3E0,3E0,1.2E1,1.244E3,2E0,1.3E1,1.53E2,1.5E1,1.86E2,2E0,8.5E1,7E0],"tree_param":{"num_deleted":"0","num_feature":"42","num_nodes":"115","size_leaf_vector":"0"}},{"base_weights":[-2.95472E-1,-2.8662544E-1,-7.3572123E-1,-1.5931928E0,-2.8542823E-1,-5.873913E-1,-2.3429503E0,-1.2977164E0,-1.201976E1,-2.847393E-1,-1.4440854E0,-5.043133E-1,-1.0809317E0,-1.5403991E0,-4.612393E0,-1.0429014E0,-3.270224E0,-9.336318E0,-3.5527744E1,-2.8012088E-1,-3.863607E-1,-1.2536843E0,-5.2415943E1,-4.2308623E-1,-7.265427E-1,-2.9455535E0,-9.5166343E-1,-8.469151E0,-1.3727398E0,-4.1179423E0,-1.2667029E1,-8.5465395E-1,-1.5260634E0,-4.9289804E0,-2.686821E0,-1.1550644E1,-4.017419E0,-2.7998453E-1,-2.5272653E0,-3.4969738E-1,-1.2594982E0,-9.929598E0,-6.546457E-1,-1.2621311E0,-4.050554E-1,-5.562623E-1,-9.6987903E-1,-2.1887884E0,-6.076233E0,-9.331137E-1,-1.1240743E1,-1.831076E1,-6.4760013E0,-1.2547375E0,-8.989899E0,-7.2585783E0,-3.2143686E0,-8.691735E0,-3.627175E1,-8.3049035E-1,-3.1967354E0,-1.2997262E0,-2.1539645E0,-6.089256E0,-1.9923068E0,-2.3988879E0,-6.909979E0,-1.3273622E1,-2.3419054E-1,-5.154153E0,-4.0481114E-1,-2.7995184E-1,-9.721031E0,-1.7358661E0,-9.777524E0,-3.482568E-1,-1.4013761E1,-6.091938E-1,-5.6666155E0,-5.1863777E1,-5.816503E0,-3.066169E1,-5.35219E-1,-1.0832859E0,-2.6924667E0,-3.268747E-1,-5.272105E-1,-5.3913516E-1,-3.4949152E0,-7.7837545E-1,-1.3108681E0,-1.2258364E0,-3.0748067E0,-4.7038326E0,-1.3820875E1,-7.862577E-1,-1.9330745E0,-2.1822113E-1,-1.4842176E1,-1.3593982E1,-4.8118143E0,-1.0795097E0,-6.164986E0,-1.9347134E1,-5.3885536E0,-4.4771533E0,-1.0920042E1,-1.9688377E0,-6.67378E0,-1.4174887E1,-2.4184256E0],"categories":[],"categories_nodes":[],"categories_segments":[],"categories_sizes":[],"default_left":[1,1,1,1,1,1,1,1,1,1,1,1,1,1,1,1,1,1,0,1,1,1,0,1,1,1,1,1,1,1,1,1,1,1,1,1,1,1,1,1,1,1,1,1,1,1,1,1,1,1,1,0,1,1,1,1,1,1,0,0,0,0,0,0,0,0,0,0,0,0,0,0,0,0,0,0,0,0,0,0,0,0,0,0,0,0,0,0,0,0,0,0,0,0,0,0,0,0,0,0,0,0,0,0,0,0,0,0,0,0,0],"id":5,"left_children":[1,3,5,7,9,11,13,15,17,19,21,23,25,27,29,31,33,35,-1,37,39,41,-1,43,45,47,49,51,53,55,57,59,61,63,65,67,69,71,73,75,77,79,81,83,85,87,89,91,93,95,97,-1,99,101,103,105,107,109,-1,-1,-1,-1,-1,-1,-1,-1,-1,-1,-1,-1,-1,-1,-1,-1,-1,-1,-1,-1,-1,-1,-1,-1,-1,-1,-1,-1,-1,-1,-1,-1,-1,-1,-1,-1,-1,-1,-1,-1,-1,-1,-1,-1,-1,-1,-1,-1,-1,-1,-1,-1,-1],"loss_changes":[3.6418125E3,1.4335078E3,4.389955E3,2.5691973E3,7.3066406E2,6.909595E2,2.8269053E3,4.072339E2,1.1191946E3,4.2947656E2,5.2138604E3,2.602954E2,5.826741E2,1.3254556E3,1.5647822E3,6.463733E1,7.6755005E1,2.1270728E2,0E0,2.675703E2,1.2732583E3,2.8155833E3,0E0,1.5947449E2,1.5952551E2,3.586631E2,4.2333594E2,4.1104602E2,9.99917E2,1.0663823E3,1.8429573E3,2.6999908E1,2.5908142E1,6.6237366E1,6.975885E1,2.8936157E2,3.0766144E1,2.673203E2,2.871335E2,7.467832E2,4.5906953E3,5.735109E3,1.8076622E3,5.3872803E1,9.871008E1,1.12618286E2,1.0274231E2,1.05439514E2,2.538512E2,3.318302E2,1.5554861E2,0E0,2.1888385E2,9.475416E2,5.2984656E2,8.1675635E2,1.2795015E3,6.880668E2,0E0,0E0,0E0,0E0,0E0,0E0,0E0,0E0,0E0,0E0,0E0,0E0,0E0,0E0,0E0,0E0,0E0,0E0,0E0,0E0,0E0,0E0,0E0,0E0,0E0,0E0,0E0,0E0,0E0,0E0,0E0,0E0,0E0,0E0,0E0,0E0,0E0,0E0,0E0,0E0,0E0,0E0,0E0,0E0,0E0,0E0,0E0,0E0,0E0,0E0,0E0,0E0,0E0],"parents":[2147483647,0,0,1,1,2,2,3,3,4,4,5,5,6,6,7,7,8,8,9,9,10,10,11,11,12,12,13,13,14,14,15,15,16,16,17,17,19,19,20,20,21,21,23,23,24,24,25,25,26,26,27,27,28,28,29,29,30,30,31,31,32,32,33,33,34,34,35,35,36,36,37,37,38,38,39,39,40,40,41,41,42,42,43,43,44,44,45,45,46,46,47,47,48,48,49,49,50,50,52,52,53,53,54,54,55,55,56,56,57,57],"right_children":[2,4,6,8,10,12,14,16,18,20,22,24,26,28,30,32,34,36,-1,38,40,42,-1,44,46,48,50,52,54,56,58,60,62,64,66,68,70,72,74,76,78,80,82,84,86,88,90,92,94,96,98,-1,100,102,104,106,108,110,-1,-1,-1,-1,-1,-1,-1,-1,-1,-1,-1,-1,-1,-1,-1,-1,-1,-1,-1,-1,-1,-1,-1,-1,-1,-1,-1,-1,-1,-1,-1,-1,-1,-1,-1,-1,-1,-1,-1,-1,-1,-1,-1,-1,-1,-1,-1,-1,-1,-1,-1,-1,-1],"split_conditions":[2.2404382E0,-1.0984504E0,2.3033752E0,3.3291326E0,1.3081006E1,4.4024616E-1,-3.97399E-1,3.282287E-1,1.1485643E1,1.4904611E0,4.8581028E-1,3.3080525E0,-2.4294934E-1,-1.0984503E0,3.096103E0,-2.6531538E-1,5E-1,5.524294E0,-3.5527744E0,1.4136502E0,2.229137E0,3.6891806E0,-5.2415943E0,-1.6826597E0,7.710198E-1,1.1421373E0,1.920279E1,-2.0331855E0,5.1565256E0,1.6709852E0,1.0427866E1,2.4852499E1,5E-1,2.8327508E0,7.8266783E0,5E-1,5E-1,1.7272826E2,1.8165005E0,5.74192E1,-5.1424086E-1,1.3389866E1,1.3085785E1,-2.20996E-3,-6.895037E-1,1.9456078E1,-2.7096355E-1,3.303641E0,2.155259E0,5E-1,3.3286276E-1,-1.831076E0,2.4856691E-1,5E-1,5E-1,3.329147E0,7.4012785E0,5.8786364E0,-3.627175E0,-8.304904E-2,-3.1967354E-1,-1.2997262E-1,-2.1539645E-1,-6.089256E-1,-1.9923069E-1,-2.3988879E-1,-6.909979E-1,-1.3273622E0,-2.3419054E-2,-5.154153E-1,-4.0481117E-2,-2.7995184E-2,-9.721031E-1,-1.735866E-1,-9.777524E-1,-3.482568E-2,-1.4013761E0,-6.091938E-2,-5.6666154E-1,-5.186378E0,-5.816503E-1,-3.066169E0,-5.35219E-2,-1.08328596E-1,-2.6924667E-1,-3.268747E-2,-5.272105E-2,-5.3913515E-2,-3.4949154E-1,-7.783755E-2,-1.3108681E-1,-1.2258364E-1,-3.0748066E-1,-4.7038326E-1,-1.3820876E0,-7.862577E-2,-1.9330744E-1,-2.1822114E-2,-1.4842176E0,-1.3593982E0,-4.8118144E-1,-1.0795098E-1,-6.1649865E-1,-1.9347134E0,-5.388554E-1,-4.4771534E-1,-1.0920042E0,-1.9688378E-1,-6.67378E-1,-1.4174887E0,-2.4184255E-1],"split_indices":[41,30,33,33,33,33,30,33,33,41,32,41,31,30,35,33,6,33,0,30,33,31,0,30,30,33,38,30,41,31,33,36,8,31,35,18,2,34,33,32,30,33,33,33,30,36,33,41,35,8,30,0,31,25,6,33,33,33,0,0,0,0,0,0,0,0,0,0,0,0,0,0,0,0,0,0,0,0,0,0,0,0,0,0,0,0,0,0,0,0,0,0,0,0,0,0,0,0,0,0,0,0,0,0,0,0,0,0,0,0,0],"split_type":[0,0,0,0,0,0,0,0,0,0,0,0,0,0,0,0,0,0,0,0,0,0,0,0,0,0,0,0,0,0,0,0,0,0,0,0,0,0,0,0,0,0,0,0,0,0,0,0,0,0,0,0,0,0,0,0,0,0,0,0,0,0,0,0,0,0,0,0,0,0,0,0,0,0,0,0,0,0,0,0,0,0,0,0,0,0,0,0,0,0,0,0,0,0,0,0,0,0,0,0,0,0,0,0,0,0,0,0,0,0,0],"sum_hessian":[9.35124E5,9.16705E5,1.8419E4,8.38E2,9.15867E5,1.6864E4,1.555E3,8.16E2,2.2E1,9.15324E5,5.43E2,1.4436E4,2.428E3,1.15E3,4.05E2,7.24E2,9.2E1,2.1E1,1E0,8.75537E5,3.9787E4,5.42E2,1E0,1.0574E4,3.862E3,1.56E2,2.272E3,2.6E1,1.124E3,3.83E2,2.2E1,5.23E2,2.01E2,2.2E1,7E1,1.4E1,7E0,8.75485E5,5.2E1,3.8185E4,1.602E3,3.4E1,5.08E2,2.21E2,1.0353E4,2.274E3,1.588E3,1.27E2,2.9E1,2.269E3,3E0,3E0,2.3E1,1.108E3,1.6E1,8.4E1,2.99E2,2E1,2E0,5.19E2,4E0,1.5E2,5.1E1,1.5E1,7E0,6.7E1,3E0,1.2E1,2E0,5E0,2E0,8.75483E5,2E0,4.8E1,4E0,3.8182E4,3E0,1.397E3,2.05E2,2E0,3.2E1,1E0,5.07E2,1.98E2,2.3E1,6.315E3,4.038E3,2.262E3,1.2E1,1.019E3,5.69E2,6.2E1,6.5E1,2.6E1,3E0,1.98E3,2.89E2,1E0,2E0,3E0,2E1,1.071E3,3.7E1,3E0,1.3E1,4.9E1,3.5E1,2.21E2,7.8E1,1E1,1E1],"tree_param":{"num_deleted":"0","num_feature":"42","num_nodes":"111","size_leaf_vector":"0"}},{"base_weights":[-2.6597396E-1,-2.577945E-1,-6.5372366E-1,-1.4402993E0,-2.567293E-1,-5.22435E-1,-2.0925353E0,-1.360029E0,-3.3751358E1,-2.5608528E-1,-1.3428255E0,-3.861243E-1,-7.531548E-1,-1.3500065E0,-4.1552377E0,-1.0647349E0,-5.717855E0,-2.4914058E-1,-3.0925888E-1,-1.1612221E0,-4.9795147E1,-1.0651108E0,-3.5702053E-1,-5.488279E-1,-1.0479716E0,-7.576306E0,-1.1878177E0,-3.73608E0,-1.1037928E1,-8.405793E-1,-2.0200834E0,-4.624764E0,-1.20841875E1,-2.4909583E-1,-7.437417E0,-3.088228E-1,-1.5559078E1,-9.457128E0,-6.036984E-1,-9.1427094E-1,-1.7240276E0,-9.177771E-1,-3.4155053E-1,-2.2372038E0,-4.7570643E-1,-2.9467216E-1,-1.5649424E0,-3.136138E0,-9.639584E0,-1.0533203E0,-6.7927165E0,-4.5378137E0,-9.946056E-2,-7.424971E0,-3.3853634E1,-8.223728E-1,-2.9409966E0,-1.7057632E0,-3.2293832E0,-5.211054E0,-6.138553E-1,-2.0364857E1,-7.309933E0,-2.4906279E-1,-9.072964E0,-1.5008469E-2,-1.2380687E1,-2.7829286E-1,-4.978734E-1,-2.3998482E1,6.598649E-1,-4.8406193E1,-5.510118E0,-2.9128605E1,-4.8998338E-1,-8.239714E-1,-2.4713748E0,-1.3074263E0,-2.2699146E0,-7.489656E-1,-1.3743751E0,-1.5658839E-1,-3.814158E-1,-2.1244814E0,-1.0136383E1,-4.6823275E-1,-7.31104E0,-2.768738E-1,-3.024036E0,-1.5408192E0,-1.3852698E1,-6.864922E0,-2.4701085E-2,-1.9918821E1,-6.6539044E0,-9.210009E-1,-4.845454E0,-4.902525E0,-2.0280075E1,-3.544918E0,-9.15015E0,-1.4109411E0,4.380853E0,-1.3331391E1,-1.3920051E0],"categories":[],"categories_nodes":[],"categories_segments":[],"categories_sizes":[],"default_left":[1,1,1,1,1,1,1,1,0,1,1,1,1,1,1,1,1,1,1,1,0,1,1,1,1,1,1,1,1,1,1,1,1,1,1,1,1,1,1,1,1,1,1,1,1,1,1,1,1,1,1,1,1,1,0,0,0,0,0,0,0,0,0,0,0,0,0,0,0,0,0,0,0,0,0,0,0,0,0,0,0,0,0,0,0,0,0,0,0,0,0,0,0,0,0,0,0,0,0,0,0,0,0,0,0],"id":6,"left_children":[1,3,5,7,9,11,13,15,-1,17,19,21,23,25,27,29,31,33,35,37,-1,39,41,43,45,47,49,51,53,55,57,59,61,63,65,67,69,71,73,75,77,79,81,83,85,87,89,91,93,95,97,99,101,103,-1,-1,-1,-1,-1,-1,-1,-1,-1,-1,-1,-1,-1,-1,-1,-1,-1,-1,-1,-1,-1,-1,-1,-1,-1,-1,-1,-1,-1,-1,-1,-1,-1,-1,-1,-1,-1,-1,-1,-1,-1,-1,-1,-1,-1,-1,-1,-1,-1,-1,-1],"loss_changes":[2.965664E3,1.1531797E3,3.6480693E3,2.0912373E3,6.3966016E2,5.564927E2,2.4679507E3,1.0529812E3,0E0,3.3760547E2,4.711294E3,2.1958044E2,3.9543604E2,1.1916956E3,1.1906279E3,1.6362323E2,3.0598047E2,2.5829297E2,6.975957E2,2.4965046E3,0E0,4.384546E1,9.229126E1,4.785642E2,1.0471157E3,2.4460791E2,8.673047E2,1.1774502E3,1.727009E3,2.1558685E1,4.998712E1,1.0497272E2,1.278725E2,2.3352344E2,1.8326901E2,6.095156E2,4.264704E2,4.9601763E3,1.6335322E3,5.05502E1,1.6135284E1,2.1015228E1,7.6551636E1,1.2182196E2,1.8686865E2,5.2404434E1,4.5144482E2,1.2745109E2,4.812721E2,5.6454785E2,5.88906E2,1.4834004E3,4.4099368E2,7.653738E2,0E0,0E0,0E0,0E0,0E0,0E0,0E0,0E0,0E0,0E0,0E0,0E0,0E0,0E0,0E0,0E0,0E0,0E0,0E0,0E0,0E0,0E0,0E0,0E0,0E0,0E0,0E0,0E0,0E0,0E0,0E0,0E0,0E0,0E0,0E0,0E0,0E0,0E0,0E0,0E0,0E0,0E0,0E0,0E0,0E0,0E0,0E0,0E0,0E0,0E0,0E0],"parents":[2147483647,0,0,1,1,2,2,3,3,4,4,5,5,6,6,7,7,9,9,10,10,11,11,12,12,13,13,14,14,15,15,16,16,17,17,18,18,19,19,21,21,22,22,23,23,24,24,25,25,26,26,27,27,28,28,29,29,30,30,31,31,32,32,33,33,34,34,35,35,36,36,37,37,38,38,39,39,40,40,41,41,42,42,43,43,44,44,45,45,46,46,47,47,48,48,49,49,50,50,51,51,52,52,53,53],"right_children":[2,4,6,8,10,12,14,16,-1,18,20,22,24,26,28,30,32,34,36,38,-1,40,42,44,46,48,50,52,54,56,58,60,62,64,66,68,70,72,74,76,78,80,82,84,86,88,90,92,94,96,98,100,102,104,-1,-1,-1,-1,-1,-1,-1,-1,-1,-1,-1,-1,-1,-1,-1,-1,-1,-1,-1,-1,-1,-1,-1,-1,-1,-1,-1,-1,-1,-1,-1,-1,-1,-1,-1,-1,-1,-1,-1,-1,-1,-1,-1,-1,-1,-1,-1,-1,-1,-1,-1],"split_conditions":[2.2051454E0,-1.0984504E0,2.3033752E0,1.1485643E1,1.3081006E1,-1.9656618E-1,-5.142409E-1,1.1494992E0,-3.375136E0,1.146354E0,4.8581028E-1,-6.8978226E-1,-3.97399E-1,-1.0984503E0,3.096103E0,-7.9713024E-2,5.6775875E0,2.0126099E2,8.976466E1,3.6891806E0,-4.9795146E0,-3.946288E-1,-1.390555E0,-7.479247E-1,5E-1,2.9078913E0,4.8433E0,6.504228E0,1.0427866E1,2.4852499E1,5E-1,1.9007428E0,6.1988926E0,1.7272826E2,-5.0397217E-2,5.295954E-1,5E-1,1.3389866E1,1.3085785E1,2.7661104E0,4.03156E0,-3.6227715E-1,5E-1,2.183902E0,5.6462164E0,5E-1,1.9187283E1,5E-1,-1.9747645E0,5E-1,1.2282236E1,7.3353577E0,1.1400545E1,3.0742364E0,-3.3853633E0,-8.223728E-2,-2.9409966E-1,-1.7057632E-1,-3.2293832E-1,-5.211054E-1,-6.138553E-2,-2.0364857E0,-7.3099333E-1,-2.490628E-2,-9.0729636E-1,-1.5008469E-3,-1.2380687E0,-2.7829288E-2,-4.978734E-2,-2.3998482E0,6.598649E-2,-4.8406196E0,-5.510118E-1,-2.9128606E0,-4.8998337E-2,-8.239714E-2,-2.4713747E-1,-1.3074264E-1,-2.2699146E-1,-7.489657E-2,-1.3743751E-1,-1.5658839E-2,-3.8141582E-2,-2.1244815E-1,-1.0136384E0,-4.6823274E-2,-7.31104E-1,-2.768738E-2,-3.024036E-1,-1.5408193E-1,-1.3852699E0,-6.864922E-1,-2.4701084E-3,-1.9918822E0,-6.6539043E-1,-9.210009E-2,-4.8454544E-1,-4.902525E-1,-2.0280075E0,-3.544918E-1,-9.1501504E-1,-1.4109412E-1,4.3808532E-1,-1.3331392E0,-1.3920051E-1],"split_indices":[41,30,33,33,33,33,30,33,0,41,32,31,30,30,35,33,31,36,37,31,0,33,30,30,0,33,41,31,33,36,8,41,31,34,33,33,12,33,33,36,41,33,0,33,41,28,38,4,30,25,40,33,33,41,0,0,0,0,0,0,0,0,0,0,0,0,0,0,0,0,0,0,0,0,0,0,0,0,0,0,0,0,0,0,0,0,0,0,0,0,0,0,0,0,0,0,0,0,0,0,0,0,0,0,0],"split_type":[0,0,0,0,0,0,0,0,0,0,0,0,0,0,0,0,0,0,0,0,0,0,0,0,0,0,0,0,0,0,0,0,0,0,0,0,0,0,0,0,0,0,0,0,0,0,0,0,0,0,0,0,0,0,0,0,0,0,0,0,0,0,0,0,0,0,0,0,0,0,0,0,0,0,0,0,0,0,0,0,0,0,0,0,0,0,0,0,0,0,0,0,0,0,0,0,0,0,0,0,0,0,0,0,0],"sum_hessian":[9.35124E5,9.15807E5,1.9317E4,8.23E2,9.14984E5,1.7703E4,1.614E3,8.22E2,1E0,9.14443E5,5.41E2,1.113E4,6.573E3,1.188E3,4.26E2,7.71E2,5.1E1,8.08814E5,1.05629E5,5.4E2,1E0,4.56E2,1.0674E4,3.884E3,2.689E3,2.9E1,1.159E3,4.03E2,2.3E1,6.26E2,1.45E2,4.5E1,6E0,8.0881E5,4E0,1.05627E5,2E0,3.3E1,5.07E2,3.73E2,8.3E1,2.85E2,1.0389E4,1.6E2,3.724E3,1.095E3,1.594E3,1E1,1.9E1,1.133E3,2.6E1,3.3E2,7.3E1,2.1E1,2E0,6.22E2,4E0,1.17E2,2.8E1,3.9E1,6E0,1E0,5E0,8.08808E5,2E0,2E0,2E0,9.0943E4,1.4684E4,1E0,1E0,2E0,3.1E1,1E0,5.06E2,3.54E2,1.9E1,4.9E1,3.4E1,2.1E2,7.5E1,1.843E3,8.546E3,1.59E2,1E0,3.721E3,3E0,1.089E3,6E0,1.592E3,2E0,4E0,6E0,3E0,1.6E1,1.096E3,3.7E1,2.4E1,2E0,2.73E2,5.7E1,5.7E1,1.6E1,1E1,1.1E1],"tree_param":{"num_deleted":"0","num_feature":"42","num_nodes":"105","size_leaf_vector":"0"}},{"base_weights":[-2.3942214E-1,-2.3082334E-1,-5.439233E-1,-1.2499803E0,-2.2996396E-1,-4.664982E-1,-2.3816116E0,-9.925536E-1,-6.2951565E0,-2.2896166E-1,-6.3096404E-1,-3.8625497E-1,-1.0407163E0,-1.0668181E1,-1.9160192E0,-7.4248916E-1,-2.0050206E0,-4.9684815E0,-1.1271123E1,-2.2891526E-1,-8.595975E0,-4.6371514E-1,-6.1963677E0,-3.8447577E-1,-9.906702E0,-2.9125128E0,-9.1335744E-1,-5.4549767E1,-7.9830317E0,-1.7441748E1,-1.8029352E0,-5.3190607E-1,-9.026301E-1,-1.726997E0,-2.9627519E0,-5.355399E0,4.2787984E-1,-1.9346615E1,-6.7007723E0,-2.2877146E-1,-2.2938197E0,6.5431035E-1,-2.2798557E1,-4.2442983E-1,-1.762508E1,-3.508653E0,-1.6884077E1,-3.3055487E-1,-6.1412996E-1,-4.0748076E0,-1.3701193E1,-1.4412382E0,-4.3385935E0,-9.013812E-1,-1.7397041E1,-5.425438E0,-2.1691319E1,-3.470891E1,-3.593098E0,-1.059895E0,-3.9976823E0,-5.132983E-1,-2.6384442E0,-7.714891E-1,-1.2806239E0,-1.622959E0,-5.0354166E0,-3.131576E0,1.050987E0,-6.0027747E0,-1.047441E0,5.086822E-1,1.3313758E-1,-7.5103836E0,-1.3263571E0,-4.866559E-1,-2.277411E-1,-1.6287118E0,-6.6628475E0,8.289526E-1,6.51917E-2,-3.7091833E-1,-1.0132616E1,6.301175E-1,-4.5322933E1,-2.489435E0,-2.8763603E1,-2.2644312E1,1.7375252E0,-1.6468333E-1,-3.86187E-1,-4.6303007E-1,-8.302238E-1,-3.9158275E0,-9.7099334E-1,-3.627117E0,-1.0165728E1,-8.7759435E-1,-7.5191298E0,-4.539012E0,-2.2657305E1,-2.419105E1,-2.0965989E0,-4.1799957E-1,-8.146746E0,-8.657643E-1,-5.909977E0,-3.5078864E0,-1.6560295E1],"categories":[],"categories_nodes":[],"categories_segments":[],"categories_sizes":[],"default_left":[1,1,1,1,1,1,1,1,1,1,1,1,1,1,1,1,1,1,1,1,1,1,1,1,1,1,1,0,1,1,1,1,1,1,1,1,1,0,1,1,1,1,0,1,1,1,1,1,1,0,0,1,1,1,0,1,1,0,1,1,1,0,0,0,0,0,0,0,0,0,0,0,0,0,0,0,0,0,0,0,0,0,0,0,0,0,0,0,0,0,0,0,0,0,0,0,0,0,0,0,0,0,0,0,0,0,0,0,0],"id":7,"left_children":[1,3,5,7,9,11,13,15,17,19,21,23,25,27,29,31,33,35,37,39,41,43,45,47,49,51,53,-1,55,57,59,61,63,65,67,69,71,-1,73,75,77,79,-1,81,83,85,87,89,91,-1,-1,93,95,97,-1,99,101,-1,103,105,107,-1,-1,-1,-1,-1,-1,-1,-1,-1,-1,-1,-1,-1,-1,-1,-1,-1,-1,-1,-1,-1,-1,-1,-1,-1,-1,-1,-1,-1,-1,-1,-1,-1,-1,-1,-1,-1,-1,-1,-1,-1,-1,-1,-1,-1,-1,-1,-1],"loss_changes":[2.4483516E3,7.962461E2,3.6528647E3,9.886044E2,3.6507422E2,1.1351221E3,3.984334E3,1.8333417E2,1.8825464E2,3.4998047E2,2.105406E3,3.624751E2,7.175156E2,6.045102E3,1.6961731E3,1.9315277E1,3.32265E1,6.701776E1,1.2871759E2,2.6858594E2,6.7180707E2,1.4757361E3,1.8366438E3,2.675332E2,3.2686554E1,3.9659302E2,5.4299536E2,0E0,1.7405076E3,1.549176E3,1.5906707E3,8.680374E0,1.5469391E1,3.106665E1,2.4297333E1,7.45896E1,3.7228465E-3,0E0,1.614569E1,2.4072266E2,1.7221826E2,3.5749924E-1,0E0,1.1370632E3,2.5567078E3,1.3183711E3,1.4337874E3,1.6153333E2,1.3381421E2,0E0,0E0,1.07909424E2,3.6527686E2,4.3872925E2,0E0,5.99798E2,3.411333E2,0E0,6.888607E1,6.840981E2,1.4617278E3,0E0,0E0,0E0,0E0,0E0,0E0,0E0,0E0,0E0,0E0,0E0,0E0,0E0,0E0,0E0,0E0,0E0,0E0,0E0,0E0,0E0,0E0,0E0,0E0,0E0,0E0,0E0,0E0,0E0,0E0,0E0,0E0,0E0,0E0,0E0,0E0,0E0,0E0,0E0,0E0,0E0,0E0,0E0,0E0,0E0,0E0,0E0,0E0],"parents":[2147483647,0,0,1,1,2,2,3,3,4,4,5,5,6,6,7,7,8,8,9,9,10,10,11,11,12,12,13,13,14,14,15,15,16,16,17,17,18,18,19,19,20,20,21,21,22,22,23,23,24,24,25,25,26,26,28,28,29,29,30,30,31,31,32,32,33,33,34,34,35,35,36,36,38,38,39,39,40,40,41,41,43,43,44,44,45,45,46,46,47,47,48,48,51,51,52,52,53,53,55,55,56,56,58,58,59,59,60,60],"right_children":[2,4,6,8,10,12,14,16,18,20,22,24,26,28,30,32,34,36,38,40,42,44,46,48,50,52,54,-1,56,58,60,62,64,66,68,70,72,-1,74,76,78,80,-1,82,84,86,88,90,92,-1,-1,94,96,98,-1,100,102,-1,104,106,108,-1,-1,-1,-1,-1,-1,-1,-1,-1,-1,-1,-1,-1,-1,-1,-1,-1,-1,-1,-1,-1,-1,-1,-1,-1,-1,-1,-1,-1,-1,-1,-1,-1,-1,-1,-1,-1,-1,-1,-1,-1,-1,-1,-1,-1,-1,-1,-1],"split_conditions":[1.9757404E0,-1.0984504E0,3.862036E0,1.4537673E0,7.889094E0,8.3575094E-1,1.3358605E0,-7.9713024E-2,5.6775875E0,8.976466E1,5E-1,2.8864088E1,1.0255997E-2,2.0551498E0,-1.8579226E0,-4.453493E-1,5E-1,1.5725978E-2,6.1988926E0,1.4136502E0,5E-1,5E-1,1.2389982E0,3.3080525E0,5E-1,1.1484194E0,2.3962433E1,-5.4549766E0,4.9932957E0,2.540429E0,-4.2660952E-1,5E-1,5E-1,-1.5366074E0,1.4237266E0,5E-1,5E-1,-1.9346615E0,-1.7702911E0,-6.8978226E-1,1.237285E0,5E-1,-2.2798557E0,1.8875079E0,1.0378912E1,2.3775816E0,1.5610472E0,5E-1,7.710198E-1,-4.0748078E-1,-1.3701193E0,-3.4721038E-1,4.6315417E0,2.6697004E0,-1.7397041E0,5E-1,5E-1,-3.4708912E0,5E-1,5E-1,5E-1,-5.132983E-2,-2.6384443E-1,-7.714891E-2,-1.280624E-1,-1.6229591E-1,-5.0354165E-1,-3.1315762E-1,1.050987E-1,-6.002775E-1,-1.047441E-1,5.086822E-2,1.3313758E-2,-7.510384E-1,-1.3263571E-1,-4.866559E-2,-2.2774111E-2,-1.6287118E-1,-6.6628474E-1,8.2895264E-2,6.51917E-3,-3.7091833E-2,-1.0132617E0,6.301175E-2,-4.5322933E0,-2.489435E-1,-2.8763604E0,-2.2644312E0,1.7375253E-1,-1.6468333E-2,-3.86187E-2,-4.6303008E-2,-8.302238E-2,-3.9158276E-1,-9.7099334E-2,-3.627117E-1,-1.0165728E0,-8.7759435E-2,-7.51913E-1,-4.539012E-1,-2.2657306E0,-2.419105E0,-2.0965989E-1,-4.179996E-2,-8.1467456E-1,-8.657643E-2,-5.909977E-1,-3.5078865E-1,-1.6560296E0],"split_indices":[41,30,33,33,33,33,31,33,31,37,19,32,31,41,30,33,8,40,31,30,16,20,41,41,25,33,35,0,41,41,30,13,8,30,33,9,8,0,30,31,33,23,0,41,33,38,41,0,30,0,0,31,41,30,0,20,9,0,16,25,19,0,0,0,0,0,0,0,0,0,0,0,0,0,0,0,0,0,0,0,0,0,0,0,0,0,0,0,0,0,0,0,0,0,0,0,0,0,0,0,0,0,0,0,0,0,0,0,0],"split_type":[0,0,0,0,0,0,0,0,0,0,0,0,0,0,0,0,0,0,0,0,0,0,0,0,0,0,0,0,0,0,0,0,0,0,0,0,0,0,0,0,0,0,0,0,0,0,0,0,0,0,0,0,0,0,0,0,0,0,0,0,0,0,0,0,0,0,0,0,0,0,0,0,0,0,0,0,0,0,0,0,0,0,0,0,0,0,0,0,0,0,0,0,0,0,0,0,0,0,0,0,0,0,0,0,0,0,0,0,0],"sum_hessian":[9.35124E5,9.09444E5,2.568E4,7.65E2,9.08679E5,2.4643E4,1.037E3,7.29E2,3.6E1,9.06415E5,2.264E3,2.1623E4,3.02E3,5.4E1,9.83E2,5.86E2,1.43E2,3E1,6E0,9.06411E5,4E0,2.199E3,6.5E1,2.162E4,3E0,1.91E2,2.829E3,2E0,5.2E1,6E0,9.77E2,2.55E2,3.31E2,1.13E2,3E1,2.8E1,2E0,1E0,5E0,9.06349E5,6.2E1,3E0,1E0,2.195E3,4E0,5.3E1,1.2E1,1.7511E4,4.109E3,2E0,1E0,9.5E1,9.6E1,2.828E3,1E0,4.5E1,7E0,2E0,4E0,7.31E2,2.46E2,2.54E2,1E0,2.48E2,8.3E1,1.11E2,2E0,2.9E1,1E0,2.4E1,4E0,1E0,1E0,4E0,1E0,3.605E3,9.02744E5,5.5E1,7E0,2E0,1E0,2.184E3,1.1E1,3E0,1E0,5.2E1,1E0,9E0,3E0,4.399E3,1.3112E4,2.42E3,1.689E3,1.4E1,8.1E1,8.7E1,9E0,2.819E3,9E0,4.4E1,1E0,6E0,1E0,3E0,1E0,7.04E2,2.7E1,2.38E2,8E0],"tree_param":{"num_deleted":"0","num_feature":"42","num_nodes":"109","size_leaf_vector":"0"}},{"base_weights":[-2.155258E-1,-2.0776154E-1,-4.9047425E-1,-1.1313183E0,-2.0698278E-1,-4.2010847E-1,-2.1606135E0,-9.365966E-1,-6.865409E0,-2.055486E-1,-4.4546768E-1,-3.477202E-1,-9.381168E-1,-9.797789E0,-1.7315432E0,-7.200437E-1,-2.2883E0,-2.0388064E0,-9.016821E0,-2.0550123E-1,-1.4397799E1,-2.2879031E-1,-2.250347E0,-3.4603673E-1,-9.360432E0,-2.6309905E0,-8.2293314E-1,-5.0913116E1,-7.2856417E0,-1.6315767E1,-1.6253866E0,-5.412775E-1,-9.544944E-1,-3.4011776E0,-1.8628265E0,3.5120407E-1,-2.7718384E0,-1.7522502E0,-1.0448355E1,-2.054246E-1,-3.6554039E0,6.1932117E-2,-2.165863E1,-2.1235459E-1,-9.045793E0,-2.1829803E1,-1.2584997E0,-1.0792372E0,-3.2933858E-1,-3.8031533E0,-1.3016134E1,-1.3022048E0,-3.9189534E0,-8.115399E-1,-1.652719E1,-4.942016E0,-1.9850782E1,-3.2394985E1,-3.405083E0,-9.5483124E-1,-3.6060388E0,-5.2501297E-1,-1.8819654E0,-2.7413023E-1,-1.0123444E0,-2.651812E0,-5.5819883E0,-2.018731E0,2.92516E-1,4.8324805E-1,4.355806E-2,2.018714E-2,-3.2405405E0,-2.416578E0,1.2036657E-1,-1.1469866E1,1.4156493E0,-5.228785E-1,-2.0472907E-1,-4.7037814E-2,-1.2067085E1,-1.6740173E-1,-2.9557903E0,5.8767986E-1,-4.3056786E1,-1.1181343E1,-3.3256386E1,-9.69346E-2,-3.5073671E0,-8.7920004E-1,-2.2812397E0,-2.3669815E-1,-4.59103E-1,-3.5503504E0,-8.7507814E-1,-5.292306E0,-1.2185562E0,-7.6490986E-1,-3.7456224E0,-6.7930484E0,1.5651809E0,-2.211753E1,-1.9917688E0,-3.8664955E-1,-7.7394085E0,-7.7931064E-1,-5.340087E0,-3.1585658E0,-1.5088269E1],"categories":[],"categories_nodes":[],"categories_segments":[],"categories_sizes":[],"default_left":[1,1,1,1,1,1,1,1,1,1,1,1,1,1,1,1,1,1,1,1,1,1,1,1,1,1,1,0,1,1,1,1,1,1,1,1,1,1,1,1,1,0,0,1,1,1,1,1,1,0,0,1,1,1,0,1,1,0,1,1,1,0,0,0,0,0,0,0,0,0,0,0,0,0,0,0,0,0,0,0,0,0,0,0,0,0,0,0,0,0,0,0,0,0,0,0,0,0,0,0,0,0,0,0,0,0,0,0,0],"id":8,"left_children":[1,3,5,7,9,11,13,15,17,19,21,23,25,27,29,31,33,35,37,39,41,43,45,47,49,51,53,-1,55,57,59,61,63,65,67,69,71,73,75,77,79,-1,-1,81,83,85,87,89,91,-1,-1,93,95,97,-1,99,101,-1,103,105,107,-1,-1,-1,-1,-1,-1,-1,-1,-1,-1,-1,-1,-1,-1,-1,-1,-1,-1,-1,-1,-1,-1,-1,-1,-1,-1,-1,-1,-1,-1,-1,-1,-1,-1,-1,-1,-1,-1,-1,-1,-1,-1,-1,-1,-1,-1,-1,-1],"loss_changes":[1.9961797E3,6.538711E2,3.0171406E3,8.48849E2,3.1070312E2,9.2376807E2,3.384442E3,2.15547E2,2.412168E2,6.0421875E2,2.1234214E3,3.248562E2,5.869038E2,5.30989E3,1.4969202E3,2.6348846E1,4.196118E1,1.674107E1,1.5848291E2,2.38E2,3.1631042E2,7.009114E2,1.1274867E4,2.6435254E2,3.1760681E1,3.234906E2,4.9293726E2,0E0,1.4626399E3,1.3428485E3,1.2954746E3,6.9928207E0,1.0585587E1,2.9321625E1,2.6128632E1,1.0081908E-1,9.225819E0,5.267002E0,1.859065E2,1.9932812E2,6.064809E2,0E0,0E0,5.96646E2,2.9740994E3,3.0350635E3,1.4494343E3,1.136485E2,2.5403638E2,0E0,0E0,8.907648E1,3.532849E2,3.84188E2,0E0,5.6470374E2,2.798025E2,0E0,6.242193E1,5.592606E2,1.2214263E3,0E0,0E0,0E0,0E0,0E0,0E0,0E0,0E0,0E0,0E0,0E0,0E0,0E0,0E0,0E0,0E0,0E0,0E0,0E0,0E0,0E0,0E0,0E0,0E0,0E0,0E0,0E0,0E0,0E0,0E0,0E0,0E0,0E0,0E0,0E0,0E0,0E0,0E0,0E0,0E0,0E0,0E0,0E0,0E0,0E0,0E0,0E0,0E0],"parents":[2147483647,0,0,1,1,2,2,3,3,4,4,5,5,6,6,7,7,8,8,9,9,10,10,11,11,12,12,13,13,14,14,15,15,16,16,17,17,18,18,19,19,20,20,21,21,22,22,23,23,24,24,25,25,26,26,28,28,29,29,30,30,31,31,32,32,33,33,34,34,35,35,36,36,37,37,38,38,39,39,40,40,43,43,44,44,45,45,46,46,47,47,48,48,51,51,52,52,53,53,55,55,56,56,58,58,59,59,60,60],"right_children":[2,4,6,8,10,12,14,16,18,20,22,24,26,28,30,32,34,36,38,40,42,44,46,48,50,52,54,-1,56,58,60,62,64,66,68,70,72,74,76,78,80,-1,-1,82,84,86,88,90,92,-1,-1,94,96,98,-1,100,102,-1,104,106,108,-1,-1,-1,-1,-1,-1,-1,-1,-1,-1,-1,-1,-1,-1,-1,-1,-1,-1,-1,-1,-1,-1,-1,-1,-1,-1,-1,-1,-1,-1,-1,-1,-1,-1,-1,-1,-1,-1,-1,-1,-1,-1,-1,-1,-1,-1,-1,-1],"split_conditions":[1.9757404E0,-1.0984504E0,3.862036E0,2.5172763E0,5.3710585E0,8.3575094E-1,1.3358605E0,1.4978927E-1,1.1154726E0,8.976466E1,-4.850304E-1,2.8864088E1,1.0255997E-2,2.0551498E0,-1.8579226E0,-3.7263894E-1,5E-1,-1.9163435E0,1.2762827E0,9.04478E1,5E-1,5E-1,1.3552293E0,-1.0984504E0,5E-1,1.1484194E0,2.3962433E1,-5.091312E0,4.9932957E0,2.540429E0,-4.2660952E-1,2.4852499E1,-5.360937E-2,1.366878E0,5E-1,5E-1,2.8371506E0,5E-1,5E-1,-7.0467675E-1,-7.077327E-1,6.193212E-3,-2.165863E0,1.7728055E0,1.0378912E1,1.313996E0,6.8754447E-1,1.869643E-2,-6.895037E-1,-3.8031533E-1,-1.3016135E0,-3.4721038E-1,5E-1,5.138879E0,-1.6527189E0,7.6869545E0,5E-1,-3.2394986E0,5E-1,5E-1,5E-1,-5.25013E-2,-1.8819654E-1,-2.7413024E-2,-1.01234436E-1,-2.651812E-1,-5.5819887E-1,-2.0187311E-1,2.92516E-2,4.8324805E-2,4.3558064E-3,2.018714E-3,-3.2405406E-1,-2.4165781E-1,1.2036658E-2,-1.1469866E0,1.4156494E-1,-5.2287854E-2,-2.0472907E-2,-4.7037816E-3,-1.2067086E0,-1.6740173E-2,-2.9557905E-1,5.8767986E-2,-4.305679E0,-1.1181344E0,-3.3256385E0,-9.693461E-3,-3.507367E-1,-8.792E-2,-2.2812398E-1,-2.3669815E-2,-4.59103E-2,-3.5503504E-1,-8.7507814E-2,-5.292306E-1,-1.2185562E-1,-7.649099E-2,-3.7456223E-1,-6.7930484E-1,1.5651809E-1,-2.2117531E0,-1.991769E-1,-3.8664956E-2,-7.7394086E-1,-7.793107E-2,-5.340087E-1,-3.1585658E-1,-1.508827E0],"split_indices":[41,30,33,33,33,33,31,33,41,37,30,32,31,41,30,33,6,30,31,36,16,20,30,30,25,33,35,0,41,41,30,36,41,33,15,18,33,2,23,31,33,0,0,41,33,41,41,33,30,0,0,31,12,41,0,33,9,0,16,25,19,0,0,0,0,0,0,0,0,0,0,0,0,0,0,0,0,0,0,0,0,0,0,0,0,0,0,0,0,0,0,0,0,0,0,0,0,0,0,0,0,0,0,0,0,0,0,0,0],"split_type":[0,0,0,0,0,0,0,0,0,0,0,0,0,0,0,0,0,0,0,0,0,0,0,0,0,0,0,0,0,0,0,0,0,0,0,0,0,0,0,0,0,0,0,0,0,0,0,0,0,0,0,0,0,0,0,0,0,0,0,0,0,0,0,0,0,0,0,0,0,0,0,0,0,0,0,0,0,0,0,0,0,0,0,0,0,0,0,0,0,0,0,0,0,0,0,0,0,0,0,0,0,0,0,0,0,0,0,0,0],"sum_hessian":[9.35124E5,9.09444E5,2.568E4,7.65E2,9.08679E5,2.4643E4,1.037E3,7.41E2,2.4E1,9.03249E5,5.43E3,2.1623E4,3.02E3,5.4E1,9.83E2,6.4E2,1.01E2,8E0,1.6E1,9.03247E5,2E0,4.849E3,5.81E2,2.162E4,3E0,1.91E2,2.829E3,2E0,5.2E1,6E0,9.77E2,3.65E2,2.75E2,2.6E1,7.5E1,2E0,6E0,3E0,1.3E1,9.03228E5,1.9E1,1E0,1E0,4.841E3,8E0,2.7E1,5.54E2,4.8E2,2.114E4,2E0,1E0,9.5E1,9.6E1,2.828E3,1E0,4.5E1,7E0,2E0,4E0,7.31E2,2.46E2,3.62E2,3E0,2.2E1,2.53E2,2.1E1,5E0,7E1,5E0,1E0,1E0,1E0,5E0,2E0,1E0,1.2E1,1E0,1.973E3,9.01255E5,1.4E1,5E0,4.764E3,7.7E1,7E0,1E0,1.5E1,1.2E1,3.66E2,1.88E2,4.13E2,6.7E1,1.2336E4,8.804E3,1.4E1,8.1E1,6.3E1,3.3E1,2.785E3,4.3E1,3.5E1,1E1,6E0,1E0,3E0,1E0,7.04E2,2.7E1,2.38E2,8E0],"tree_param":{"num_deleted":"0","num_feature":"42","num_nodes":"109","size_leaf_vector":"0"}},{"base_weights":[-1.9401114E-1,-1.8803309E-1,-4.9150968E-1,-1.0771263E0,-1.8721841E-1,-3.8829455E-1,-1.6099102E0,-8.9299744E-1,-1.1132403E1,-1.867104E-1,-1.0416344E0,-2.599683E-1,-5.661749E-1,-1.0388634E0,-3.1877983E0,-6.7740923E-1,-2.4316952E0,-7.826348E0,-2.8708593E1,-1.8655618E-1,-2.117943E0,-8.8873786E-1,-4.2032246E1,-6.6976637E-1,-2.1951066E-1,-1.6668634E0,-5.215326E-1,-6.6194654E0,-9.0316117E-1,-3.8838732E0,5.3462725E-2,-5.533474E-1,-9.9587935E-1,-1.8915226E0,-4.2854276E0,-1.2843316E1,-2.4582076E0,-1.8062198E-1,-2.3162878E-1,-1.5156835E0,-5.7606096E0,-7.858057E0,-3.338539E-1,-5.6173986E-1,-1.1917505E0,-7.1603024E-1,-2.0605204E-1,-1.5398667E0,-7.1039047E0,-5.148694E-1,-7.972896E0,-1.43365135E1,-5.0574794E0,-8.6899316E-1,-1.9534409E1,-2.9580722E0,-1.0382222E1,1.1919732E0,-5.380469E0,-5.336214E-1,-2.4941902E0,-8.150255E-1,-1.5018996E0,-3.4449954E0,-1.2802018E0,-2.8993826E0,-9.797786E0,-3.6260536E0,-1.580501E1,-3.3112383E0,6.7255974E-2,-1.8059112E-1,-8.439268E0,-2.2933243E-1,-2.624244E0,-9.950598E-1,-2.2383235E0,-8.781612E0,-2.2830052E0,-4.4829345E0,-4.799026E1,-7.532636E0,-2.0820256E-2,-5.1036704E-1,-2.0538325E0,-8.641447E-1,-1.6184686E0,-5.5660397E-1,-1.227669E0,-2.040888E-1,-3.0121562E0,-9.927406E-1,-2.1390789E0,-3.6578298E0,-9.330703E0,-5.11266E-1,-1.2485565E1,-2.4190981E0,-1.2720328E1,-1.0610204E1,-3.4164245E0,-7.452954E-1,-4.1809235E0,-5.740031E0,-1.8980782E0,-3.3220287E1,-8.409812E0,-1.1579396E0,2.9212973E0,-1.2725288E1,8.007044E-1],"categories":[],"categories_nodes":[],"categories_segments":[],"categories_sizes":[],"default_left":[1,1,1,1,1,1,1,1,1,1,1,1,1,1,1,1,1,1,0,1,1,1,0,1,1,1,1,1,1,1,1,1,1,1,1,1,1,1,1,1,1,1,1,1,1,1,1,1,1,1,1,0,1,1,0,1,1,1,1,0,0,0,0,0,0,0,0,0,0,0,0,0,0,0,0,0,0,0,0,0,0,0,0,0,0,0,0,0,0,0,0,0,0,0,0,0,0,0,0,0,0,0,0,0,0,0,0,0,0,0,0],"id":9,"left_children":[1,3,5,7,9,11,13,15,17,19,21,23,25,27,29,31,33,35,-1,37,39,41,-1,43,45,47,49,51,53,55,57,59,61,63,65,67,69,71,73,75,77,79,81,83,85,87,89,91,93,95,97,-1,99,101,-1,103,105,107,109,-1,-1,-1,-1,-1,-1,-1,-1,-1,-1,-1,-1,-1,-1,-1,-1,-1,-1,-1,-1,-1,-1,-1,-1,-1,-1,-1,-1,-1,-1,-1,-1,-1,-1,-1,-1,-1,-1,-1,-1,-1,-1,-1,-1,-1,-1,-1,-1,-1,-1,-1,-1],"loss_changes":[1.6629922E3,6.63791E2,2.1257031E3,1.5434392E3,3.9733594E2,3.8482544E2,1.3987192E3,2.72026E2,6.469346E2,2.7225195E2,3.3720696E3,1.6231525E2,3.4638428E2,8.6037317E2,9.3200195E2,2.8093628E1,9.302893E1,3.4547345E2,0E0,2.4475977E2,1.514184E2,2.097246E3,0E0,4.8952118E1,5.9460083E1,1.789447E2,3.3316626E2,2.529491E2,6.9473505E2,2.0147896E3,4.642209E2,1.8730515E1,1.7262085E1,7.1563324E1,1.3968076E2,1.3378125E2,1.7457085E1,2.0458594E2,5.844175E2,2.1851044E1,8.501007E1,5.2029077E3,1.1355876E3,5.4985153E1,1.9570694E1,1.8485321E1,4.723633E1,8.639453E1,1.191217E1,2.8641833E2,1.27425964E2,0E0,1.824469E2,4.5449475E2,0E0,8.708137E2,1.6125571E3,2.5533588E2,6.0038403E2,0E0,0E0,0E0,0E0,0E0,0E0,0E0,0E0,0E0,0E0,0E0,0E0,0E0,0E0,0E0,0E0,0E0,0E0,0E0,0E0,0E0,0E0,0E0,0E0,0E0,0E0,0E0,0E0,0E0,0E0,0E0,0E0,0E0,0E0,0E0,0E0,0E0,0E0,0E0,0E0,0E0,0E0,0E0,0E0,0E0,0E0,0E0,0E0,0E0,0E0,0E0,0E0],"parents":[2147483647,0,0,1,1,2,2,3,3,4,4,5,5,6,6,7,7,8,8,9,9,10,10,11,11,12,12,13,13,14,14,15,15,16,16,17,17,19,19,20,20,21,21,23,23,24,24,25,25,26,26,27,27,28,28,29,29,30,30,31,31,32,32,33,33,34,34,35,35,36,36,37,37,38,38,39,39,40,40,41,41,42,42,43,43,44,44,45,45,46,46,47,47,48,48,49,49,50,50,52,52,53,53,55,55,56,56,57,57,58,58],"right_children":[2,4,6,8,10,12,14,16,18,20,22,24,26,28,30,32,34,36,-1,38,40,42,-1,44,46,48,50,52,54,56,58,60,62,64,66,68,70,72,74,76,78,80,82,84,86,88,90,92,94,96,98,-1,100,102,-1,104,106,108,110,-1,-1,-1,-1,-1,-1,-1,-1,-1,-1,-1,-1,-1,-1,-1,-1,-1,-1,-1,-1,-1,-1,-1,-1,-1,-1,-1,-1,-1,-1,-1,-1,-1,-1,-1,-1,-1,-1,-1,-1,-1,-1,-1,-1,-1,-1,-1,-1,-1,-1,-1,-1],"split_conditions":[2.2404382E0,-1.0984504E0,2.3033752E0,3.9718919E0,1.3081006E1,-2.5361672E-1,-5.142409E-1,3.282287E-1,1.1485643E1,1.4136502E0,4.8581028E-1,-6.599934E-1,-5.7062685E-1,-1.0984503E0,6.593595E0,-2.6531538E-1,5E-1,5.524294E0,-2.8708594E0,1.146354E0,1.0134337E0,1.3388457E1,-4.2032247E0,-3.9703712E-1,-1.6826597E0,1.4136502E0,1.670291E1,-2.0331855E0,4.2804733E1,8.3349E0,5E-1,2.4852499E1,5E-1,5E-1,2.3501184E0,1.2566447E0,5E-1,1.7272826E2,2.0422905E1,-1.0889946E-1,8.728329E-1,1.3381268E1,2.944459E0,2.7661104E0,3.960974E0,-3.6227715E-1,2.2593792E1,9.170722E-1,-6.227573E-1,3.469272E1,2.2816567E0,-1.4336513E0,6.65611E-1,5E-1,-1.9534409E0,1.6709852E0,2.350729E0,3.2462897E0,3.7139225E0,-5.336214E-2,-2.4941902E-1,-8.150255E-2,-1.5018997E-1,-3.4449956E-1,-1.2802018E-1,-2.8993827E-1,-9.797786E-1,-3.6260536E-1,-1.580501E0,-3.3112383E-1,6.7255977E-3,-1.8059112E-2,-8.4392685E-1,-2.2933243E-2,-2.624244E-1,-9.950598E-2,-2.2383235E-1,-8.7816125E-1,-2.2830053E-1,-4.4829345E-1,-4.799026E0,-7.5326365E-1,-2.0820256E-3,-5.1036704E-2,-2.0538326E-1,-8.641447E-2,-1.6184686E-1,-5.5660397E-2,-1.22766905E-1,-2.0408882E-2,-3.0121562E-1,-9.927406E-2,-2.1390788E-1,-3.6578298E-1,-9.330703E-1,-5.11266E-2,-1.2485565E0,-2.4190982E-1,-1.2720329E0,-1.0610204E0,-3.4164247E-1,-7.452954E-2,-4.1809234E-1,-5.740031E-1,-1.8980782E-1,-3.3220289E0,-8.409812E-1,-1.1579396E-1,2.9212973E-1,-1.2725289E0,8.007044E-2],"split_indices":[41,30,33,33,33,33,30,33,33,30,32,31,31,30,31,33,8,33,0,41,33,33,0,33,30,30,38,30,40,33,8,36,8,6,33,41,2,34,37,31,41,33,31,36,41,33,36,30,31,37,31,0,31,25,0,31,41,41,41,0,0,0,0,0,0,0,0,0,0,0,0,0,0,0,0,0,0,0,0,0,0,0,0,0,0,0,0,0,0,0,0,0,0,0,0,0,0,0,0,0,0,0,0,0,0,0,0,0,0,0,0],"split_type":[0,0,0,0,0,0,0,0,0,0,0,0,0,0,0,0,0,0,0,0,0,0,0,0,0,0,0,0,0,0,0,0,0,0,0,0,0,0,0,0,0,0,0,0,0,0,0,0,0,0,0,0,0,0,0,0,0,0,0,0,0,0,0,0,0,0,0,0,0,0,0,0,0,0,0,0,0,0,0,0,0,0,0,0,0,0,0,0,0,0,0,0,0,0,0,0,0,0,0,0,0,0,0,0,0,0,0,0,0,0,0],"sum_hessian":[9.35124E5,9.16705E5,1.8419E4,8.38E2,9.15867E5,1.6864E4,1.555E3,8.24E2,1.4E1,9.15324E5,5.43E2,9.798E3,7.066E3,1.143E3,4.12E2,7.24E2,1E2,1.3E1,1E0,9.15252E5,7.2E1,5.42E2,1E0,8.79E2,8.919E3,2.74E2,6.792E3,2.6E1,1.117E3,3.39E2,7.3E1,5.23E2,2.01E2,7.9E1,2.1E1,6E0,7E0,8.08775E5,1.06477E5,6.3E1,9E0,3.9E1,5.03E2,7.3E2,1.49E2,2.34E2,8.685E3,2.69E2,5E0,6.787E3,5E0,3E0,2.3E1,1.116E3,1E0,2.98E2,4.1E1,6.1E1,1.2E1,5.19E2,4E0,1.5E2,5.1E1,2.1E1,5.8E1,1.8E1,3E0,2E0,4E0,5E0,2E0,8.08773E5,2E0,1.06376E5,1.01E2,3.8E1,2.5E1,4E0,5E0,3.7E1,2E0,2E1,4.83E2,7.07E2,2.3E1,8.6E1,6.3E1,1.8E2,5.4E1,8.68E3,5E0,1.42E2,1.27E2,3E0,2E0,6.786E3,1E0,3E0,2E0,4E0,1.9E1,1.077E3,3.9E1,8.1E1,2.17E2,2E0,3.9E1,2.6E1,3.5E1,5E0,7E0],"tree_param":{"num_deleted":"0","num_feature":"42","num_nodes":"111","size_leaf_vector":"0"}},{"base_weights":[-1.7464945E-1,-1.6671035E-1,-3.6183423E-1,-8.806612E-1,-1.6616936E-1,-3.081736E-1,-1.9386191E0,-6.8092364E-1,-4.0544453E0,-1.6558658E-1,-6.138667E-1,-2.560636E-1,-7.3452204E-1,-7.456338E0,-1.6448755E0,-4.8737076E-1,-1.2585362E0,-2.588028E0,-8.194896E0,-1.6551563E-1,-3.3327906E0,-5.4413205E-1,-4.089248E1,-2.545944E-1,-1.22351E1,-7.151188E-1,-7.7181773E0,-5.6047297E0,-3.3366375E1,-1.0571495E0,-3.5512094E0,-4.1986755E-1,-6.86944E-1,-1.0625671E0,-1.9280668E0,-6.4154563E0,-1.7833921E0,-2.194332E0,-1.1829549E1,-3.297976E-1,-1.6436231E-1,-2.5467513E-2,-1.1045633E1,-2.4677418E1,-4.8135757E-1,-1.9190124E-1,-3.6645138E-1,-1.721262E1,1.3487306E0,-5.821562E-1,-1.6677788E0,-2.8460639E0,-1.1303927E1,-3.6647787E0,-1.7756313E1,-4.5866745E1,2.067364E0,-1.1995148E1,-9.224379E-1,-5.1375775E0,4.7893077E-1,9.112958E-3,-4.530896E-1,-5.221464E-1,-1.1055878E0,-1.6392196E0,-8.3163875E-1,-1.6255527E0,-3.8661633E0,-8.683625E0,-2.008802E0,-3.0245097E0,2.968253E-1,-3.0044627E0,5.230957E-1,-2.337411E0,-1.3260494E1,-3.2203335E-1,-4.332606E0,-1.6425185E-1,-1.8257217E0,-4.7974195E-2,1.4481303E-1,4.7718234E-2,-1.9292393E0,-7.202848E-1,-1.788813E-1,-1.113873E0,-3.2812014E-1,-2.0307589E0,-4.8745763E-1,-1.4352087E0,-1.0073025E1,9.732987E-1,-3.8045962E0,-2.9314942E0,-2.0897785E1,-1.9834307E1,-1.6051788E0,-2.8006687E0,-1.9190435E1,-7.6233697E-1,-4.8620124E0,-2.2468573E1,-4.3027773E0,-1.1924667E0,4.428544E0],"categories":[],"categories_nodes":[],"categories_segments":[],"categories_sizes":[],"default_left":[1,1,1,1,1,1,1,1,1,1,1,1,1,1,1,1,1,1,1,1,1,1,0,1,1,1,1,1,1,1,1,1,1,1,1,1,1,1,1,1,1,1,0,0,1,1,1,0,0,1,1,1,0,1,1,0,0,1,1,1,1,0,0,0,0,0,0,0,0,0,0,0,0,0,0,0,0,0,0,0,0,0,0,0,0,0,0,0,0,0,0,0,0,0,0,0,0,0,0,0,0,0,0,0,0,0,0],"id":10,"left_children":[1,3,5,7,9,11,13,15,17,19,21,23,25,27,29,31,33,35,37,39,41,43,-1,45,47,49,51,53,55,57,59,61,63,65,67,69,71,73,75,77,79,81,-1,-1,83,85,87,-1,-1,89,91,93,-1,95,97,-1,-1,99,101,103,105,-1,-1,-1,-1,-1,-1,-1,-1,-1,-1,-1,-1,-1,-1,-1,-1,-1,-1,-1,-1,-1,-1,-1,-1,-1,-1,-1,-1,-1,-1,-1,-1,-1,-1,-1,-1,-1,-1,-1,-1,-1,-1,-1,-1,-1,-1],"loss_changes":[1.3896094E3,3.463379E2,3.218607E3,4.2767358E2,2.3378125E2,8.173091E2,2.0169707E3,7.093771E1,2.216565E2,2.0060156E2,3.2500166E3,5.739946E2,5.374512E2,2.8354307E3,1.3295247E3,6.191536E0,1.8944458E1,8.402896E1,1.9214172E2,1.695625E2,5.0989594E2,1.7515295E3,0E0,2.29854E2,2.9367035E2,5.0532166E2,1.6000024E2,1.3493356E3,1.8665625E3,1.3312708E3,1.792581E3,5.163212E0,7.7016983E0,1.5415604E1,1.4235916E1,3.2531494E1,7.06062E1,1.25789795E1,5.05011E1,1.9253644E2,1.6283203E2,6.4434044E-2,0E0,0E0,8.9022974E2,1.4443036E2,3.3698328E2,0E0,0E0,4.803766E2,9.4144507E2,2.56689E1,0E0,6.084832E2,2.3665796E2,0E0,0E0,6.739802E2,5.6458093E2,2.811376E3,5.333908E2,0E0,0E0,0E0,0E0,0E0,0E0,0E0,0E0,0E0,0E0,0E0,0E0,0E0,0E0,0E0,0E0,0E0,0E0,0E0,0E0,0E0,0E0,0E0,0E0,0E0,0E0,0E0,0E0,0E0,0E0,0E0,0E0,0E0,0E0,0E0,0E0,0E0,0E0,0E0,0E0,0E0,0E0,0E0,0E0,0E0,0E0],"parents":[2147483647,0,0,1,1,2,2,3,3,4,4,5,5,6,6,7,7,8,8,9,9,10,10,11,11,12,12,13,13,14,14,15,15,16,16,17,17,18,18,19,19,20,20,21,21,23,23,24,24,25,25,26,26,27,27,28,28,29,29,30,30,31,31,32,32,33,33,34,34,35,35,36,36,37,37,38,38,39,39,40,40,41,41,44,44,45,45,46,46,49,49,50,50,51,51,53,53,54,54,57,57,58,58,59,59,60,60],"right_children":[2,4,6,8,10,12,14,16,18,20,22,24,26,28,30,32,34,36,38,40,42,44,-1,46,48,50,52,54,56,58,60,62,64,66,68,70,72,74,76,78,80,82,-1,-1,84,86,88,-1,-1,90,92,94,-1,96,98,-1,-1,100,102,104,106,-1,-1,-1,-1,-1,-1,-1,-1,-1,-1,-1,-1,-1,-1,-1,-1,-1,-1,-1,-1,-1,-1,-1,-1,-1,-1,-1,-1,-1,-1,-1,-1,-1,-1,-1,-1,-1,-1,-1,-1,-1,-1,-1,-1,-1,-1],"split_conditions":[1.7286892E0,-1.0984504E0,3.862036E0,1.0515987E0,9.993676E0,8.3575094E-1,1.3358605E0,-1.6175255E-1,3.875361E0,9.04478E1,5E-1,5.74192E1,2.6697004E0,1.2253725E1,-4.2660952E-1,5E-1,5E-1,-2.0331855E0,1.252233E0,-6.748879E-1,-7.077327E-1,9.998783E0,-4.089248E0,-2.6972216E-1,5E-1,5E-1,1.8041306E0,4.9932957E0,1.0379717E0,-1.7995017E0,6.6159363E0,-2.0916061E0,-7.911059E-2,-3.4721038E-1,7.6469433E-1,5E-1,1.1992936E0,5E-1,5E-1,4.0083904E0,1.4136502E0,5E-1,-1.1045634E0,-2.4677417E0,9.3459576E-1,-6.8978226E-1,-5.40838E-1,-1.721262E0,1.3487306E-1,2.515043E-2,8.151194E0,1.0528841E0,-1.1303928E0,5E-1,5E-1,-4.5866747E0,2.067364E-1,5.0892572E0,2.2324786E0,1.7992752E0,1.1075953E1,9.112958E-4,-4.530896E-2,-5.221464E-2,-1.10558785E-1,-1.6392197E-1,-8.316388E-2,-1.6255526E-1,-3.8661632E-1,-8.6836255E-1,-2.008802E-1,-3.0245098E-1,2.968253E-2,-3.0044627E-1,5.2309573E-2,-2.3374109E-1,-1.3260494E0,-3.2203335E-2,-4.332606E-1,-1.6425185E-2,-1.8257217E-1,-4.7974195E-3,1.4481303E-2,4.7718235E-3,-1.9292393E-1,-7.202848E-2,-1.788813E-2,-1.11387305E-1,-3.2812014E-2,-2.0307589E-1,-4.8745763E-2,-1.4352088E-1,-1.0073025E0,9.732988E-2,-3.8045964E-1,-2.9314944E-1,-2.0897787E0,-1.9834307E0,-1.6051789E-1,-2.8006688E-1,-1.9190435E0,-7.62337E-2,-4.8620126E-1,-2.2468574E0,-4.3027773E-1,-1.1924668E-1,4.428544E-1],"split_indices":[41,30,33,33,33,33,31,33,31,36,20,32,30,33,30,8,8,30,41,31,33,33,0,33,23,8,33,41,31,30,31,30,31,31,33,6,41,27,6,40,30,26,0,0,41,31,31,0,0,31,35,33,0,20,9,0,0,31,34,41,33,0,0,0,0,0,0,0,0,0,0,0,0,0,0,0,0,0,0,0,0,0,0,0,0,0,0,0,0,0,0,0,0,0,0,0,0,0,0,0,0,0,0,0,0,0,0],"split_type":[0,0,0,0,0,0,0,0,0,0,0,0,0,0,0,0,0,0,0,0,0,0,0,0,0,0,0,0,0,0,0,0,0,0,0,0,0,0,0,0,0,0,0,0,0,0,0,0,0,0,0,0,0,0,0,0,0,0,0,0,0,0,0,0,0,0,0,0,0,0,0,0,0,0,0,0,0,0,0,0,0,0,0,0,0,0,0,0,0,0,0,0,0,0,0,0,0,0,0,0,0,0,0,0,0,0,0],"sum_hessian":[9.35124E5,8.97078E5,3.8046E4,6.78E2,8.964E5,3.6795E4,1.251E3,6.39E2,3.9E1,8.95236E5,1.164E3,3.2789E4,4.006E3,6.2E1,1.189E3,4.8E2,1.59E2,3E1,9E0,8.95217E5,1.9E1,1.163E3,1E0,3.2786E4,3E0,3.996E3,1E1,5.9E1,3E0,9.1E2,2.79E2,3.61E2,1.19E2,1.25E2,3.4E1,4E0,2.6E1,4E0,5E0,6.239E3,8.88978E5,1.4E1,5E0,2E0,1.161E3,2.1012E4,1.1774E4,2E0,1E0,3.508E3,4.88E2,5E0,5E0,5.2E1,7E0,2E0,1E0,1E1,9E2,2E2,7.9E1,2.6E1,3.35E2,8.7E1,3.2E1,3.4E1,9.1E1,3.1E1,3E0,2E0,2E0,1.6E1,1E1,3E0,1E0,1E0,4E0,6.228E3,1.1E1,8.8892E5,5.8E1,1.3E1,1E0,8.51E2,3.1E2,5.04E2,2.0508E4,5.73E2,1.1201E4,2.14E2,3.294E3,4.76E2,1.2E1,1E0,4E0,5.1E1,1E0,6E0,1E0,5E0,5E0,8.66E2,3.4E1,8E0,1.92E2,5.6E1,2.3E1],"tree_param":{"num_deleted":"0","num_feature":"42","num_nodes":"107","size_leaf_vector":"0"}},{"base_weights":[-1.5721798E-1,-1.5227613E-1,-4.0315032E-1,-9.012455E-1,-1.5158986E-1,-3.550399E-1,-2.144613E0,-8.395199E-1,-2.631364E1,-1.5114996E-1,-8.9146924E-1,-3.465514E-1,-4.5637383E0,-2.7956522E0,1.8480619E0,-7.0464504E-1,-5.810122E0,-1.513598E-1,1.0425965E0,-8.803586E0,-2.4605605E-1,-2.758719E-1,-7.589635E-1,-2.33002E0,-1.2090501E1,-2.4966404E0,-1.1416813E1,-3.3520052E-1,2.5546782E0,-5.5539024E-1,-1.8606138E0,-7.4176598E0,-2.0697231E0,-1.5126629E-1,-1.2354321E1,-8.3125573E-1,1.1079844E0,-5.071094E1,-4.160612E0,-6.574807E0,2.9046912E-2,-9.0624404E-1,-2.5807545E-1,-6.8162835E-1,-2.947972E0,-2.6587205E0,3.890383E-1,-1.9058176E1,-2.3696787E0,-3.059962E1,-6.837274E-1,-3.8438191E0,6.227778E-1,1.1718249E0,2.810902E0,-4.068792E-1,-7.309385E-1,-3.0712671E0,-1.4422245E0,-8.78016E0,9.590601E-1,-2.7987757E0,7.828919E-2,-1.5106955E-1,-1.2547848E0,-1.6855902E1,-7.3357993E-1,-2.7367458E0,9.7191446E-2,1.1684891E0,-3.468279E-1,-1.7368064E0,-4.6920715E1,3.4513173E0,-1.438201E1,-4.3277228E-1,1.4978592E0,-7.0492107E-1,-2.1986606E0,-1.6112584E-1,-3.9722735E-1,-3.7691097E0,-6.2291175E-1,-2.2717724E0,-1.0544629E1,-1.1802245E0,-3.2502618E0,-9.7704805E-2,9.246338E-1,1.013115E0,-2.9600378E1,-1.4482628E0,-4.395557E0,-6.0533705E0,-3.522284E1,1.7203861E0,-1.1160375E1,1.7251445E0,-4.3617373E0,1.5421824E0,-1.0806963E0,1.8331591E0,3.0099459E0],"categories":[],"categories_nodes":[],"categories_segments":[],"categories_sizes":[],"default_left":[1,1,1,1,1,1,1,1,0,1,1,1,1,1,1,1,1,1,1,1,1,1,1,1,0,1,1,1,1,1,1,1,1,1,1,1,1,0,1,1,1,1,1,1,1,1,1,1,1,1,1,0,1,1,1,0,0,0,0,0,0,0,0,0,0,0,0,0,0,0,0,0,0,0,0,0,0,0,0,0,0,0,0,0,0,0,0,0,0,0,0,0,0,0,0,0,0,0,0,0,0,0,0],"id":11,"left_children":[1,3,5,7,9,11,13,15,-1,17,19,21,23,25,27,29,31,33,35,37,39,41,43,45,-1,47,49,51,53,55,57,59,61,63,65,67,69,-1,71,73,75,77,79,81,83,85,87,89,91,93,95,-1,97,99,101,-1,-1,-1,-1,-1,-1,-1,-1,-1,-1,-1,-1,-1,-1,-1,-1,-1,-1,-1,-1,-1,-1,-1,-1,-1,-1,-1,-1,-1,-1,-1,-1,-1,-1,-1,-1,-1,-1,-1,-1,-1,-1,-1,-1,-1,-1,-1,-1],"loss_changes":[1.1364551E3,4.7104883E2,1.542512E3,1.2939601E3,2.9795117E2,6.388364E2,1.2918633E3,5.577089E2,0E0,2.2944922E2,2.775816E3,5.212969E2,5.770849E2,1.0696516E3,1.0884735E2,1.3992682E2,1.1692981E2,1.0423691E3,2.0647919E1,7.766577E3,8.776843E2,1.7112695E2,4.4101575E2,2.6953262E1,0E0,8.232451E2,2.8615479E3,6.2895096E1,1.5485077E1,1.8603958E1,4.2677307E1,1.7961987E2,1.2747223E1,1.985039E2,3.5381677E2,1.0880869E1,1.4136841E1,0E0,3.856911E3,1.6934327E3,3.2895792E2,1.0747104E2,2.0036768E2,4.5612524E2,4.332254E2,1.8903336E1,1.1331309E0,6.647754E2,7.608379E2,3.5419678E2,2.7107065E2,0E0,8.994608E1,1.0009014E1,3.045288E0,0E0,0E0,0E0,0E0,0E0,0E0,0E0,0E0,0E0,0E0,0E0,0E0,0E0,0E0,0E0,0E0,0E0,0E0,0E0,0E0,0E0,0E0,0E0,0E0,0E0,0E0,0E0,0E0,0E0,0E0,0E0,0E0,0E0,0E0,0E0,0E0,0E0,0E0,0E0,0E0,0E0,0E0,0E0,0E0,0E0,0E0,0E0,0E0],"parents":[2147483647,0,0,1,1,2,2,3,3,4,4,5,5,6,6,7,7,9,9,10,10,11,11,12,12,13,13,14,14,15,15,16,16,17,17,18,18,19,19,20,20,21,21,22,22,23,23,25,25,26,26,27,27,28,28,29,29,30,30,31,31,32,32,33,33,34,34,35,35,36,36,38,38,39,39,40,40,41,41,42,42,43,43,44,44,45,45,46,46,47,47,48,48,49,49,50,50,52,52,53,53,54,54],"right_children":[2,4,6,8,10,12,14,16,-1,18,20,22,24,26,28,30,32,34,36,38,40,42,44,46,-1,48,50,52,54,56,58,60,62,64,66,68,70,-1,72,74,76,78,80,82,84,86,88,90,92,94,96,-1,98,100,102,-1,-1,-1,-1,-1,-1,-1,-1,-1,-1,-1,-1,-1,-1,-1,-1,-1,-1,-1,-1,-1,-1,-1,-1,-1,-1,-1,-1,-1,-1,-1,-1,-1,-1,-1,-1,-1,-1,-1,-1,-1,-1,-1,-1,-1,-1,-1,-1],"split_conditions":[2.2404382E0,-1.0984504E0,5.784737E0,1.1485643E1,1.3081006E1,2.6989107E0,5E-1,3.3291326E0,-2.631364E0,1.204693E1,1.3388457E1,8.3575094E-1,1.8041306E0,5E-1,6.116973E0,3.282287E-1,5.524294E0,1.2014233E1,-5.918282E-1,3.6891806E0,2.944459E0,-1.0984504E0,4.958002E0,5E-1,-1.20905E0,2.2492614E0,7.107728E0,5E-1,2.4124918E0,-3.7263894E-1,5E-1,5E-1,5E-1,1.3734888E1,1.0492982E0,1.2325661E1,5E-1,-5.071094E0,1.3381268E1,7.2283757E-1,5E-1,1.8625844E-2,-6.895037E-1,-1.1860816E0,-4.9746078E-2,-3.8866156E-1,-6.421617E-2,5E-1,-4.2660952E-1,2.5316057E0,1.133901E1,-3.8438192E-1,5.9754763E0,3.3286276E-1,6.978885E0,-4.068792E-2,-7.3093854E-2,-3.0712673E-1,-1.4422245E-1,-8.78016E-1,9.590601E-2,-2.7987757E-1,7.828919E-3,-1.5106956E-2,-1.2547849E-1,-1.6855901E0,-7.335799E-2,-2.7367458E-1,9.719145E-3,1.1684891E-1,-3.468279E-2,-1.7368065E-1,-4.6920714E0,3.4513173E-1,-1.4382011E0,-4.327723E-2,1.4978592E-1,-7.049211E-2,-2.1986607E-1,-1.6112585E-2,-3.9722737E-2,-3.7691098E-1,-6.2291175E-2,-2.2717725E-1,-1.0544629E0,-1.1802246E-1,-3.2502618E-1,-9.770481E-3,9.246338E-2,1.01311505E-1,-2.960038E0,-1.4482628E-1,-4.395557E-1,-6.053371E-1,-3.522284E0,1.7203861E-1,-1.1160375E0,1.7251445E-1,-4.3617374E-1,1.5421824E-1,-1.08069636E-1,1.8331592E-1,3.009946E-1],"split_indices":[41,30,33,33,33,30,15,33,0,33,33,33,33,25,31,33,33,33,41,31,31,30,41,23,0,41,33,4,41,33,6,18,2,40,41,33,22,0,33,41,15,33,30,30,34,33,31,4,30,41,33,0,31,30,33,0,0,0,0,0,0,0,0,0,0,0,0,0,0,0,0,0,0,0,0,0,0,0,0,0,0,0,0,0,0,0,0,0,0,0,0,0,0,0,0,0,0,0,0,0,0,0,0],"split_type":[0,0,0,0,0,0,0,0,0,0,0,0,0,0,0,0,0,0,0,0,0,0,0,0,0,0,0,0,0,0,0,0,0,0,0,0,0,0,0,0,0,0,0,0,0,0,0,0,0,0,0,0,0,0,0,0,0,0,0,0,0,0,0,0,0,0,0,0,0,0,0,0,0,0,0,0,0,0,0,0,0,0,0,0,0,0,0,0,0,0,0,0,0,0,0,0,0,0,0,0,0,0,0],"sum_hessian":[9.35124E5,9.16705E5,1.8419E4,8.38E2,9.15867E5,1.7925E4,4.94E2,8.37E2,1E0,9.15324E5,5.43E2,1.789E4,3.5E1,4.25E2,6.9E1,8.16E2,2.1E1,9.15164E5,1.6E2,4E1,5.03E2,1.5274E4,2.616E3,2.8E1,7E0,4.12E2,1.3E1,1.7E1,5.2E1,7.24E2,9.2E1,1.4E1,7E0,9.15158E5,6E0,5E0,1.55E2,3E0,3.7E1,2E1,4.83E2,4.18E2,1.4856E4,2.528E3,8.8E1,2.5E1,3E0,2E0,4.1E2,4E0,9E0,3E0,1.4E1,9E0,4.3E1,3.94E2,3.3E2,2.2E1,7E1,1.2E1,2E0,5E0,2E0,9.14996E5,1.62E2,4E0,2E0,1E0,4E0,1.49E2,6E0,3.6E1,1E0,9E0,1.1E1,3.68E2,1.15E2,3.63E2,5.5E1,8.757E3,6.099E3,4.6E1,2.482E3,8.2E1,6E0,8E0,1.7E1,2E0,1E0,1E0,1E0,2.83E2,1.27E2,1E0,3E0,8E0,1E0,1.2E1,2E0,8E0,1E0,9E0,3.4E1],"tree_param":{"num_deleted":"0","num_feature":"42","num_nodes":"103","size_leaf_vector":"0"}},{"base_weights":[-1.4152776E-1,-1.3487105E-1,-2.98477E-1,-7.2022754E-1,-1.344275E-1,-2.528396E-1,-1.6395115E0,-5.5021787E-1,-3.4223769E0,-1.3390519E-1,-5.356885E-1,-1.8967725E-1,-5.174532E-1,-6.5579195E0,-1.3777474E0,-3.9248E-1,-1.0497334E0,-2.4614174E0,-8.457577E0,-1.3384011E-1,-3.0399039E0,-4.6941283E-1,-3.88403E1,-1.8816169E-1,-1.1396856E1,-4.0504932E-1,-1.2615424E0,-4.943292E0,-2.913785E1,-8.7952656E-1,-2.9938242E0,-3.2156444E-1,-6.025909E-1,1.4666057E-1,-1.1344229E0,-5.5971813E0,-1.4775771E0,-3.7836895E0,-1.5913507E1,-1.2464186E-1,-1.5155701E-1,-8.175344E-3,-1.0112575E1,-2.3022186E1,-4.107831E-1,-5.451289E-2,-2.288738E-1,-1.605504E1,1.2888476E0,-3.8911587E-1,-6.1406984E0,-1.1491629E0,-9.100225E0,-3.1900628E0,-1.5940525E1,-4.06392E1,2.6830964E0,-1.0450062E1,-7.61707E-1,-1.3455679E1,-2.4751754E0,-2.74966E-1,-5.865708E-1,-3.6043075E-1,-8.9103276E-1,2.65234E-2,6.740161E-1,-9.5066386E-1,-1.7676598E0,-6.5593653E0,5.6905216E-1,-2.6256151E0,5.35356E-1,-6.422882E-1,-4.408468E0,-1.3127494E-1,-6.1335888E-2,-1.4930844E-1,-4.267694E0,-4.1811742E-2,9.477769E-2,-2.6682702E-1,-4.6618314E0,-7.1371E-1,-4.798015E-2,-1.4400493E-1,-5.339445E-1,-1.590067E0,-3.332247E-1,-4.015884E0,-9.366878E0,-2.3825479E-1,-1.7364185E0,-3.9377613E0,-1.6572617E1,-2.4962902E0,-1.9633118E1,-1.7814507E1,-1.4113314E0,-3.3042479E0,-1.836419E1,-6.216417E-1,-4.5459285E0,-2.045794E1,1.8395239E0,-1.6983644E0,-9.072899E0],"categories":[],"categories_nodes":[],"categories_segments":[],"categories_sizes":[],"default_left":[1,1,1,1,1,1,1,1,1,1,1,1,1,1,1,1,1,1,1,1,1,1,0,1,1,1,1,1,1,1,1,1,1,1,1,1,1,1,0,1,1,1,0,0,1,1,1,0,0,1,1,1,1,1,1,0,0,1,1,1,1,0,0,0,0,0,0,0,0,0,0,0,0,0,0,0,0,0,0,0,0,0,0,0,0,0,0,0,0,0,0,0,0,0,0,0,0,0,0,0,0,0,0,0,0,0,0],"id":12,"left_children":[1,3,5,7,9,11,13,15,17,19,21,23,25,27,29,31,33,35,37,39,41,43,-1,45,47,49,51,53,55,57,59,61,63,65,67,69,71,73,-1,75,77,79,-1,-1,81,83,85,-1,-1,87,89,91,93,95,97,-1,-1,99,101,103,105,-1,-1,-1,-1,-1,-1,-1,-1,-1,-1,-1,-1,-1,-1,-1,-1,-1,-1,-1,-1,-1,-1,-1,-1,-1,-1,-1,-1,-1,-1,-1,-1,-1,-1,-1,-1,-1,-1,-1,-1,-1,-1,-1,-1,-1,-1],"loss_changes":[9.769453E2,2.3281152E2,2.3281123E3,3.1004376E2,1.8780371E2,6.14896E2,1.6028679E3,5.0015198E1,1.7272733E2,1.6888281E2,2.9393125E3,5.024358E2,5.924862E2,2.1528284E3,9.555112E2,7.0774994E0,1.566864E1,9.97079E1,1.4887729E2,1.4586914E2,4.287657E2,1.5296566E3,0E0,1.6161072E2,2.570619E2,5.606564E2,8.087866E2,1.105989E3,1.5729741E3,1.0192803E3,1.4859832E3,4.3707504E0,8.200439E0,6.790278E-1,1.4959473E1,5.1197037E1,6.61115E1,6.981888E0,0E0,2.4744043E2,2.830935E3,5.590736E-2,0E0,0E0,7.0985864E2,2.9838993E1,5.8940955E2,0E0,0E0,4.119383E2,7.891925E1,4.9065747E2,4.362284E2,5.5560034E2,1.9267725E2,0E0,0E0,5.6140173E2,4.747384E2,1.4299456E3,1.3581401E3,0E0,0E0,0E0,0E0,0E0,0E0,0E0,0E0,0E0,0E0,0E0,0E0,0E0,0E0,0E0,0E0,0E0,0E0,0E0,0E0,0E0,0E0,0E0,0E0,0E0,0E0,0E0,0E0,0E0,0E0,0E0,0E0,0E0,0E0,0E0,0E0,0E0,0E0,0E0,0E0,0E0,0E0,0E0,0E0,0E0,0E0],"parents":[2147483647,0,0,1,1,2,2,3,3,4,4,5,5,6,6,7,7,8,8,9,9,10,10,11,11,12,12,13,13,14,14,15,15,16,16,17,17,18,18,19,19,20,20,21,21,23,23,24,24,25,25,26,26,27,27,28,28,29,29,30,30,31,31,32,32,33,33,34,34,35,35,36,36,37,37,39,39,40,40,41,41,44,44,45,45,46,46,49,49,50,50,51,51,52,52,53,53,54,54,57,57,58,58,59,59,60,60],"right_children":[2,4,6,8,10,12,14,16,18,20,22,24,26,28,30,32,34,36,38,40,42,44,-1,46,48,50,52,54,56,58,60,62,64,66,68,70,72,74,-1,76,78,80,-1,-1,82,84,86,-1,-1,88,90,92,94,96,98,-1,-1,100,102,104,106,-1,-1,-1,-1,-1,-1,-1,-1,-1,-1,-1,-1,-1,-1,-1,-1,-1,-1,-1,-1,-1,-1,-1,-1,-1,-1,-1,-1,-1,-1,-1,-1,-1,-1,-1,-1,-1,-1,-1,-1,-1,-1,-1,-1,-1,-1],"split_conditions":[1.7286892E0,-1.0984504E0,3.862036E0,1.0515987E0,9.993676E0,2.2051555E-1,1.3358605E0,-1.505E-1,5.6775875E0,9.04478E1,5E-1,5.74192E1,5E-1,1.2253725E1,-4.2660952E-1,5E-1,-2.0801643E-1,-2.0331855E0,5E-1,-6.895037E-1,-7.077327E-1,9.998783E0,-3.88403E0,5E-1,5E-1,2.582069E0,8.151194E0,4.9932957E0,1.0379717E0,-1.7995017E0,1.7992752E0,-4.885222E-2,-1.9826604E-1,5E-1,4.7264084E-1,5E-1,1.1992936E0,5E-1,-1.5913508E0,1.0230774E0,2.940682E0,2.3208658E2,-1.0112575E0,-2.3022187E0,5E-1,7.418093E-1,-6.895037E-1,-1.605504E0,1.2888476E-1,-3.0252707E-1,3.065413E0,5E-1,1.3552293E0,5E-1,5E-1,-4.06392E0,2.6830965E-1,5.8637676E0,5E-1,6.6159363E0,5E-1,-2.74966E-2,-5.865708E-2,-3.6043074E-2,-8.9103274E-2,2.65234E-3,6.740161E-2,-9.506639E-2,-1.7676598E-1,-6.5593654E-1,5.6905217E-2,-2.6256153E-1,5.35356E-2,-6.4228825E-2,-4.4084677E-1,-1.3127494E-2,-6.133589E-3,-1.4930844E-2,-4.267694E-1,-4.181174E-3,9.477769E-3,-2.6682703E-2,-4.6618316E-1,-7.1371004E-2,-4.798015E-3,-1.4400492E-2,-5.3394448E-2,-1.590067E-1,-3.3322472E-2,-4.015884E-1,-9.3668777E-1,-2.382548E-2,-1.7364185E-1,-3.9377615E-1,-1.6572617E0,-2.4962902E-1,-1.9633118E0,-1.7814506E0,-1.4113314E-1,-3.304248E-1,-1.836419E0,-6.216417E-2,-4.5459285E-1,-2.045794E0,1.8395239E-1,-1.6983645E-1,-9.072899E-1],"split_indices":[41,30,33,33,33,33,31,33,31,36,20,32,8,33,30,8,41,30,9,30,33,33,0,0,23,30,35,41,31,30,41,32,31,29,33,27,41,4,0,31,35,36,0,0,19,30,30,0,0,31,41,0,30,20,9,0,0,31,25,31,8,0,0,0,0,0,0,0,0,0,0,0,0,0,0,0,0,0,0,0,0,0,0,0,0,0,0,0,0,0,0,0,0,0,0,0,0,0,0,0,0,0,0,0,0,0,0],"split_type":[0,0,0,0,0,0,0,0,0,0,0,0,0,0,0,0,0,0,0,0,0,0,0,0,0,0,0,0,0,0,0,0,0,0,0,0,0,0,0,0,0,0,0,0,0,0,0,0,0,0,0,0,0,0,0,0,0,0,0,0,0,0,0,0,0,0,0,0,0,0,0,0,0,0,0,0,0,0,0,0,0,0,0,0,0,0,0,0,0,0,0,0,0,0,0,0,0,0,0,0,0,0,0,0,0,0,0],"sum_hessian":[9.35124E5,8.97078E5,3.8046E4,6.78E2,8.964E5,3.6795E4,1.251E3,6.39E2,3.9E1,8.95236E5,1.164E3,2.9706E4,7.089E3,6.2E1,1.189E3,4.87E2,1.52E2,3.4E1,5E0,8.95217E5,1.9E1,1.163E3,1E0,2.9703E4,3E0,6.16E3,9.29E2,5.9E1,3E0,9.1E2,2.79E2,3.66E2,1.21E2,1E1,1.42E2,7E0,2.7E1,4E0,1E0,5.89282E5,3.05935E5,1.4E1,5E0,2E0,1.161E3,6.936E3,2.2767E4,2E0,1E0,6.144E3,1.6E1,9.17E2,1.2E1,5.2E1,7E0,2E0,1E0,1E1,9E2,1.2E1,2.67E2,3.13E2,5.3E1,6.7E1,5.4E1,9E0,1E0,1.12E2,3E1,6E0,1E0,1.7E1,1E1,1E0,3E0,5.33393E5,5.5889E4,3.05769E5,1.66E2,1.1E1,3E0,1.124E3,3.7E1,6.7E1,6.869E3,1.7813E4,4.954E3,2.72E2,5.872E3,1.1E1,5E0,3.6E2,5.57E2,8E0,4E0,5.1E1,1E0,6E0,1E0,6E0,4E0,8.69E2,3.1E1,8E0,4E0,2.4E2,2.7E1],"tree_param":{"num_deleted":"0","num_feature":"42","num_nodes":"107","size_leaf_vector":"0"}},{"base_weights":[-1.274075E-1,-1.2472946E-1,-4.4652098E-1,-8.5422087E-1,-1.2391108E-1,-4.3421698E-1,-1.4050718E1,-6.884393E-1,-7.8367143E0,-1.2227726E-1,-3.8274235E-1,-4.2269686E-1,-9.338474E0,-1.6792877E1,1.2011195E0,-6.504433E-1,-6.0723696E0,-5.884486E0,-1.9540815E1,-1.2223333E-1,-1.3559302E1,-1.622386E-1,-2.0856087E0,-3.5290638E-1,-1.2019811E0,-4.5289316E0,-2.631218E1,-1.8251688E1,-4.7494135E0,-4.816869E-1,-1.4207053E0,-2.8148506E0,-1.2808742E1,-6.9498305E0,6.4702207E-1,-2.407975E1,-5.231473E0,-1.2203621E-1,-1.9723171E0,8.669793E-2,-2.0425652E1,-1.4909115E-1,-5.773628E0,-1.4872335E1,-1.2448077E0,-1.9588932E-1,-5.860377E-1,-4.6572866E0,-4.0075052E-1,-9.5135015E-1,-1.1366978E1,-3.565223E-1,-6.4490694E-1,-1.0744128E0,-2.8345418E0,-3.513798E0,3.3994347E-1,-8.799086E0,-1.4765971E0,7.5946175E-2,1.1801249E0,-1.167125E-1,-1.5821731E-1,-1.5856677E0,-1.0662162E1,-4.1234475E-2,-8.243957E-1,4.102755E-1,-3.6898285E1,-1.8794315E1,-8.347663E-1,-1.8101325E-2,-2.9602473E0,-9.497813E-1,-1.4365204E-1,-4.6451524E-1,-1.4030153E0,-4.0291753E0,-1.29472E1,-1.8708032E-1,-6.6993012E0,-4.328636E0,1.2652913E0],"categories":[],"categories_nodes":[],"categories_segments":[],"categories_sizes":[],"default_left":[1,1,1,1,1,1,1,1,1,1,1,1,1,1,0,1,1,1,1,1,1,1,1,1,1,1,0,0,0,1,1,1,0,1,1,0,0,1,1,0,0,1,1,1,1,1,1,1,1,1,0,0,0,0,0,0,0,0,0,0,0,0,0,0,0,0,0,0,0,0,0,0,0,0,0,0,0,0,0,0,0,0,0],"id":13,"left_children":[1,3,5,7,9,11,13,15,17,19,21,23,25,27,-1,29,31,33,35,37,39,41,43,45,47,49,-1,-1,-1,51,53,55,-1,57,59,-1,-1,61,63,-1,-1,65,67,69,71,73,75,77,79,81,-1,-1,-1,-1,-1,-1,-1,-1,-1,-1,-1,-1,-1,-1,-1,-1,-1,-1,-1,-1,-1,-1,-1,-1,-1,-1,-1,-1,-1,-1,-1,-1,-1],"loss_changes":[7.9910156E2,5.535166E2,1.2964971E3,1.1973186E3,3.916748E2,7.937002E2,3.1293103E2,2.0389108E2,4.3339014E2,5.4164844E2,2.1812493E3,4.2199658E2,6.971916E2,1.872998E1,0E0,1.3060217E2,1.1755234E2,1.575794E2,6.887488E1,3.3545605E2,2.8286548E2,3.7871344E2,7.141714E3,2.6088318E2,1.7644343E3,2.0935902E2,0E0,0E0,0E0,1.6726456E1,8.5572296E1,1.4424702E1,0E0,1.7931403E2,1.1281427E0,0E0,0E0,1.772666E2,3.123658E2,0E0,0E0,3.7390662E2,2.324801E3,2.2415693E3,1.3172635E3,1.6770657E2,2.8418585E2,5.726719E2,6.9722345E2,5.788061E1,0E0,0E0,0E0,0E0,0E0,0E0,0E0,0E0,0E0,0E0,0E0,0E0,0E0,0E0,0E0,0E0,0E0,0E0,0E0,0E0,0E0,0E0,0E0,0E0,0E0,0E0,0E0,0E0,0E0,0E0,0E0,0E0,0E0],"parents":[2147483647,0,0,1,1,2,2,3,3,4,4,5,5,6,6,7,7,8,8,9,9,10,10,11,11,12,12,13,13,15,15,16,16,17,17,18,18,19,19,20,20,21,21,22,22,23,23,24,24,25,25,29,29,30,30,31,31,33,33,34,34,37,37,38,38,41,41,42,42,43,43,44,44,45,45,46,46,47,47,48,48,49,49],"right_children":[2,4,6,8,10,12,14,16,18,20,22,24,26,28,-1,30,32,34,36,38,40,42,44,46,48,50,-1,-1,-1,52,54,56,-1,58,60,-1,-1,62,64,-1,-1,66,68,70,72,74,76,78,80,82,-1,-1,-1,-1,-1,-1,-1,-1,-1,-1,-1,-1,-1,-1,-1,-1,-1,-1,-1,-1,-1,-1,-1,-1,-1,-1,-1,-1,-1,-1,-1,-1,-1],"split_conditions":[2.9198294E0,-1.3029237E0,2.054869E1,3.7071333E0,5.3891344E0,2.0075096E1,5E-1,7.8266783E0,1.1485643E1,8.976466E1,-5.1424086E-1,2.4123836E0,5E-1,5E-1,1.2011196E-1,9.73472E-2,3.2817835E-1,5E-1,5E-1,1.4136502E0,5E-1,5E-1,1.3552293E0,-3.3897808E-1,1.6933267E0,1.9144459E0,-2.631218E0,-1.8251688E0,-4.7494134E-1,-3.7738222E-1,5E-1,8.2478637E-1,-1.2808741E0,8.325743E0,5E-1,-2.407975E0,-5.231473E-1,5E-1,2.5448325E0,8.669793E-3,-2.042565E0,5E-1,1.0378912E1,2.3286707E0,6.8754447E-1,-7.479247E-1,5.709741E-1,4.078515E-1,5E-1,1.1943634E0,-1.1366978E0,-3.565223E-2,-6.44907E-2,-1.07441284E-1,-2.8345418E-1,-3.513798E-1,3.3994347E-2,-8.7990856E-1,-1.476597E-1,7.5946175E-3,1.1801249E-1,-1.1671251E-2,-1.582173E-2,-1.5856677E-1,-1.0662162E0,-4.1234475E-3,-8.243957E-2,4.102755E-2,-3.6898286E0,-1.8794316E0,-8.347663E-2,-1.8101325E-3,-2.9602474E-1,-9.497813E-2,-1.4365204E-2,-4.6451524E-2,-1.4030153E-1,-4.0291753E-1,-1.29472E0,-1.8708033E-2,-6.6993016E-1,-4.3286362E-1,1.2652914E-1],"split_indices":[41,30,40,33,33,38,21,35,33,37,30,33,19,11,0,33,34,2,4,30,16,20,30,30,31,34,0,0,0,33,8,32,0,33,27,0,0,8,33,0,0,23,33,41,41,30,33,35,25,31,0,0,0,0,0,0,0,0,0,0,0,0,0,0,0,0,0,0,0,0,0,0,0,0,0,0,0,0,0,0,0,0,0],"split_type":[0,0,0,0,0,0,0,0,0,0,0,0,0,0,0,0,0,0,0,0,0,0,0,0,0,0,0,0,0,0,0,0,0,0,0,0,0,0,0,0,0,0,0,0,0,0,0,0,0,0,0,0,0,0,0,0,0,0,0,0,0,0,0,0,0,0,0,0,0,0,0,0,0,0,0,0,0,0,0,0,0,0,0],"sum_hessian":[9.35124E5,9.27343E5,7.781E3,1.038E3,9.26305E5,7.775E3,6E0,1.015E3,2.3E1,9.20496E5,5.809E3,7.766E3,9E0,5E0,1E0,1.009E3,6E0,2.1E1,2E0,9.20494E5,2E0,5.144E3,6.65E2,7.129E3,6.37E2,8E0,1E0,4E0,1E0,8.29E2,1.8E2,5E0,1E0,1.8E1,3E0,1E0,1E0,9.20397E5,9.7E1,1E0,1E0,5.133E3,1.1E1,4E1,6.25E2,4.261E3,2.868E3,1.19E2,5.18E2,6E0,2E0,4.71E2,3.58E2,1.46E2,3.4E1,4E0,1E0,1.3E1,5E0,2E0,1E0,8.02344E5,1.18053E5,9.4E1,3E0,4.427E3,7.06E2,1E1,1E0,3.1E1,9E0,3.65E2,2.6E2,2.75E2,3.986E3,2.498E3,3.7E2,1.12E2,7E0,5.02E2,1.6E1,2E0,4E0],"tree_param":{"num_deleted":"0","num_feature":"42","num_nodes":"83","size_leaf_vector":"0"}},{"base_weights":[-1.14692576E-1,-1.08914904E-1,-2.4567918E-1,-5.941443E-1,-1.0855369E-1,-2.176891E-1,-1.7279385E0,-4.4533768E-1,-2.9118338E0,-3.0800843E-1,-1.077552E-1,-1.6994509E-1,-5.774766E-1,-5.63021E0,-1.0727372E0,-3.1087616E-1,-8.39156E-1,-2.0468872E0,-7.4720497E0,-3.0305794E-1,-8.98325E0,-1.0729906E-1,-4.580258E-1,-1.6871934E-1,-1.0616534E1,-5.653426E-1,-1.1474805E1,-4.4392505E0,-1.7840525E1,-1.2033394E1,-9.476611E-1,-2.900994E-1,-9.6539944E-1,-2.9309964E-1,-1.0023608E0,-4.9438357E0,-1.1460845E0,-3.0953085E0,-1.4677877E1,-2.303101E-1,-5.5157554E-1,-1.07239015E-1,-2.7745013E0,-3.978801E-1,-3.505337E1,-3.8930748E-2,-2.0785333E-1,-1.4975539E1,1.2302408E0,-5.461567E-1,-7.2015085E0,-5.777021E0,3.8392112E-1,4.8633647E-1,-4.0870686E1,-1.9062729E1,-1.9957091E0,-1.4301512E1,-8.5983706E-1,-3.0286682E-1,4.627346E-1,-4.092901E-1,-1.8845383E0,-6.1181533E-1,6.6048586E-1,-7.411967E-1,-1.9860295E0,-5.8199034E0,5.943202E-1,-2.5457387E0,2.3666488E-1,-5.363438E-1,-3.6009638E0,-2.1749933E-1,-1.4296726E0,-3.859704E-1,-1.5057801E0,-1.07450746E-1,5.733752E-1,4.441857E-3,-9.259442E0,-2.1459291E1,-3.4287828E-1,-8.414764E-1,-3.126499E-2,-1.1877158E-1,-5.324467E-1,-3.0044723E0,-5.1078176E-1,-2.0438826E0,-1.01695385E1,-5.1050553E0,-2.8087215E1,3.1460638E0,-1.2832236E1,4.5996413E0,-1.0040094E1,-2.4275484E1,-1.7122335E0,6.523207E-1,-4.969899E0,1.2171881E0,-3.0428806E1,-1.2341497E0,9.4280076E-1],"categories":[],"categories_nodes":[],"categories_segments":[],"categories_sizes":[],"default_left":[1,1,1,1,1,1,1,1,1,1,1,1,1,1,1,1,1,1,1,1,0,1,1,1,1,1,0,1,1,1,1,1,1,1,1,1,1,1,0,1,1,1,1,1,0,1,1,0,0,1,1,1,1,1,0,1,1,1,1,0,0,0,0,0,0,0,0,0,0,0,0,0,0,0,0,0,0,0,0,0,0,0,0,0,0,0,0,0,0,0,0,0,0,0,0,0,0,0,0,0,0,0,0,0,0],"id":14,"left_children":[1,3,5,7,9,11,13,15,17,19,21,23,25,27,29,31,33,35,37,39,-1,41,43,45,47,49,-1,51,53,55,57,59,61,63,65,67,69,71,-1,73,75,77,79,81,-1,83,85,-1,-1,87,89,91,93,95,-1,97,99,101,103,-1,-1,-1,-1,-1,-1,-1,-1,-1,-1,-1,-1,-1,-1,-1,-1,-1,-1,-1,-1,-1,-1,-1,-1,-1,-1,-1,-1,-1,-1,-1,-1,-1,-1,-1,-1,-1,-1,-1,-1,-1,-1,-1,-1,-1,-1],"loss_changes":[7.0767285E2,1.5691309E2,1.6385879E3,2.2839833E2,1.425E2,6.65933E2,1.8655183E3,3.294091E1,1.4247925E2,1.5051218E2,1.4236914E2,4.3654742E2,5.940935E2,1.4477102E3,8.4953174E2,6.0978127E0,1.38761215E1,8.5669205E1,1.4379565E2,6.4361145E1,0E0,1.4227148E2,2.3976553E3,1.7384595E2,2.2498413E2,5.738495E2,0E0,6.280906E2,3.8185117E3,4.558642E2,7.1717773E2,4.523102E0,6.3846617E0,1.1953157E1,2.9869644E1,4.22733E1,5.479288E1,4.538418E0,0E0,4.211113E1,1.2694188E2,1.2834473E2,3.604668E2,1.3340879E3,0E0,4.8766155E1,7.6038135E2,0E0,0E0,3.9205872E2,1.7821857E2,9.959807E2,8.434791E2,3.0597137E2,0E0,3.202102E2,3.474494E1,1.038136E3,4.188339E2,0E0,0E0,0E0,0E0,0E0,0E0,0E0,0E0,0E0,0E0,0E0,0E0,0E0,0E0,0E0,0E0,0E0,0E0,0E0,0E0,0E0,0E0,0E0,0E0,0E0,0E0,0E0,0E0,0E0,0E0,0E0,0E0,0E0,0E0,0E0,0E0,0E0,0E0,0E0,0E0,0E0,0E0,0E0,0E0,0E0,0E0],"parents":[2147483647,0,0,1,1,2,2,3,3,4,4,5,5,6,6,7,7,8,8,9,9,10,10,11,11,12,12,13,13,14,14,15,15,16,16,17,17,18,18,19,19,21,21,22,22,23,23,24,24,25,25,27,27,28,28,29,29,30,30,31,31,32,32,33,33,34,34,35,35,36,36,37,37,39,39,40,40,41,41,42,42,43,43,45,45,46,46,49,49,50,50,51,51,52,52,53,53,55,55,56,56,57,57,58,58],"right_children":[2,4,6,8,10,12,14,16,18,20,22,24,26,28,30,32,34,36,38,40,-1,42,44,46,48,50,-1,52,54,56,58,60,62,64,66,68,70,72,-1,74,76,78,80,82,-1,84,86,-1,-1,88,90,92,94,96,-1,98,100,102,104,-1,-1,-1,-1,-1,-1,-1,-1,-1,-1,-1,-1,-1,-1,-1,-1,-1,-1,-1,-1,-1,-1,-1,-1,-1,-1,-1,-1,-1,-1,-1,-1,-1,-1,-1,-1,-1,-1,-1,-1,-1,-1,-1,-1,-1,-1],"split_conditions":[1.7110426E0,-1.0984504E0,5.697722E0,1.0515987E0,-6.8978226E-1,8.739604E-1,2.9593534E0,-1.6175255E-1,5.6775875E0,1.0425715E1,9.993676E0,5.74192E1,2.3483772E1,1.2323159E1,-1.8287121E0,1.4927961E0,5.728421E-1,-2.0331855E0,5E-1,-3.7164015E-1,-8.9832497E-1,9.04478E1,5E-1,5E-1,5E-1,2.6697004E0,-1.1474805E0,8.693439E0,-1.0279918E-1,2.540429E0,5.7111373E0,1.0347947E0,1.2522331E0,4.8229462E-1,4.7264084E-1,5E-1,1.5908556E0,5E-1,-1.4677877E0,5.468383E0,-2.2213618E-1,9.312664E0,-7.077327E-1,9.998783E0,-3.5053372E0,5.081256E-1,-6.895037E-1,-1.497554E0,1.2302408E-1,-1.1860816E0,1.8041306E0,8.623946E0,5.0173163E-2,3.62569E0,-4.0870686E0,5E-1,5E-1,5E-1,5E-1,-3.0286683E-2,4.6273462E-2,-4.0929012E-2,-1.8845384E-1,-6.1181534E-2,6.6048585E-2,-7.411967E-2,-1.9860296E-1,-5.8199036E-1,5.943202E-2,-2.5457388E-1,2.3666488E-2,-5.3634383E-2,-3.600964E-1,-2.1749934E-2,-1.4296727E-1,-3.8597044E-2,-1.50578E-1,-1.0745075E-2,5.7337523E-2,4.441857E-4,-9.2594427E-1,-2.145929E0,-3.428783E-2,-8.414764E-2,-3.126499E-3,-1.1877159E-2,-5.324467E-2,-3.0044723E-1,-5.1078178E-2,-2.0438826E-1,-1.0169538E0,-5.1050556E-1,-2.8087215E0,3.146064E-1,-1.2832236E0,4.5996413E-1,-1.0040095E0,-2.4275484E0,-1.7122336E-1,6.523207E-2,-4.9698994E-1,1.2171882E-1,-3.0428808E0,-1.2341497E-1,9.428008E-2],"split_indices":[41,30,33,33,31,33,31,33,31,40,33,32,40,33,30,35,41,30,9,33,0,36,20,0,23,30,0,33,32,41,33,35,41,33,33,27,33,4,0,36,30,33,33,33,0,30,30,0,0,30,33,33,32,41,0,15,16,23,15,0,0,0,0,0,0,0,0,0,0,0,0,0,0,0,0,0,0,0,0,0,0,0,0,0,0,0,0,0,0,0,0,0,0,0,0,0,0,0,0,0,0,0,0,0,0],"split_type":[0,0,0,0,0,0,0,0,0,0,0,0,0,0,0,0,0,0,0,0,0,0,0,0,0,0,0,0,0,0,0,0,0,0,0,0,0,0,0,0,0,0,0,0,0,0,0,0,0,0,0,0,0,0,0,0,0,0,0,0,0,0,0,0,0,0,0,0,0,0,0,0,0,0,0,0,0,0,0,0,0,0,0,0,0,0,0,0,0,0,0,0,0,0,0,0,0,0,0,0,0,0,0,0,0],"sum_hessian":[9.35124E5,8.95621E5,3.9503E4,6.65E2,8.94956E5,3.8772E4,7.31E2,6.26E2,3.9E1,3.567E3,8.91389E5,3.4231E4,4.541E3,1.04E2,6.27E2,4.68E2,1.58E2,3.4E1,5E0,3.566E3,1E0,8.90231E5,1.158E3,3.4228E4,3E0,4.537E3,4E0,9.6E1,8E0,6E0,6.21E2,4.55E2,1.3E1,3.7E1,1.21E2,7E0,2.7E1,4E0,1E0,2.76E3,8.06E2,8.90212E5,1.9E1,1.157E3,1E0,7.93E3,2.6298E4,2E0,1E0,4.525E3,1.2E1,7.5E1,2.1E1,5E0,3E0,3E0,3E0,3E0,6.18E2,4.48E2,7E0,9E0,4E0,2.8E1,9E0,9.7E1,2.4E1,6E0,1E0,1.3E1,1.4E1,1E0,3E0,2.732E3,2.8E1,6.88E2,1.18E2,8.89936E5,2.76E2,1.4E1,5E0,2E0,1.155E3,7.4E1,7.856E3,2.0636E4,5.662E3,6.3E1,4.462E3,5E0,7E0,7.4E1,1E0,1.8E1,3E0,4E0,1E0,2E0,1E0,2E0,1E0,2E0,1E0,5.12E2,1.06E2],"tree_param":{"num_deleted":"0","num_feature":"42","num_nodes":"105","size_leaf_vector":"0"}},{"base_weights":[-1.0325548E-1,-1.02545284E-1,-9.9865574E-1,-7.6125747E-1,-1.016338E-1,-7.042939E-1,-4.8065166E0,-5.890712E-1,-5.744964E0,-1.0136707E-1,-2.0005136E0,-6.366748E-1,-9.8272505E0,-1.2011383E1,-1.366267E0,-4.5484984E-1,-1.5547686E0,-4.7382116E0,-1.7588928E1,-9.9831395E-2,-3.3651185E-1,-1.3496543E0,-6.594211E0,-6.071045E-1,-5.519246E0,-1.1710656E1,-1.1468133E0,-3.4734068E0,-1.4371267E1,-9.421313E0,8.272876E-1,-2.9943308E-1,-6.401294E-1,-2.9935544E0,-1.0987766E0,-7.9912515E0,-3.5735676E0,-2.166199E1,-4.721404E0,-9.978995E-2,-1.2874175E1,-1.17279746E-1,-1.912807E0,-6.5801895E-1,-1.9842137E0,-9.575829E0,-1.392728E0,-6.861085E-1,1.686364E0,-7.4103327E0,7.700729E-2,-7.6609116E0,1.8719004E0,-1.6260618E1,-2.653227E0,4.640188E-1,-1.942265E1,-1.0833931E1,1.6029824E0,-2.8322384E-1,-2.1684477E0,-4.846072E-1,-1.0138983E0,-6.013714E0,-1.9158763E0,-1.3980751E0,5.185563E-1,-6.662532E-1,-1.1035357E1,-1.8430562E0,-7.196387E0,-9.558448E-2,-1.5452002E-1,8.773557E-2,-1.9398998E1,-8.031145E-2,-1.8184195E0,-1.0211939E1,-1.1644126E0,-5.116032E-1,-1.8172855E0,-1.2235203E0,-2.3624456E0,-1.0484526E1,-6.987757E-1,-4.352344E0,-1.7406797E-1,-6.2193143E-1,-6.58407E0,2.1968973E0,-4.772683E0,-9.3319235E0,-2.1594439E0,3.042569E0,-2.3471832E-1,-1.7663927E1,-1.1137671E0,2.1681347E0,-3.1762226E0,-2.422391E1,-2.5094342E0,2.1045816E0,-6.2208977E0],"categories":[],"categories_nodes":[],"categories_segments":[],"categories_sizes":[],"default_left":[1,1,1,1,1,1,1,1,1,1,1,1,1,1,1,1,1,1,1,1,1,1,1,1,1,0,0,1,1,1,1,1,1,1,1,1,1,0,0,1,1,1,1,1,1,1,1,1,1,0,0,1,1,1,0,1,1,0,1,0,0,0,0,0,0,0,0,0,0,0,0,0,0,0,0,0,0,0,0,0,0,0,0,0,0,0,0,0,0,0,0,0,0,0,0,0,0,0,0,0,0,0,0],"id":15,"left_children":[1,3,5,7,9,11,13,15,17,19,21,23,25,27,29,31,33,35,37,39,41,43,45,47,49,-1,-1,51,53,55,57,59,61,63,65,67,69,-1,-1,71,73,75,77,79,81,83,85,87,89,-1,-1,91,93,95,-1,97,99,-1,101,-1,-1,-1,-1,-1,-1,-1,-1,-1,-1,-1,-1,-1,-1,-1,-1,-1,-1,-1,-1,-1,-1,-1,-1,-1,-1,-1,-1,-1,-1,-1,-1,-1,-1,-1,-1,-1,-1,-1,-1,-1,-1,-1,-1],"loss_changes":[5.9455176E2,5.6093164E2,8.2719354E2,1.1044563E3,4.7240918E2,4.1877762E2,1.2972759E3,1.6118475E2,4.2938953E2,3.3686426E2,3.827705E2,9.554901E1,6.8314026E1,2.9260962E2,6.615539E2,3.1425827E1,9.643408E1,1.2677673E2,5.4955627E1,4.8954297E2,2.0915383E3,4.960486E1,2.3480481E2,1.24730865E2,4.290265E1,0E0,0E0,1.2625798E2,2.4467017E2,7.999447E2,2.88733E2,1.753275E1,2.8573349E1,1.0564984E2,5.736061E1,2.1562836E2,1.873552E2,0E0,