{"learner":{"attributes":{"best_iteration":"99","best_ntree_limit":"100","scikit_learn":"{\"n_estimators\": 100, \"objective\": \"reg:squarederror\", \"max_depth\": null, \"max_leaves\": null, \"max_bin\": null, \"grow_policy\": null, \"learning_rate\": 0.1, \"verbosity\": null, \"booster\": null, \"tree_method\": null, \"gamma\": null, \"min_child_weight\": null, \"max_delta_step\": null, \"subsample\": null, \"sampling_method\": null, \"colsample_bytree\": null, \"colsample_bylevel\": null, \"colsample_bynode\": null, \"reg_alpha\": null, \"reg_lambda\": null, \"scale_pos_weight\": null, \"base_score\": null, \"missing\": NaN, \"num_parallel_tree\": null, \"random_state\": 21, \"n_jobs\": null, \"monotone_constraints\": null, \"interaction_constraints\": null, \"importance_type\": null, \"gpu_id\": null, \"validate_parameters\": null, \"predictor\": null, \"enable_categorical\": false, \"feature_types\": null, \"max_cat_to_onehot\": null, \"max_cat_threshold\": null, \"early_stopping_rounds\": null, \"callbacks\": null, \"_estimator_type\": \"regressor\"}"},"feature_names":["categorical__ProcessingMethod_PPP","categorical__ProcessingMethod_PPS","categorical__RuralUrbanIndicator_R","categorical__RuralUrbanIndicator_U","categorical__HubzoneIndicator_N","categorical__HubzoneIndicator_Y","categorical__LMIIndicator_N","categorical__LMIIndicator_Y","numerical__Term","numerical__JobsReported","numerical__CurrentApprovalAmount","numerical__UTILITIES_PROCEED","numerical__PAYROLL_PROCEED","numerical__MORTGAGE_INTEREST_PROCEED","numerical__RENT_PROCEED","numerical__REFINANCE_EIDL_PROCEED","numerical__HEALTH_CARE_PROCEED","numerical__DEBT_INTEREST_PROCEED","numerical__Loan_Count","numerical__Revised_Loan_Amount","numerical__Days_With_Loan"],"feature_types":["float","float","float","float","float","float","float","float","float","float","float","float","float","float","float","float","float","float","float","float","float"],"gradient_booster":{"model":{"gbtree_model_param":{"num_parallel_tree":"1","num_trees":"100","size_leaf_vector":"0"},"tree_info":[0,0,0,0,0,0,0,0,0,0,0,0,0,0,0,0,0,0,0,0,0,0,0,0,0,0,0,0,0,0,0,0,0,0,0,0,0,0,0,0,0,0,0,0,0,0,0,0,0,0,0,0,0,0,0,0,0,0,0,0,0,0,0,0,0,0,0,0,0,0,0,0,0,0,0,0,0,0,0,0,0,0,0,0,0,0,0,0,0,0,0,0,0,0,0,0,0,0,0,0],"trees":[{"base_weights":[-4.9999946E-1,-4.8333198E-1,-1.1431683E0,-2.5264416E0,-4.8158187E-1,-9.0634537E-1,-3.6549256E0,-1.9790847E0,-1.0182956E1,-4.7260618E-1,-5.982512E-1,-7.6831514E-1,-1.4505143E0,-2.4216268E0,-7.262411E0,-1.6760019E0,-4.2663627E0,-7.331201E0,-1.5162314E1,-4.7254628E-1,-1.0548029E1,-5.608023E-1,-1.4379379E0,-1.873927E0,-7.41484E-1,-4.790637E0,-1.3873172E0,-1.3923255E1,-2.1419222E0,-6.080527E0,-1.1562503E1,-1.4123305E0,-2.4330938E0,-2.4529257E0,-4.8230696E0,-7.70248E0,-8.0340105E-1,-6.308472E0,-1.808237E1,-4.7250277E-1,-1.2630876E1,-4.7224592E-2,-1.7532824E1,-5.230724E-1,-7.456531E-1,-9.06083E-1,-7.9627748E0,-1.5565026E0,-2.3735094E0,-6.0709286E-1,-9.2547923E-1,-4.974687E0,-1.6608933E0,-9.830188E-1,-1.9633553E0,-9.880747E0,-3.2489002E1,-1.9953094E0,-1.4012609E1,-1.06880045E1,-4.69509E0,-1.5955845E1,-3.042592E0,-1.2062432E0,-1.5903602E0,-1.8735933E0,-2.5901563E0,-1.748211E0,-3.713284E0,-5.775417E0,-3.7534273E0,-2.3688777E-1,-7.9283767E0,-1.1889089E0,-7.094603E0,-1.9245014E1,-2.0653274E0,-4.7236183E-1,-3.121053E0,3.4141332E-1,-1.9287727E1,-4.9140805E-1,-5.849675E-1,-6.022971E-1,-1.0321134E0,-8.826315E-1,-3.068199E1,-2.058149E1,-5.1450067E0,-1.5758598E0,-8.566122E-1,-2.2003744E0,-3.5152066E0,-1.1309055E0,-5.873143E-1,-5.795442E-1,-1.2492539E0,-5.4366603E0,-3.0515652E0,-1.9419113E0,-1.2790176E-1,-3.031633E0,-9.0100706E-1,-9.9408746E-1,-2.7935505E0,-1.8044144E1,-8.003053E0,-5.128798E1,-1.026752E1,-1.9714822E0,-1.8522486E1,-1.0834624E1,-2.6290985E1,-7.4075317E0,-1.9947403E1,-4.5220094E0,-2.1303535E1,-1.3088759E1,-3.4889706E1,-7.366249E0,1.8963233E0],"categories":[],"categories_nodes":[],"categories_segments":[],"categories_sizes":[],"default_left":[1,1,1,1,1,1,1,1,1,1,1,1,1,1,1,1,1,1,1,1,1,1,1,1,1,1,1,1,1,1,1,1,1,1,1,1,0,1,1,1,1,0,0,1,1,1,1,1,1,1,1,1,1,1,1,1,1,1,1,1,1,1,1,0,0,0,0,0,0,0,0,0,0,0,0,0,0,0,0,0,0,0,0,0,0,0,0,0,0,0,0,0,0,0,0,0,0,0,0,0,0,0,0,0,0,0,0,0,0,0,0,0,0,0,0,0,0,0,0,0,0],"id":0,"left_children":[1,3,5,7,9,11,13,15,17,19,21,23,25,27,29,31,33,35,37,39,41,43,45,47,49,51,53,55,57,59,61,63,65,67,69,71,-1,73,75,77,79,-1,-1,81,83,85,87,89,91,93,95,97,99,101,103,105,107,109,111,113,115,117,119,-1,-1,-1,-1,-1,-1,-1,-1,-1,-1,-1,-1,-1,-1,-1,-1,-1,-1,-1,-1,-1,-1,-1,-1,-1,-1,-1,-1,-1,-1,-1,-1,-1,-1,-1,-1,-1,-1,-1,-1,-1,-1,-1,-1,-1,-1,-1,-1,-1,-1,-1,-1,-1,-1,-1,-1,-1,-1],"loss_changes":[1.00640625E4,3.2710469E3,1.4103357E4,3.2612788E3,9.5725E2,1.6267812E3,9.071943E3,5.0029736E2,6.272368E2,5.0734375E2,2.0530781E3,5.1151562E2,9.1875586E2,4.8729746E3,2.5724414E3,1.2591968E2,7.398132E1,7.8638916E1,3.5129492E2,4.4323438E2,3.6590192E2,4.357129E2,9.667887E3,6.1164673E1,4.1688477E2,3.8395996E1,1.0004346E3,2.3808623E3,2.5634912E3,2.567E3,4.1062803E3,1.5802795E1,9.734497E0,1.3048645E1,4.3517334E1,5.3774902E1,0E0,1.5713028E1,2.0234033E2,3.1545312E2,2.656489E2,0E0,0E0,1.0149414E2,4.3455273E2,1.7738062E3,7.360997E3,2.0776978E0,2.3299133E1,1.0044165E2,7.971992E2,5.093042E1,2.3364162E0,4.2250293E2,1.4247275E3,3.30771E2,1.9798472E3,5.431489E2,4.1751538E2,2.7075088E3,8.1491406E2,3.5061445E3,8.467816E2,0E0,0E0,0E0,0E0,0E0,0E0,0E0,0E0,0E0,0E0,0E0,0E0,0E0,0E0,0E0,0E0,0E0,0E0,0E0,0E0,0E0,0E0,0E0,0E0,0E0,0E0,0E0,0E0,0E0,0E0,0E0,0E0,0E0,0E0,0E0,0E0,0E0,0E0,0E0,0E0,0E0,0E0,0E0,0E0,0E0,0E0,0E0,0E0,0E0,0E0,0E0,0E0,0E0,0E0,0E0,0E0,0E0,0E0],"parents":[2147483647,0,0,1,1,2,2,3,3,4,4,5,5,6,6,7,7,8,8,9,9,10,10,11,11,12,12,13,13,14,14,15,15,16,16,17,17,18,18,19,19,20,20,21,21,22,22,23,23,24,24,25,25,26,26,27,27,28,28,29,29,30,30,31,31,32,32,33,33,34,34,35,35,37,37,38,38,39,39,40,40,43,43,44,44,45,45,46,46,47,47,48,48,49,49,50,50,51,51,52,52,53,53,54,54,55,55,56,56,57,57,58,58,59,59,60,60,61,61,62,62],"right_children":[2,4,6,8,10,12,14,16,18,20,22,24,26,28,30,32,34,36,38,40,42,44,46,48,50,52,54,56,58,60,62,64,66,68,70,72,-1,74,76,78,80,-1,-1,82,84,86,88,90,92,94,96,98,100,102,104,106,108,110,112,114,116,118,120,-1,-1,-1,-1,-1,-1,-1,-1,-1,-1,-1,-1,-1,-1,-1,-1,-1,-1,-1,-1,-1,-1,-1,-1,-1,-1,-1,-1,-1,-1,-1,-1,-1,-1,-1,-1,-1,-1,-1,-1,-1,-1,-1,-1,-1,-1,-1,-1,-1,-1,-1,-1,-1,-1,-1,-1,-1,-1],"split_conditions":[2.0381274E0,-1.3030105E0,2.1187E0,1.052233E0,1.2966287E0,1.1733406E-1,-5.143635E-1,1.2229196E-1,3.3892083E0,2.0166176E2,2.3220415E0,-1.0985465E0,-1.6827294E0,-1.6827294E0,7.338084E0,-2.792678E-1,6.389902E-1,1.5731424E-2,1.0318079E0,1.7302179E2,3.309643E0,1.4377323E-1,-5.4357266E-1,-3.7306565E-1,-6.896184E-1,1.409888E0,-5.4357266E-1,7.6711435E0,5.1586003E0,1.4644318E0,6.605598E0,-4.5077717E-1,5E-1,-1.03065714E-1,1.278974E0,1.0735577E0,-8.034011E-2,-1.9164026E0,1.9013033E0,1.4134401E0,5E-1,-4.7224592E-3,-1.7532824E0,-6.604092E-1,-6.312001E-1,8.9929214E1,1.3550218E0,-3.7060493E-1,-4.5915945E-3,-6.752444E-1,5E-1,4.0551796E0,3.7506359E0,-4.2264372E-1,5E-1,3.723054E-1,2.541287E0,5.8500977E1,5.1248016E0,3.654498E0,1.9628329E0,1.2327547E1,1.1005934E1,-1.2062432E-1,-1.5903603E-1,-1.8735933E-1,-2.5901565E-1,-1.7482111E-1,-3.713284E-1,-5.775417E-1,-3.7534273E-1,-2.3688776E-2,-7.928377E-1,-1.188909E-1,-7.094603E-1,-1.9245014E0,-2.0653275E-1,-4.7236186E-2,-3.121053E-1,3.4141332E-2,-1.9287728E0,-4.9140807E-2,-5.849675E-2,-6.0229715E-2,-1.0321134E-1,-8.826315E-2,-3.068199E0,-2.058149E0,-5.145007E-1,-1.5758598E-1,-8.5661225E-2,-2.2003745E-1,-3.5152066E-1,-1.1309055E-1,-5.8731433E-2,-5.795442E-2,-1.2492539E-1,-5.4366606E-1,-3.0515653E-1,-1.9419114E-1,-1.2790176E-2,-3.031633E-1,-9.0100706E-2,-9.9408746E-2,-2.7935505E-1,-1.8044144E0,-8.003053E-1,-5.128798E0,-1.026752E0,-1.9714822E-1,-1.8522485E0,-1.0834625E0,-2.6290987E0,-7.407532E-1,-1.9947404E0,-4.5220095E-1,-2.1303537E0,-1.3088759E0,-3.4889705E0,-7.366249E-1,1.8963234E-1],"split_indices":[20,8,10,12,20,10,8,10,10,15,10,8,8,8,12,10,20,19,20,13,10,10,8,10,8,11,8,10,20,9,9,10,6,11,20,10,0,8,20,8,6,0,0,8,8,16,8,12,10,9,0,20,20,9,0,9,20,11,11,12,18,12,10,0,0,0,0,0,0,0,0,0,0,0,0,0,0,0,0,0,0,0,0,0,0,0,0,0,0,0,0,0,0,0,0,0,0,0,0,0,0,0,0,0,0,0,0,0,0,0,0,0,0,0,0,0,0,0,0,0,0],"split_type":[0,0,0,0,0,0,0,0,0,0,0,0,0,0,0,0,0,0,0,0,0,0,0,0,0,0,0,0,0,0,0,0,0,0,0,0,0,0,0,0,0,0,0,0,0,0,0,0,0,0,0,0,0,0,0,0,0,0,0,0,0,0,0,0,0,0,0,0,0,0,0,0,0,0,0,0,0,0,0,0,0,0,0,0,0,0,0,0,0,0,0,0,0,0,0,0,0,0,0,0,0,0,0,0,0,0,0,0,0,0,0,0,0,0,0,0,0,0,0,0,0],"sum_hessian":[9.38863E5,9.15149E5,2.3714E4,7.82E2,9.14367E5,2.1672E4,2.042E3,7.31E2,5.1E1,8.49052E5,6.5315E4,1.7289E4,4.383E3,1.523E3,5.19E2,6.47E2,8.4E1,3.4E1,1.7E1,8.49048E5,4E0,6.2528E4,2.787E3,4.08E2,1.6881E4,8E1,4.303E3,3.5E1,1.488E3,4.09E2,1.1E2,4.82E2,1.65E2,2.1E1,6.3E1,3.2E1,2E0,5E0,1.2E1,8.49046E5,2E0,2E0,2E0,5.1932E4,1.0596E4,2.578E3,2.09E2,2.52E2,1.56E2,9.758E3,7.123E3,7.5E1,5E0,2.53E3,1.773E3,3E1,5E0,1.471E3,1.7E1,9.3E1,3.16E2,7.2E1,3.8E1,2.27E2,2.55E2,3.9E1,1.26E2,1.5E1,6E0,3.1E1,3.2E1,1E0,3.1E1,1E0,4E0,1.1E1,1E0,8.49002E5,4.4E1,1E0,1E0,3.4362E4,1.757E4,7.064E3,3.532E3,2.577E3,1E0,3.7E1,1.72E2,2.44E2,8E0,1.38E2,1.8E1,3.53E2,9.405E3,3.445E3,3.678E3,5.9E1,1.6E1,4E0,1E0,9.6E1,2.434E3,8.19E2,9.54E2,4E0,2.6E1,2E0,3E0,1.47E3,1E0,1.5E1,2E0,7E1,2.3E1,3.14E2,2E0,6.4E1,8E0,2E1,1.8E1],"tree_param":{"num_deleted":"0","num_feature":"21","num_nodes":"121","size_leaf_vector":"0"}},{"base_weights":[-4.500467E-1,-4.3501636E-1,-1.0300399E0,-2.281564E0,-4.3343464E-1,-8.200364E-1,-3.3540883E0,-1.7842159E0,-9.238818E0,-4.327156E-1,-1.6677748E0,-6.984997E-1,-1.352508E0,-2.211582E0,-6.715223E0,-1.523308E0,-3.983844E0,-7.715423E0,-1.7929874E1,-4.2497507E-1,-5.3339744E-1,-1.2640616E1,-8.458738E-1,-1.7497747E0,-6.728629E-1,-3.6014993E0,-1.2774258E0,-1.3061363E1,-1.9452264E0,-1.383235E1,-6.063438E0,-1.2716764E0,-2.2130482E0,-2.3468852E0,-4.5557947E0,-8.447738E0,-3.18096E0,-1.9961681E1,-2.8695164E0,-4.2491907E-1,-9.844828E0,-5.32512E-1,-2.914789E1,-6.743173E1,-7.5830746E0,-1.080332E1,-4.91452E-1,-1.6040533E0,-3.36125E0,-5.4924643E-1,-8.427368E-1,-1.9451002E0,-4.6124353E0,-4.408454E0,-1.222549E0,-1.0263674E1,-3.9482162E1,-1.8227286E0,-1.204856E1,-3.895724E1,-1.1544991E1,-4.253712E0,-9.16205E0,-1.0861479E0,-1.4319453E0,-1.1519116E0,-2.2775917E0,-2.980099E0,-1.4427533E0,-6.370573E0,-3.9160697E0,-8.801072E0,-1.2740401E0,-3.9013302E0,-1.485257E0,-4.2487764E-1,-1.1999332E1,-4.4076294E-2,-1.636397E1,-4.8583674E-1,-9.287906E-1,-4.2334332E0,-6.073544E1,1.8135245E-1,-3.097211E1,1.5961851E-1,-3.4761195E0,-1.4018137E0,-1.9684834E0,-2.3551104E0,-3.8030028E0,-5.461258E-1,-3.6155627E0,-5.227814E-1,-1.1417217E0,-3.2809753E0,-1.0493938E0,-7.457825E-1,-5.031705E0,-4.760018E0,-1.9285388E0,-8.645435E-1,-1.7354451E0,-5.4195385E0,-1.3547798E1,-1.7991788E0,-1.7596361E1,-2.4399326E1,-7.659158E0,-9.736937E0,-2.1892372E1,-5.4208536E0,-1.7886535E0,-1.1790409E1,-3.072048E0],"categories":[],"categories_nodes":[],"categories_segments":[],"categories_sizes":[],"default_left":[1,1,1,1,1,1,1,1,1,1,1,1,1,1,1,1,1,1,1,1,1,1,1,1,1,1,1,1,1,1,1,1,1,1,1,1,1,0,0,1,1,1,0,0,1,1,1,1,1,1,1,1,1,1,1,1,0,1,1,0,1,1,1,0,0,0,0,0,0,0,0,0,0,0,0,0,0,0,0,0,0,0,0,0,0,0,0,0,0,0,0,0,0,0,0,0,0,0,0,0,0,0,0,0,0,0,0,0,0,0,0,0,0,0,0],"id":1,"left_children":[1,3,5,7,9,11,13,15,17,19,21,23,25,27,29,31,33,35,37,39,41,43,45,47,49,51,53,55,57,59,61,63,65,67,69,71,73,-1,-1,75,77,79,-1,-1,81,83,85,87,89,91,93,95,97,99,101,103,-1,105,107,-1,109,111,113,-1,-1,-1,-1,-1,-1,-1,-1,-1,-1,-1,-1,-1,-1,-1,-1,-1,-1,-1,-1,-1,-1,-1,-1,-1,-1,-1,-1,-1,-1,-1,-1,-1,-1,-1,-1,-1,-1,-1,-1,-1,-1,-1,-1,-1,-1,-1,-1,-1,-1,-1,-1],"loss_changes":[8.184078E3,2.6719375E3,1.1571551E4,2.692835E3,8.108281E2,1.406668E3,7.5309785E3,4.1402637E2,5.5013916E2,7.1196875E2,4.7871973E3,4.7615723E2,6.777588E2,4.2169663E3,2.2262676E3,1.1104126E2,6.1400146E1,1.25878174E2,1.5691797E2,4.4348438E2,1.6373457E3,9.741668E3,1.745142E3,9.347034E1,3.6263428E2,2.0871497E2,6.667744E2,2.1818696E3,1.7528091E3,1.9064956E3,2.5293262E3,1.2806519E1,9.293579E0,8.295639E0,4.006604E1,8.7640625E1,3.9777908E0,0E0,0E0,4.0173438E2,3.1874112E2,1.2061797E3,0E0,0E0,5.974328E3,3.7719248E3,9.3330493E2,2.5837036E1,6.155304E0,9.381885E1,6.959175E2,5.75811E1,1.2594104E2,4.923401E1,7.047007E2,4.5156592E2,0E0,4.9507812E2,7.347339E2,0E0,5.164717E2,8.2753174E2,2.6529062E3,0E0,0E0,0E0,0E0,0E0,0E0,0E0,0E0,0E0,0E0,0E0,0E0,0E0,0E0,0E0,0E0,0E0,0E0,0E0,0E0,0E0,0E0,0E0,0E0,0E0,0E0,0E0,0E0,0E0,0E0,0E0,0E0,0E0,0E0,0E0,0E0,0E0,0E0,0E0,0E0,0E0,0E0,0E0,0E0,0E0,0E0,0E0,0E0,0E0,0E0,0E0,0E0],"parents":[2147483647,0,0,1,1,2,2,3,3,4,4,5,5,6,6,7,7,8,8,9,9,10,10,11,11,12,12,13,13,14,14,15,15,16,16,17,17,18,18,19,19,20,20,21,21,22,22,23,23,24,24,25,25,26,26,27,27,28,28,29,29,30,30,31,31,32,32,33,33,34,34,35,35,36,36,39,39,40,40,41,41,44,44,45,45,46,46,47,47,48,48,49,49,50,50,51,51,52,52,53,53,54,54,55,55,57,57,58,58,60,60,61,61,62,62],"right_children":[2,4,6,8,10,12,14,16,18,20,22,24,26,28,30,32,34,36,38,40,42,44,46,48,50,52,54,56,58,60,62,64,66,68,70,72,74,-1,-1,76,78,80,-1,-1,82,84,86,88,90,92,94,96,98,100,102,104,-1,106,108,-1,110,112,114,-1,-1,-1,-1,-1,-1,-1,-1,-1,-1,-1,-1,-1,-1,-1,-1,-1,-1,-1,-1,-1,-1,-1,-1,-1,-1,-1,-1,-1,-1,-1,-1,-1,-1,-1,-1,-1,-1,-1,-1,-1,-1,-1,-1,-1,-1,-1,-1,-1,-1,-1,-1],"split_conditions":[2.0381274E0,-1.3030105E0,2.2048252E0,1.052233E0,1.3085647E1,1.9068578E-1,-3.9752692E-1,1.5012331E-1,5.6620603E0,1.2966287E0,1.292935E1,-1.0985465E0,-4.2264372E-1,-1.6827294E0,7.586358E-1,-2.792678E-1,6.875407E-1,7.2053885E-1,-1.7411476E0,2.0166176E2,8.9929214E1,3.6784022E0,2.9354591E0,-1.8908799E-2,-6.896184E-1,3.4322178E-1,-1.6827294E0,1.0263145E1,5.1586003E0,2.1087463E0,5.5718126E0,-4.5077717E-1,-1.3340409E-1,4.827394E-1,1.1244953E0,5.060276E0,9.592304E-1,-1.9961681E0,-2.8695163E-1,1.7302179E2,3.309643E0,8.526796E-1,-2.914789E0,-6.743173E0,1.2922026E1,2.6828585E0,1.2348373E0,-3.7306565E-1,2.4221177E0,2.0966513E1,5E-1,-5.266558E-1,-7.2725046E-1,4.0295237E-1,-5.4357266E-1,3.235999E0,-3.9482162E0,5.8500977E1,5E-1,-3.895724E0,5.004122E0,3.9458618E0,6.605598E0,-1.08614795E-1,-1.4319454E-1,-1.1519116E-1,-2.2775917E-1,-2.980099E-1,-1.4427534E-1,-6.370573E-1,-3.91607E-1,-8.801072E-1,-1.2740402E-1,-3.9013302E-1,-1.485257E-1,-4.2487767E-2,-1.1999333E0,-4.4076294E-3,-1.636397E0,-4.8583675E-2,-9.2879064E-2,-4.2334333E-1,-6.073544E0,1.8135246E-2,-3.0972111E0,1.5961852E-2,-3.4761196E-1,-1.4018138E-1,-1.9684835E-1,-2.3551105E-1,-3.8030028E-1,-5.4612584E-2,-3.6155626E-1,-5.227814E-2,-1.14172176E-1,-3.2809755E-1,-1.0493938E-1,-7.457825E-2,-5.031705E-1,-4.760018E-1,-1.9285388E-1,-8.6454354E-2,-1.7354451E-1,-5.4195386E-1,-1.3547798E0,-1.7991789E-1,-1.7596362E0,-2.4399326E0,-7.659158E-1,-9.7369367E-1,-2.1892374E0,-5.4208535E-1,-1.7886536E-1,-1.1790409E0,-3.072048E-1],"split_indices":[20,8,10,12,12,10,8,12,9,20,10,8,9,8,9,10,20,11,8,15,16,9,9,10,8,12,8,10,20,20,10,10,20,12,20,9,9,0,0,13,10,10,0,0,10,9,20,10,20,15,0,9,9,18,8,10,0,11,6,0,20,9,9,0,0,0,0,0,0,0,0,0,0,0,0,0,0,0,0,0,0,0,0,0,0,0,0,0,0,0,0,0,0,0,0,0,0,0,0,0,0,0,0,0,0,0,0,0,0,0,0,0,0,0,0],"split_type":[0,0,0,0,0,0,0,0,0,0,0,0,0,0,0,0,0,0,0,0,0,0,0,0,0,0,0,0,0,0,0,0,0,0,0,0,0,0,0,0,0,0,0,0,0,0,0,0,0,0,0,0,0,0,0,0,0,0,0,0,0,0,0,0,0,0,0,0,0,0,0,0,0,0,0,0,0,0,0,0,0,0,0,0,0,0,0,0,0,0,0,0,0,0,0,0,0,0,0,0,0,0,0,0,0,0,0,0,0,0,0,0,0,0,0],"sum_hessian":[9.38863E5,9.15149E5,2.3714E4,7.82E2,9.14367E5,2.175E4,1.964E3,7.31E2,5.1E1,9.13836E5,5.31E2,1.771E4,4.04E3,1.467E3,4.97E2,6.55E2,7.6E1,4.5E1,6E0,8.486E5,6.5236E4,3.6E1,4.95E2,4.2E2,1.729E4,1.29E2,3.911E3,3.4E1,1.433E3,4E1,4.57E2,4.82E2,1.73E2,2.1E1,5.5E1,3.8E1,7E0,5E0,1E0,8.48596E5,4E0,6.5235E4,1E0,2E0,3.4E1,1.6E1,4.79E2,3.87E2,3.3E1,1.001E4,7.28E3,5E1,7.9E1,6.6E1,3.845E3,3.2E1,2E0,1.417E3,1.6E1,2E0,3.8E1,2.9E2,1.67E2,2.27E2,2.55E2,1.1E1,1.62E2,1.1E1,1E1,1.2E1,4.3E1,3.6E1,2E0,4E0,3E0,8.48594E5,2E0,2E0,2E0,5.8363E4,6.872E3,3.3E1,1E0,1.1E1,5E0,3.94E2,8.5E1,2.52E2,1.35E2,1.2E1,2.1E1,1.0001E4,9E0,3.518E3,3.762E3,1.9E1,3.1E1,8E0,7.1E1,5.7E1,9E0,2.266E3,1.579E3,1.4E1,1.8E1,1.416E3,1E0,3E0,1.3E1,3.4E1,4E0,1.96E2,9.4E1,1.16E2,5.1E1],"tree_param":{"num_deleted":"0","num_feature":"21","num_nodes":"115","size_leaf_vector":"0"}},{"base_weights":[-4.0509763E-1,-3.9154586E-1,-9.280366E-1,-2.0599504E0,-3.901149E-1,-7.431394E-1,-3.088829E0,-1.7487216E0,-1.1438905E1,-3.8944954E-1,-1.5322958E0,-6.451377E-1,-1.318007E0,-2.0468576E0,-6.1424317E0,-1.371756E0,-4.1133146E0,-4.454277E0,-1.4463773E1,-3.8247988E-1,-4.8010454E-1,-1.1734394E1,-7.681629E-1,-1.6547709E0,-6.209013E-1,-3.2806053E0,-1.1957235E0,-1.2393873E1,-1.7948412E0,-1.0829954E1,-5.1368165E0,-1.1453252E0,-1.9937142E0,-3.3166046E0,-5.0841875E0,-8.9355004E-1,-5.3439775E0,-4.97939E0,-1.614047E1,-3.8242754E-1,-9.188506E0,-4.7926298E-1,-2.7690496E1,-6.293628E1,-7.010392E0,-9.90411E0,-4.4299778E-1,-1.4503955E0,-3.3197925E0,-5.042524E-1,-7.810551E-1,-2.3557415E0,-5.497759E0,-8.745919E-1,-1.6885087E0,-9.627347E0,-3.685002E1,-1.6769818E0,-1.1612317E1,-6.378196E0,-1.7381763E1,-3.7195597E0,-8.703905E0,-9.780094E-1,-1.2893045E0,-1.5042614E0,-2.133288E0,-2.0130208E0,-3.6695862E0,-5.7018204E0,-1.9801195E0,-3.5570288E-1,-6.1160727E0,-5.6985664E0,-1.4109303E0,-1.714789E1,-1.5220075E0,-3.8238886E-1,-1.1199376E1,-4.1137885E-2,-1.5273038E1,-4.5225537E-1,-1.0662026E0,-3.8225412E0,-5.7698666E1,1.6472845E-1,-2.8391102E1,1.4369704E-1,-3.1325495E0,-1.220972E0,-1.7265925E0,-2.1772928E0,-3.8946323E0,-5.015619E-1,-3.2901618E0,-4.705661E-1,-1.0686085E0,-1.4092425E0,-3.4838278E0,-4.9603715E0,-1.2979881E1,-3.4292152E0,-7.808266E-1,-8.319223E-1,-2.4287577E0,-4.730501E0,-1.2471118E1,-1.6534064E0,-1.6716543E1,-2.9508587E1,-6.9479504E0,-1.5298952E1,-4.611281E0,-5.831683E0,-2.1470057E1,-3.5385885E0,-1.9430664E1,-1.1947799E1,-2.6472995E0],"categories":[],"categories_nodes":[],"categories_segments":[],"categories_sizes":[],"default_left":[1,1,1,1,1,1,1,1,1,1,1,1,1,1,1,1,1,1,1,1,1,1,1,1,1,1,1,1,1,1,1,1,1,1,1,0,1,1,1,1,1,1,0,0,1,1,1,1,1,1,1,1,1,1,1,1,0,1,1,1,1,1,1,0,0,0,0,0,0,0,0,0,0,0,0,0,0,0,0,0,0,0,0,0,0,0,0,0,0,0,0,0,0,0,0,0,0,0,0,0,0,0,0,0,0,0,0,0,0,0,0,0,0,0,0,0,0,0,0],"id":2,"left_children":[1,3,5,7,9,11,13,15,17,19,21,23,25,27,29,31,33,35,37,39,41,43,45,47,49,51,53,55,57,59,61,63,65,67,69,-1,71,73,75,77,79,81,-1,-1,83,85,87,89,91,93,95,97,99,101,103,105,-1,107,109,111,113,115,117,-1,-1,-1,-1,-1,-1,-1,-1,-1,-1,-1,-1,-1,-1,-1,-1,-1,-1,-1,-1,-1,-1,-1,-1,-1,-1,-1,-1,-1,-1,-1,-1,-1,-1,-1,-1,-1,-1,-1,-1,-1,-1,-1,-1,-1,-1,-1,-1,-1,-1,-1,-1,-1,-1,-1,-1],"loss_changes":[6.6531406E3,2.1840312E3,9.472428E3,2.2684927E3,6.942969E2,1.2299658E3,5.9341484E3,6.717988E2,4.6376343E2,5.772031E2,4.1383296E3,4.5575244E2,7.594961E2,3.6153818E3,2.1834453E3,9.024219E1,6.3582153E1,2.373671E1,1.8997192E2,3.8758594E2,1.480626E3,8.50827E3,1.4690754E3,1.438916E2,3.4019336E2,3.684536E2,4.726372E2,1.8779644E3,1.5576289E3,2.310002E3,1.9544297E3,1.0398682E1,8.677795E0,2.0221497E1,7.4982666E1,0E0,2.4784454E1,2.2251282E0,1.8007764E2,3.50875E2,2.7765903E2,1.033627E3,0E0,0E0,5.4349775E3,3.1690996E3,7.5786426E2,2.2667969E1,2.2387695E1,7.743506E1,6.852739E2,1.3709888E2,1.5273804E2,4.3231775E2,7.468362E2,3.7269653E2,0E0,4.50313E2,1.1305718E3,7.333252E2,1.4330576E3,7.3588403E2,2.1491865E3,0E0,0E0,0E0,0E0,0E0,0E0,0E0,0E0,0E0,0E0,0E0,0E0,0E0,0E0,0E0,0E0,0E0,0E0,0E0,0E0,0E0,0E0,0E0,0E0,0E0,0E0,0E0,0E0,0E0,0E0,0E0,0E0,0E0,0E0,0E0,0E0,0E0,0E0,0E0,0E0,0E0,0E0,0E0,0E0,0E0,0E0,0E0,0E0,0E0,0E0,0E0,0E0,0E0,0E0,0E0,0E0],"parents":[2147483647,0,0,1,1,2,2,3,3,4,4,5,5,6,6,7,7,8,8,9,9,10,10,11,11,12,12,13,13,14,14,15,15,16,16,17,17,18,18,19,19,20,20,21,21,22,22,23,23,24,24,25,25,26,26,27,27,28,28,29,29,30,30,31,31,32,32,33,33,34,34,36,36,37,37,38,38,39,39,40,40,41,41,44,44,45,45,46,46,47,47,48,48,49,49,50,50,51,51,52,52,53,53,54,54,55,55,57,57,58,58,59,59,60,60,61,61,62,62],"right_children":[2,4,6,8,10,12,14,16,18,20,22,24,26,28,30,32,34,36,38,40,42,44,46,48,50,52,54,56,58,60,62,64,66,68,70,-1,72,74,76,78,80,82,-1,-1,84,86,88,90,92,94,96,98,100,102,104,106,-1,108,110,112,114,116,118,-1,-1,-1,-1,-1,-1,-1,-1,-1,-1,-1,-1,-1,-1,-1,-1,-1,-1,-1,-1,-1,-1,-1,-1,-1,-1,-1,-1,-1,-1,-1,-1,-1,-1,-1,-1,-1,-1,-1,-1,-1,-1,-1,-1,-1,-1,-1,-1,-1,-1,-1,-1,-1,-1,-1,-1],"split_conditions":[2.0381274E0,-1.0985465E0,2.3157814E0,2.4125276E0,1.3085647E1,4.0327117E-1,-3.9752692E-1,1.5012331E-1,1.1156678E0,1.2966287E0,1.292935E1,-1.0985465E0,-2.443374E-1,-1.6827294E0,1.4644318E0,-2.792678E-1,7.4372125E-1,-1.9164026E0,1.2712665E0,2.0166176E2,8.9929214E1,3.6784022E0,2.9354591E0,-4.5915945E-3,-6.896184E-1,9.1148823E-1,-5.4357266E-1,1.0263145E1,5.1586003E0,3.654498E0,7.024243E0,-4.5077717E-1,5E-1,6.389902E-1,1.6139061E0,-8.935501E-2,2.7219644E0,5E-1,1.9013033E0,1.7302179E2,3.309643E0,2.2192912E0,-2.7690496E0,-6.293628E0,1.2922026E1,2.6828585E0,1.2348373E0,-4.0736693E-1,2.4221177E0,2.0966513E1,5E-1,3.344577E0,2.1524954E0,-7.480367E-1,5E-1,2.4927366E0,-3.685002E0,5.8500977E1,5E-1,1.865696E-1,2.608639E-1,1.9628329E0,6.605598E0,-9.780094E-2,-1.2893045E-1,-1.5042613E-1,-2.133288E-1,-2.0130208E-1,-3.6695862E-1,-5.70182E-1,-1.9801195E-1,-3.557029E-2,-6.1160725E-1,-5.6985664E-1,-1.4109303E-1,-1.714789E0,-1.5220074E-1,-3.8238887E-2,-1.1199377E0,-4.1137887E-3,-1.5273038E0,-4.522554E-2,-1.0662027E-1,-3.8225412E-1,-5.7698665E0,1.6472844E-2,-2.8391101E0,1.4369704E-2,-3.1325495E-1,-1.22097194E-1,-1.7265926E-1,-2.1772929E-1,-3.8946325E-1,-5.0156187E-2,-3.2901618E-1,-4.705661E-2,-1.06860854E-1,-1.4092426E-1,-3.483828E-1,-4.9603716E-1,-1.2979882E0,-3.4292153E-1,-7.8082666E-2,-8.319223E-2,-2.4287577E-1,-4.7305012E-1,-1.2471118E0,-1.6534065E-1,-1.6716543E0,-2.9508588E0,-6.947951E-1,-1.5298952E0,-4.611281E-1,-5.831683E-1,-2.1470058E0,-3.5385886E-1,-1.9430665E0,-1.1947799E0,-2.6472995E-1],"split_indices":[20,8,10,10,12,10,8,12,20,20,10,8,9,8,9,10,10,8,9,15,16,9,9,10,8,12,8,10,20,12,12,10,6,20,12,0,10,2,20,13,10,10,0,0,10,9,20,10,20,15,0,20,14,8,0,20,0,11,6,9,9,18,9,0,0,0,0,0,0,0,0,0,0,0,0,0,0,0,0,0,0,0,0,0,0,0,0,0,0,0,0,0,0,0,0,0,0,0,0,0,0,0,0,0,0,0,0,0,0,0,0,0,0,0,0,0,0,0,0],"split_type":[0,0,0,0,0,0,0,0,0,0,0,0,0,0,0,0,0,0,0,0,0,0,0,0,0,0,0,0,0,0,0,0,0,0,0,0,0,0,0,0,0,0,0,0,0,0,0,0,0,0,0,0,0,0,0,0,0,0,0,0,0,0,0,0,0,0,0,0,0,0,0,0,0,0,0,0,0,0,0,0,0,0,0,0,0,0,0,0,0,0,0,0,0,0,0,0,0,0,0,0,0,0,0,0,0,0,0,0,0,0,0,0,0,0,0,0,0,0,0],"sum_hessian":[9.38863E5,9.15149E5,2.3714E4,7.83E2,9.14366E5,2.1846E4,1.868E3,7.59E2,2.4E1,9.13835E5,5.31E2,1.8666E4,3.18E3,1.394E3,4.74E2,6.56E2,1.03E2,8E0,1.6E1,8.48599E5,6.5236E4,3.6E1,4.95E2,4.36E2,1.823E4,1.85E2,2.995E3,3.2E1,1.362E3,8.2E1,3.92E2,4.83E2,1.73E2,5.9E1,4.4E1,2E0,6E0,3E0,1.3E1,8.48595E5,4E0,6.5235E4,1E0,2E0,3.4E1,1.6E1,4.79E2,3.9E2,4.6E1,1.055E4,7.68E3,1.32E2,5.3E1,1.815E3,1.18E3,3E1,2E0,1.347E3,1.5E1,5E1,3.2E1,2.82E2,1.1E2,2.27E2,2.56E2,4.1E1,1.32E2,1.4E1,4.5E1,3.6E1,8E0,1E0,5E0,2E0,1E0,1.2E1,1E0,8.48593E5,2E0,2E0,2E0,6.2367E4,2.868E3,3.3E1,1E0,1.1E1,5E0,3.94E2,8.5E1,2.16E2,1.74E2,1.7E1,2.9E1,1.0541E4,9E0,3.694E3,3.986E3,7.3E1,5.9E1,5.1E1,2E0,6.3E1,1.752E3,5.48E2,6.32E2,1.2E1,1.8E1,1.346E3,1E0,2E0,1.3E1,7E0,4.3E1,9E0,2.3E1,2.8E2,2E0,7.1E1,3.9E1],"tree_param":{"num_deleted":"0","num_feature":"21","num_nodes":"119","size_leaf_vector":"0"}},{"base_weights":[-3.646414E-1,-3.5187876E-1,-8.1710917E-1,-1.8667668E0,-3.5060316E-1,-6.5460557E-1,-2.6899295E0,-1.5037596E0,-8.99797E0,-3.499765E-1,-1.4300802E0,-5.483854E-1,-1.072624E0,-1.7326608E0,-5.4853554E0,-1.2275496E0,-3.4604182E0,-7.3183584E0,-1.5150825E1,-3.4234014E-1,-4.1217157E-1,-1.0897326E1,-7.166559E-1,-1.0666877E0,-5.1762193E-1,-3.278186E0,-1.0240507E0,-1.0888498E1,-1.5177261E0,-1.093462E1,-4.874685E0,-1.02712E0,-1.7881265E0,-2.0467257E0,-3.8876903E0,-7.764927E0,-5.6207544E-1,-1.8451038E1,-4.600195E0,-3.4228903E-1,-8.575938E0,-4.116655E-1,-1.7094152E1,-5.874053E1,-6.485128E0,-5.8042365E-1,-2.2774452E1,-8.1726116E-1,-1.8290919E0,-1.3602266E0,-4.99603E-1,-3.1128304E0,-1.007223E1,-7.3139644E-1,-1.4453971E0,-8.421739E0,-3.4393353E1,-1.384742E0,-8.454682E0,-9.603981E0,-3.93986E1,-3.3703444E0,-7.3713765E0,-9.2744946E-1,-1.2417451E0,-8.717358E-1,-1.8467797E0,-9.995347E-1,-2.9233563E0,-5.510437E0,-3.1932929E0,-1.0855794E-2,-8.041471E0,-8.268326E0,-2.2483404E1,-3.4225127E-1,-1.0452752E1,-3.8395356E-2,-1.4254836E1,-3.8011968E-1,-6.033656E-1,6.647411E-1,-2.6305971E1,-3.4515297E0,-5.4813732E1,-9.079736E0,-2.750158E-1,1.134564E0,-3.529624E1,-1.1440749E0,-6.855639E-1,-1.4823133E0,-2.4157884E0,-1.1673948E0,-1.8225695E0,-4.3516442E-1,-6.7020434E-1,-3.5092902E0,-1.3118811E0,-2.2038283E0,-6.7781025E-1,-6.672257E-1,-2.1453233E0,-4.128323E0,-1.1368029E1,-1.3640918E0,-1.5880716E1,-6.2746053E0,-2.4530458E1,-8.334335E0,-1.7737267E1,-3.2502449E0,-1.9459911E1,-1.1331966E1,-4.278933E0],"categories":[],"categories_nodes":[],"categories_segments":[],"categories_sizes":[],"default_left":[1,1,1,1,1,1,1,1,1,1,1,1,1,1,1,1,1,1,1,1,1,1,1,1,1,1,1,1,1,1,1,1,1,1,1,1,0,1,0,1,1,1,1,0,1,1,1,1,1,1,1,1,0,1,1,1,0,1,1,1,0,1,1,0,0,0,0,0,0,0,0,0,0,0,0,0,0,0,0,0,0,0,0,0,0,0,0,0,0,0,0,0,0,0,0,0,0,0,0,0,0,0,0,0,0,0,0,0,0,0,0,0,0,0,0],"id":3,"left_children":[1,3,5,7,9,11,13,15,17,19,21,23,25,27,29,31,33,35,37,39,41,43,45,47,49,51,53,55,57,59,61,63,65,67,69,71,-1,73,-1,75,77,79,81,-1,83,85,87,89,91,93,95,97,-1,99,101,103,-1,105,107,109,-1,111,113,-1,-1,-1,-1,-1,-1,-1,-1,-1,-1,-1,-1,-1,-1,-1,-1,-1,-1,-1,-1,-1,-1,-1,-1,-1,-1,-1,-1,-1,-1,-1,-1,-1,-1,-1,-1,-1,-1,-1,-1,-1,-1,-1,-1,-1,-1,-1,-1,-1,-1,-1,-1],"loss_changes":[5.4213438E3,1.7638281E3,7.8365176E3,1.9745735E3,6.1666406E2,1.0517383E3,5.492298E3,3.913606E2,2.714939E2,4.3292188E2,3.5651426E3,3.008037E2,5.109795E2,3.0002754E3,1.690415E3,7.040851E1,4.640576E1,8.916699E1,1.5885681E2,3.3885156E2,8.3472266E2,7.4295273E3,1.468238E3,1.9969836E2,2.7022852E2,8.436047E1,5.783711E2,1.7396768E3,1.3711267E3,1.5911313E3,1.7516836E3,9.030823E0,7.419983E0,1.8192001E1,5.90282E1,6.209851E1,0E0,1.94021E1,0E0,3.0654688E2,2.418718E2,6.0271484E2,5.0826178E2,0E0,4.9421436E3,1.2720195E3,9.381969E2,3.360498E1,4.9317078E1,3.1126953E1,1.9177246E2,6.822461E1,0E0,2.174591E2,1.0470435E3,3.7050732E2,0E0,4.1897632E2,8.273811E2,3.7881738E2,0E0,5.106587E2,2.1193896E3,0E0,0E0,0E0,0E0,0E0,0E0,0E0,0E0,0E0,0E0,0E0,0E0,0E0,0E0,0E0,0E0,0E0,0E0,0E0,0E0,0E0,0E0,0E0,0E0,0E0,0E0,0E0,0E0,0E0,0E0,0E0,0E0,0E0,0E0,0E0,0E0,0E0,0E0,0E0,0E0,0E0,0E0,0E0,0E0,0E0,0E0,0E0,0E0,0E0,0E0,0E0,0E0],"parents":[2147483647,0,0,1,1,2,2,3,3,4,4,5,5,6,6,7,7,8,8,9,9,10,10,11,11,12,12,13,13,14,14,15,15,16,16,17,17,18,18,19,19,20,20,21,21,22,22,23,23,24,24,25,25,26,26,27,27,28,28,29,29,30,30,31,31,32,32,33,33,34,34,35,35,37,37,39,39,40,40,41,41,42,42,44,44,45,45,46,46,47,47,48,48,49,49,50,50,51,51,53,53,54,54,55,55,57,57,58,58,59,59,61,61,62,62],"right_children":[2,4,6,8,10,12,14,16,18,20,22,24,26,28,30,32,34,36,38,40,42,44,46,48,50,52,54,56,58,60,62,64,66,68,70,72,-1,74,-1,76,78,80,82,-1,84,86,88,90,92,94,96,98,-1,100,102,104,-1,106,108,110,-1,112,114,-1,-1,-1,-1,-1,-1,-1,-1,-1,-1,-1,-1,-1,-1,-1,-1,-1,-1,-1,-1,-1,-1,-1,-1,-1,-1,-1,-1,-1,-1,-1,-1,-1,-1,-1,-1,-1,-1,-1,-1,-1,-1,-1,-1,-1,-1,-1,-1,-1,-1,-1,-1],"split_conditions":[1.9763358E0,-1.0985465E0,2.2048252E0,1.4545356E0,1.3085647E1,1.1733406E-1,-5.143635E-1,1.5012331E-1,5.6620603E0,1.1465635E0,1.292935E1,-6.6038555E-1,-7.480367E-1,-1.6827294E0,9.2208326E-1,-2.792678E-1,6.3457656E-1,1.5731424E-2,7.8857393E0,2.0166176E2,8.9929214E1,3.6784022E0,1.8968896E0,-4.0359557E-1,-1.0985465E0,5.3307343E0,-5.727818E-1,1.0263145E1,4.845229E0,1.1631955E1,5.434757E0,-3.8760957E-1,-1.3340409E-1,-1.7411476E0,1.1244953E0,-1.6825649E0,-5.6207545E-2,4.6989536E0,-4.600195E-1,1.7302179E2,3.309643E0,5.047883E-1,5.877514E0,-5.874053E0,1.2922026E1,2.9354591E0,6.5461626E0,-7.0496213E-1,3.9624925E0,-2.8573126E-1,-2.5968608E-1,-1.6827294E0,-1.007223E0,-4.2264372E-1,5E-1,3.235999E0,-3.4393353E0,5.8500977E1,1.2303586E1,5.004122E0,-3.93986E0,1.9366323E1,5.1345706E0,-9.274495E-2,-1.2417451E-1,-8.717358E-2,-1.8467797E-1,-9.995347E-2,-2.9233563E-1,-5.510437E-1,-3.193293E-1,-1.0855794E-3,-8.0414706E-1,-8.268326E-1,-2.2483404E0,-3.422513E-2,-1.0452752E0,-3.8395356E-3,-1.4254836E0,-3.8011968E-2,-6.033656E-2,6.647411E-2,-2.630597E0,-3.4515297E-1,-5.4813733E0,-9.079736E-1,-2.7501581E-2,1.13456406E-1,-3.5296242E0,-1.14407495E-1,-6.855639E-2,-1.4823133E-1,-2.4157885E-1,-1.16739474E-1,-1.8225695E-1,-4.3516442E-2,-6.702044E-2,-3.5092902E-1,-1.3118811E-1,-2.2038284E-1,-6.778102E-2,-6.672257E-2,-2.1453233E-1,-4.1283232E-1,-1.1368029E0,-1.3640918E-1,-1.5880717E0,-6.2746054E-1,-2.4530458E0,-8.3343357E-1,-1.7737267E0,-3.250245E-1,-1.9459912E0,-1.1331967E0,-4.278933E-1],"split_indices":[20,8,10,12,12,10,8,12,9,20,10,9,8,8,9,10,20,19,10,15,16,9,20,10,8,20,8,10,20,12,10,10,20,8,20,19,0,10,0,13,10,10,9,0,10,9,9,9,20,10,10,8,0,9,0,10,0,11,19,20,0,14,9,0,0,0,0,0,0,0,0,0,0,0,0,0,0,0,0,0,0,0,0,0,0,0,0,0,0,0,0,0,0,0,0,0,0,0,0,0,0,0,0,0,0,0,0,0,0,0,0,0,0,0,0],"split_type":[0,0,0,0,0,0,0,0,0,0,0,0,0,0,0,0,0,0,0,0,0,0,0,0,0,0,0,0,0,0,0,0,0,0,0,0,0,0,0,0,0,0,0,0,0,0,0,0,0,0,0,0,0,0,0,0,0,0,0,0,0,0,0,0,0,0,0,0,0,0,0,0,0,0,0,0,0,0,0,0,0,0,0,0,0,0,0,0,0,0,0,0,0,0,0,0,0,0,0,0,0,0,0,0,0,0,0,0,0,0,0,0,0,0,0],"sum_hessian":[9.38863E5,9.13109E5,2.5754E4,7.67E2,9.12342E5,2.3699E4,2.055E3,7.31E2,3.6E1,9.11814E5,5.28E2,1.8899E4,4.8E3,1.532E3,5.23E2,6.42E2,8.9E1,3E1,6E0,8.12109E5,9.9705E4,3.6E1,4.92E2,1.057E3,1.7842E4,1.02E2,4.698E3,3.4E1,1.498E3,5.1E1,4.72E2,4.75E2,1.67E2,2.2E1,6.7E1,2.8E1,2E0,4E0,2E0,8.12105E5,4E0,9.9703E4,2E0,2E0,3.4E1,4.9E2,2E0,7.98E2,2.59E2,3.72E2,1.747E4,1.01E2,1E0,2.774E3,1.924E3,3.2E1,2E0,1.471E3,2.7E1,5E1,1E0,2.96E2,1.76E2,3.28E2,1.47E2,1.1E1,1.56E2,1.1E1,1.1E1,1.8E1,4.9E1,1E0,2.7E1,2E0,2E0,8.12103E5,2E0,2E0,2E0,8.5617E4,1.4086E4,1E0,1E0,3.3E1,1E0,1.6E1,4.74E2,1E0,1E0,2.27E2,5.71E2,1.65E2,9.4E1,2.65E2,1.07E2,1.2683E4,4.787E3,8.2E1,1.9E1,9.6E1,2.678E3,9.12E2,1.012E3,1.4E1,1.8E1,1.47E3,1E0,2.5E1,2E0,4.5E1,5E0,2.95E2,1E0,7.6E1,1E2],"tree_param":{"num_deleted":"0","num_feature":"21","num_nodes":"115","size_leaf_vector":"0"}},{"base_weights":[-3.2823113E-1,-3.1686434E-1,-7.4160254E-1,-1.6853874E0,-3.157068E-1,-5.947425E-1,-2.510249E0,-1.3547419E0,-8.217001E0,-3.1418678E-1,-7.041224E-1,-5.0125486E-1,-9.985968E-1,-1.6372006E0,-5.0795245E0,-1.105925E0,-3.1284058E0,-6.6143107E0,-1.4140769E1,-3.140324E-1,-2.5733051E0,-6.0978854E-1,-5.7640986E0,-1.2899244E0,-4.8276496E-1,-2.79404E0,-9.4144326E-1,-1.0339639E1,-1.4319286E0,-9.068281E0,-4.2277327E0,-9.273751E-1,-1.597518E0,-1.8591092E0,-3.511721E0,-7.016201E0,-5.246038E-1,-1.7220968E1,-4.2935157E0,-3.091293E-1,-3.8146758E-1,-1.8886415E0,-8.648726E0,-2.7819132E1,-5.940346E-1,-3.3995693E0,-1.8429054E1,-1.186521E0,-2.5858858E0,-4.2744377E-1,-7.193275E-1,-1.636731E0,-3.860538E0,-3.2421713E0,-9.02484E-1,-6.142419E0,-2.268815E1,-1.3332915E0,-9.923856E0,-5.3912697E0,-1.4698988E1,-3.0426898E0,-7.2156253E0,-7.830468E-1,-1.0714432E0,-1.6587435E0,-7.9243624E-1,-9.079107E-1,-2.655382E0,-4.9883957E0,-2.88035E0,-9.581908E0,-5.582507E0,-7.7171035E0,-2.098451E1,-3.0908352E-1,-8.0042095E0,-3.439216E-1,-5.946466E-1,-1.6865231E0,-3.6533682E0,-1.1470214E1,-2.0038333E0,-3.8340378E-1,-2.113639E0,-9.490477E0,-5.0121284E-1,-3.0866936E1,1.8221399E-1,-1.0235742E0,-1.4671474E0,-1.7075521E0,-3.0507517E0,-3.8365176E-1,-5.7810503E-1,-5.0882083E-1,-9.503001E-1,-1.1529367E0,-5.000123E0,-2.7535212E0,-5.0544786E0,-5.0300994E0,-2.705366E0,-6.3728523E-1,-1.286319E0,-1.4224374E1,-4.0264096E0,-3.2413063E1,-4.8599696E0,-1.3125583E0,-1.508668E1,-2.6514513E1,-5.6598682E0,-1.323104E1,-3.91063E0,-4.998141E0,-1.8699438E1,-2.8805368E0,-1.7649212E1,-1.0253872E1,-1.7630615E0],"categories":[],"categories_nodes":[],"categories_segments":[],"categories_sizes":[],"default_left":[1,1,1,1,1,1,1,1,1,1,1,1,1,1,1,1,1,1,1,1,1,1,1,1,1,1,1,1,1,1,1,1,1,1,1,1,0,1,0,1,1,1,1,0,1,1,1,1,1,1,1,1,1,1,1,1,1,1,1,1,1,1,1,0,0,0,0,0,0,0,0,0,0,0,0,0,0,0,0,0,0,0,0,0,0,0,0,0,0,0,0,0,0,0,0,0,0,0,0,0,0,0,0,0,0,0,0,0,0,0,0,0,0,0,0,0,0,0,0,0,0],"id":4,"left_children":[1,3,5,7,9,11,13,15,17,19,21,23,25,27,29,31,33,35,37,39,41,43,45,47,49,51,53,55,57,59,61,63,65,67,69,71,-1,73,-1,75,77,79,81,-1,83,85,87,89,91,93,95,97,99,101,103,105,107,109,111,113,115,117,119,-1,-1,-1,-1,-1,-1,-1,-1,-1,-1,-1,-1,-1,-1,-1,-1,-1,-1,-1,-1,-1,-1,-1,-1,-1,-1,-1,-1,-1,-1,-1,-1,-1,-1,-1,-1,-1,-1,-1,-1,-1,-1,-1,-1,-1,-1,-1,-1,-1,-1,-1,-1,-1,-1,-1,-1,-1,-1],"loss_changes":[4.411203E3,1.4469766E3,6.5245664E3,1.6561167E3,5.3878125E2,8.754238E2,4.3118975E3,3.2134998E2,2.5774512E2,3.1634375E2,1.6948153E3,2.74125E2,4.447749E2,2.555776E3,1.6196865E3,5.5308228E1,3.7259888E1,7.2188354E1,1.3838208E2,3.005547E2,2.415621E2,1.4811919E3,1.8838821E3,5.468866E1,2.4063574E2,1.5907324E2,3.7595947E2,1.5710105E3,1.1652981E3,1.6806089E3,1.4085205E3,9.079315E0,7.11438E0,1.5009659E1,4.903009E1,5.3183716E1,0E0,1.6901245E1,0E0,2.9597656E2,4.9309863E2,1.4169479E1,8.95065E1,0E0,1.1172135E3,9.83846E2,2.3204717E3,1.6834839E1,7.4482117E0,9.824341E1,1.691073E2,1.01629715E2,7.728052E1,5.3575623E1,4.224336E2,3.8736554E2,1.2294937E3,3.771316E2,9.818091E2,5.6347546E2,1.1871934E3,6.3839233E2,1.8704731E3,0E0,0E0,0E0,0E0,0E0,0E0,0E0,0E0,0E0,0E0,0E0,0E0,0E0,0E0,0E0,0E0,0E0,0E0,0E0,0E0,0E0,0E0,0E0,0E0,0E0,0E0,0E0,0E0,0E0,0E0,0E0,0E0,0E0,0E0,0E0,0E0,0E0,0E0,0E0,0E0,0E0,0E0,0E0,0E0,0E0,0E0,0E0,0E0,0E0,0E0,0E0,0E0,0E0,0E0,0E0,0E0,0E0,0E0],"parents":[2147483647,0,0,1,1,2,2,3,3,4,4,5,5,6,6,7,7,8,8,9,9,10,10,11,11,12,12,13,13,14,14,15,15,16,16,17,17,18,18,19,19,20,20,21,21,22,22,23,23,24,24,25,25,26,26,27,27,28,28,29,29,30,30,31,31,32,32,33,33,34,34,35,35,37,37,39,39,40,40,41,41,42,42,44,44,45,45,46,46,47,47,48,48,49,49,50,50,51,51,52,52,53,53,54,54,55,55,56,56,57,57,58,58,59,59,60,60,61,61,62,62],"right_children":[2,4,6,8,10,12,14,16,18,20,22,24,26,28,30,32,34,36,38,40,42,44,46,48,50,52,54,56,58,60,62,64,66,68,70,72,-1,74,-1,76,78,80,82,-1,84,86,88,90,92,94,96,98,100,102,104,106,108,110,112,114,116,118,120,-1,-1,-1,-1,-1,-1,-1,-1,-1,-1,-1,-1,-1,-1,-1,-1,-1,-1,-1,-1,-1,-1,-1,-1,-1,-1,-1,-1,-1,-1,-1,-1,-1,-1,-1,-1,-1,-1,-1,-1,-1,-1,-1,-1,-1,-1,-1,-1,-1,-1,-1,-1,-1,-1,-1,-1,-1,-1],"split_conditions":[1.9939905E0,-1.0985465E0,2.3157814E0,1.4545356E0,6.5785203E0,1.9068578E-1,-3.9752692E-1,1.5012331E-1,5.6620603E0,1.4134401E0,1.7600653E0,-1.0985465E0,-4.2264372E-1,-1.6827294E0,1.4644318E0,-2.792678E-1,6.3457656E-1,1.5731424E-2,7.8857393E0,1.3054562E0,1.8243396E0,6.578637E0,-4.5594522E-1,-4.523313E-3,3.3004403E0,3.3225088E0,-1.6827294E0,5.0231295E0,5.1586003E0,3.654498E0,7.024243E0,-4.2264372E-1,2.989746E-1,-1.7411476E0,1.1244953E0,-2.0332391E0,-5.246038E-2,4.6989536E0,-4.2935157E-1,2.0166176E2,3.8305992E-1,1.4607493E-2,8.729154E-1,-2.7819133E0,-4.851544E-1,5.3648834E0,6.553592E0,-3.7306565E-1,2.4221177E0,-2.1304867E-1,-6.896184E-1,1.1515489E0,6.247932E-1,5E-1,-5.727818E-1,6.620532E-1,2.541287E0,5.8500977E1,5E-1,1.865696E-1,3.6487597E-1,1.9628329E0,6.605598E0,-7.830468E-2,-1.0714432E-1,-1.6587435E-1,-7.924362E-2,-9.079107E-2,-2.655382E-1,-4.988396E-1,-2.88035E-1,-9.5819086E-1,-5.582507E-1,-7.7171034E-1,-2.0984511E0,-3.0908352E-2,-8.0042094E-1,-3.439216E-2,-5.946466E-2,-1.6865231E-1,-3.6533684E-1,-1.1470214E0,-2.0038334E-1,-3.834038E-2,-2.1136391E-1,-9.490477E-1,-5.0121285E-2,-3.0866935E0,1.8221399E-2,-1.02357425E-1,-1.4671473E-1,-1.7075521E-1,-3.0507517E-1,-3.8365178E-2,-5.7810504E-2,-5.0882082E-2,-9.503001E-2,-1.15293674E-1,-5.0001234E-1,-2.7535212E-1,-5.0544786E-1,-5.0301E-1,-2.705366E-1,-6.3728526E-2,-1.286319E-1,-1.4224374E0,-4.0264097E-1,-3.2413063E0,-4.8599696E-1,-1.3125584E-1,-1.5086681E0,-2.6514513E0,-5.659868E-1,-1.323104E0,-3.91063E-1,-4.998141E-1,-1.8699439E0,-2.880537E-1,-1.7649212E0,-1.0253872E0,-1.7630616E-1],"split_indices":[20,8,10,12,10,10,8,12,9,8,20,8,9,8,9,10,20,19,10,20,10,10,8,10,20,20,8,9,20,12,12,9,11,8,20,8,0,10,0,15,10,11,20,0,8,9,9,10,20,10,8,10,8,4,8,9,20,11,6,9,9,18,9,0,0,0,0,0,0,0,0,0,0,0,0,0,0,0,0,0,0,0,0,0,0,0,0,0,0,0,0,0,0,0,0,0,0,0,0,0,0,0,0,0,0,0,0,0,0,0,0,0,0,0,0,0,0,0,0,0,0],"split_type":[0,0,0,0,0,0,0,0,0,0,0,0,0,0,0,0,0,0,0,0,0,0,0,0,0,0,0,0,0,0,0,0,0,0,0,0,0,0,0,0,0,0,0,0,0,0,0,0,0,0,0,0,0,0,0,0,0,0,0,0,0,0,0,0,0,0,0,0,0,0,0,0,0,0,0,0,0,0,0,0,0,0,0,0,0,0,0,0,0,0,0,0,0,0,0,0,0,0,0,0,0,0,0,0,0,0,0,0,0,0,0,0,0,0,0,0,0,0,0,0,0],"sum_hessian":[9.38863E5,9.13739E5,2.5124E4,7.71E2,9.12968E5,2.3199E4,1.925E3,7.35E2,3.6E1,9.09411E5,3.557E3,1.884E4,4.359E3,1.438E3,4.87E2,6.46E2,8.9E1,3E1,6E0,9.0935E5,6.1E1,3.493E3,6.4E1,4.3E2,1.841E4,1.33E2,4.226E3,3.2E1,1.406E3,8.4E1,4.03E2,4.76E2,1.7E2,2.2E1,6.7E1,2.8E1,2E0,4E0,2E0,8.47719E5,6.1631E4,5.6E1,5E0,1E0,3.492E3,5.5E1,9E0,4E2,3E1,1.4923E4,3.487E3,6.5E1,6.8E1,6.9E1,4.157E3,2.5E1,7E0,1.391E3,1.5E1,5.2E1,3.2E1,2.9E2,1.13E2,2.41E2,2.35E2,1.57E2,1.3E1,1.1E1,1.1E1,1.8E1,4.9E1,8E0,2E1,2E0,2E0,8.47715E5,4E0,5.2404E4,9.227E3,5.2E1,4E0,3E0,2E0,3.068E3,4.24E2,1.7E1,3.8E1,5E0,4E0,2.56E2,1.44E2,1.2E1,1.8E1,1.1565E4,3.358E3,1.826E3,1.661E3,5.8E1,7E0,3.7E1,3.1E1,1.4E1,5.5E1,2.46E3,1.697E3,4E0,2.1E1,4E0,3E0,1.39E3,1E0,2E0,1.3E1,7E0,4.5E1,1E1,2.2E1,2.88E2,2E0,7.2E1,4.1E1],"tree_param":{"num_deleted":"0","num_feature":"21","num_nodes":"121","size_leaf_vector":"0"}},{"base_weights":[-2.954479E-1,-2.8505734E-1,-6.6381973E-1,-1.5278546E0,-2.8401086E-1,-5.2736443E-1,-2.1701314E0,-1.2785498E0,-8.886049E0,-2.8346664E-1,-1.2621927E0,-4.7436932E-1,-1.0885626E0,-1.422771E0,-4.4249916E0,-9.958844E-1,-3.0479155E0,-3.0715277E0,-1.1441617E1,-2.7706227E-1,-3.3562505E-1,-2.0840908E1,-5.8174396E-1,-1.2905422E0,-4.5593983E-1,-3.9682877E0,-9.916304E-1,-8.613341E0,-1.2432455E0,-3.8786247E0,-9.501931E0,-8.392869E-1,-1.4752928E0,-4.446631E0,-2.5108993E0,-1.0717683E0,-4.4569817E0,-3.537405E0,-1.2882705E1,-2.774334E-1,9.341206E-1,-3.3514395E-1,-1.6213886E1,-6.795755E0,-4.545773E1,-4.5159376E-1,-2.1602316E1,-1.0687112E0,-2.500531E0,-3.5305518E-1,-5.993267E-1,-3.3433928E0,-8.080852E0,-7.233931E-1,-1.3652407E0,-6.5769258E0,-3.0858027E1,-1.1383432E0,-9.316251E0,-4.555763E0,-4.7012854E-1,-7.425303E0,-4.0252884E1,-6.911588E-1,-9.638581E-1,-1.0325255E0,-1.6032084E0,-2.2245371E0,-5.265168E0,-2.1162298E0,-3.7561512E0,-2.5072646E0,-8.607803E-2,-4.2770834E0,-6.5918493E-1,-1.3756035E1,-7.6470816E-1,-2.7733046E-1,-1.693503E1,1.0719323E0,-1.6621597E1,-2.8368104E-1,-4.553311E-1,6.506742E-1,-2.4971502E1,2.0507908E0,-5.205388E1,-7.2821884E1,-1.3570181E1,-3.9202285E0,2.3645271E-1,1.1028965E0,-3.350637E1,-8.958131E-1,-1.2726165E0,-2.6245127E0,-6.7864984E-1,-3.407241E-1,-8.9668214E-1,-3.255502E-1,-8.715431E-1,-3.9257085E0,3.2788455E-1,-1.0455659E1,-6.3761896E-1,-2.8742216E0,-6.7304206E-1,-6.5125483E-1,-2.1260264E0,-1.6255417E1,-5.2448406E0,-1.1205844E0,-1.4332346E1,-6.8611994E0,-2.0941141E1,-4.199157E0,-2.1593685E1,-1.5348763E0,2.854096E0,-9.461521E0,4.690458E-1],"categories":[],"categories_nodes":[],"categories_segments":[],"categories_sizes":[],"default_left":[1,1,1,1,1,1,1,1,1,1,1,1,1,1,1,1,1,1,1,1,1,1,1,1,1,1,1,1,1,1,1,1,1,1,1,1,0,1,1,1,1,1,1,1,1,1,1,1,1,1,1,1,1,1,1,1,0,1,1,1,1,1,0,0,0,0,0,0,0,0,0,0,0,0,0,0,0,0,0,0,0,0,0,0,0,0,0,0,0,0,0,0,0,0,0,0,0,0,0,0,0,0,0,0,0,0,0,0,0,0,0,0,0,0,0,0,0,0,0,0,0],"id":5,"left_children":[1,3,5,7,9,11,13,15,17,19,21,23,25,27,29,31,33,35,37,39,41,43,45,47,49,51,53,55,57,59,61,63,65,67,69,71,-1,73,75,77,79,81,83,85,87,89,91,93,95,97,99,101,103,105,107,109,-1,111,113,115,117,119,-1,-1,-1,-1,-1,-1,-1,-1,-1,-1,-1,-1,-1,-1,-1,-1,-1,-1,-1,-1,-1,-1,-1,-1,-1,-1,-1,-1,-1,-1,-1,-1,-1,-1,-1,-1,-1,-1,-1,-1,-1,-1,-1,-1,-1,-1,-1,-1,-1,-1,-1,-1,-1,-1,-1,-1,-1,-1,-1],"loss_changes":[3.5933906E3,1.187125E3,5.2926455E3,1.397483E3,4.853125E2,7.018716E2,3.598334E3,3.690675E2,3.3634155E2,3.045E2,6.7422886E3,3.240254E2,5.646697E2,2.0650442E3,1.4388447E3,4.7034546E1,6.54505E1,2.0158325E1,1.4807007E2,3.653086E2,7.562676E2,5.5687812E3,1.333538E3,1.25092224E2,3.1115088E2,1.4259729E2,1.9663867E2,1.5637268E3,1.3189905E3,1.1103252E3,2.9578838E3,8.320221E0,7.236603E0,3.739691E1,2.9402313E1,6.8589535E0,0E0,5.696438E0,1.3764307E2,1.3873086E3,6.202439E2,6.166006E2,4.5932843E2,4.911288E3,4.247249E3,1.1679656E3,8.478065E2,1.3102936E1,1.4708099E1,8.208728E1,6.567412E2,1.2741992E2,1.3474323E2,1.2260651E2,4.4566077E2,3.9176807E2,0E0,3.4735657E2,4.271128E2,2.3518027E3,2.9107703E2,7.9209424E2,0E0,0E0,0E0,0E0,0E0,0E0,0E0,0E0,0E0,0E0,0E0,0E0,0E0,0E0,0E0,0E0,0E0,0E0,0E0,0E0,0E0,0E0,0E0,0E0,0E0,0E0,0E0,0E0,0E0,0E0,0E0,0E0,0E0,0E0,0E0,0E0,0E0,0E0,0E0,0E0,0E0,0E0,0E0,0E0,0E0,0E0,0E0,0E0,0E0,0E0,0E0,0E0,0E0,0E0,0E0,0E0,0E0,0E0,0E0],"parents":[2147483647,0,0,1,1,2,2,3,3,4,4,5,5,6,6,7,7,8,8,9,9,10,10,11,11,12,12,13,13,14,14,15,15,16,16,17,17,18,18,19,19,20,20,21,21,22,22,23,23,24,24,25,25,26,26,27,27,28,28,29,29,30,30,31,31,32,32,33,33,34,34,35,35,37,37,38,38,39,39,40,40,41,41,42,42,43,43,44,44,45,45,46,46,47,47,48,48,49,49,50,50,51,51,52,52,53,53,54,54,55,55,57,57,58,58,59,59,60,60,61,61],"right_children":[2,4,6,8,10,12,14,16,18,20,22,24,26,28,30,32,34,36,38,40,42,44,46,48,50,52,54,56,58,60,62,64,66,68,70,72,-1,74,76,78,80,82,84,86,88,90,92,94,96,98,100,102,104,106,108,110,-1,112,114,116,118,120,-1,-1,-1,-1,-1,-1,-1,-1,-1,-1,-1,-1,-1,-1,-1,-1,-1,-1,-1,-1,-1,-1,-1,-1,-1,-1,-1,-1,-1,-1,-1,-1,-1,-1,-1,-1,-1,-1,-1,-1,-1,-1,-1,-1,-1,-1,-1,-1,-1,-1,-1,-1,-1,-1,-1,-1,-1,-1,-1],"split_conditions":[1.9763358E0,-1.0985465E0,2.1187E0,2.4125276E0,1.3305895E1,7.859211E-1,-3.9752692E-1,1.5012331E-1,1.1156678E0,1.1465635E0,1.292935E1,-1.0985465E0,-2.443374E-1,-1.0985464E0,4.0707585E-1,-2.639045E-1,5E-1,4.2150393E0,1.2712665E0,1.16312275E1,8.9929214E1,8.8615644E-1,1.8968896E0,-4.523313E-3,-6.896184E-1,4.6510267E0,-1.6385376E-1,1.1877382E1,5.1586003E0,6.4867268E0,1.0431623E1,-4.5077717E-1,5E-1,3.3319405E-1,1.1907846E-2,5E-1,-4.4569817E-1,5E-1,1.9013033E0,1.1599602E1,1.3446445E2,-6.604092E-1,5.877514E0,1.2922026E1,1.0538764E0,5.9072313E0,6.5461626E0,-4.0736693E-1,1.4149015E0,4.734887E0,5E-1,4.0993166E0,1.3550218E0,-1.7411476E0,5E-1,-2.0916574E0,-3.0858028E0,5.8500977E1,5.9583206E0,1.2334396E1,1.1005934E1,3.5608475E0,-4.0252886E0,-6.911588E-2,-9.6385814E-2,-1.0325255E-1,-1.6032085E-1,-2.2245371E-1,-5.2651685E-1,-2.1162298E-1,-3.7561512E-1,-2.5072646E-1,-8.607804E-3,-4.2770836E-1,-6.59185E-2,-1.3756036E0,-7.6470815E-2,-2.7733047E-2,-1.693503E0,1.0719323E-1,-1.6621598E0,-2.8368104E-2,-4.553311E-2,6.5067425E-2,-2.4971502E0,2.0507908E-1,-5.205388E0,-7.2821884E0,-1.3570181E0,-3.9202285E-1,2.3645272E-2,1.1028965E-1,-3.3506372E0,-8.958131E-2,-1.2726165E-1,-2.6245126E-1,-6.7864984E-2,-3.407241E-2,-8.9668214E-2,-3.255502E-2,-8.7154314E-2,-3.9257085E-1,3.2788455E-2,-1.045566E0,-6.37619E-2,-2.8742215E-1,-6.730421E-2,-6.512549E-2,-2.1260265E-1,-1.6255417E0,-5.244841E-1,-1.1205844E-1,-1.4332346E0,-6.8612E-1,-2.094114E0,-4.1991574E-1,-2.1593685E0,-1.5348764E-1,2.854096E-1,-9.4615215E-1,4.690458E-2],"split_indices":[20,8,10,10,12,10,8,12,20,20,10,8,9,8,14,10,6,12,9,10,16,20,20,10,8,20,8,10,20,9,12,10,6,12,14,4,0,2,20,10,13,8,9,10,20,9,9,10,11,20,0,20,8,8,0,8,0,11,11,12,10,20,0,0,0,0,0,0,0,0,0,0,0,0,0,0,0,0,0,0,0,0,0,0,0,0,0,0,0,0,0,0,0,0,0,0,0,0,0,0,0,0,0,0,0,0,0,0,0,0,0,0,0,0,0,0,0,0,0,0,0],"split_type":[0,0,0,0,0,0,0,0,0,0,0,0,0,0,0,0,0,0,0,0,0,0,0,0,0,0,0,0,0,0,0,0,0,0,0,0,0,0,0,0,0,0,0,0,0,0,0,0,0,0,0,0,0,0,0,0,0,0,0,0,0,0,0,0,0,0,0,0,0,0,0,0,0,0,0,0,0,0,0,0,0,0,0,0,0,0,0,0,0,0,0,0,0,0,0,0,0,0,0,0,0,0,0,0,0,0,0,0,0,0,0,0,0,0,0,0,0,0,0,0,0],"sum_hessian":[9.38863E5,9.13109E5,2.5754E4,7.67E2,9.12342E5,2.3616E4,2.138E3,7.43E2,2.4E1,9.11836E5,5.06E2,2.158E4,2.036E3,1.607E3,5.31E2,6.42E2,1.01E2,8E0,1.6E1,8.12124E5,9.9712E4,1.6E1,4.9E2,4.75E2,2.1105E4,6.5E1,1.971E3,3.8E1,1.569E3,4.81E2,5E1,4.86E2,1.56E2,2.6E1,7.5E1,4E0,4E0,3E0,1.3E1,8.11876E5,2.48E2,9.971E4,2E0,1.1E1,5E0,4.88E2,2E0,4.03E2,7.2E1,1.229E4,8.815E3,5.8E1,7E0,1.149E3,8.22E2,3.6E1,2E0,1.55E3,1.9E1,4.01E2,8E1,4.8E1,2E0,2.25E2,2.61E2,3.7E1,1.19E2,8E0,1.8E1,5.9E1,1.6E1,1E0,3E0,2E0,1E0,1.2E1,1E0,8.11872E5,4E0,2.47E2,1E0,6.9818E4,2.9892E4,1E0,1E0,1E1,1E0,2E0,3E0,8E1,4.08E2,1E0,1E0,2.21E2,1.82E2,6.7E1,5E0,1.2019E4,2.71E2,4.396E3,4.419E3,5E1,8E0,5E0,2E0,2.5E1,1.124E3,4.25E2,3.97E2,3E0,3.3E1,1.549E3,1E0,1.7E1,2E0,3.94E2,7E0,6.1E1,1.9E1,3.8E1,1E1],"tree_param":{"num_deleted":"0","num_feature":"21","num_nodes":"121","size_leaf_vector":"0"}},{"base_weights":[-2.6595342E-1,-2.5701097E-1,-6.146015E-1,-1.3778477E0,-2.5604743E-1,-5.1634175E-1,-2.5738132E0,-1.1553824E0,-8.103474E0,-2.5465286E-1,-6.1185765E-1,-4.3693802E-1,-1.0887456E0,-9.955472E0,-2.1174448E0,-8.929711E-1,-2.6546032E0,-2.842712E0,-1.0411908E1,-2.5450245E-1,-2.3920171E0,-3.7423238E-1,-2.3101869E0,-3.5984325E-1,-6.057365E-1,-2.9197688E0,-9.549023E-1,-5.9042583E1,-7.459967E0,-1.4145677E1,-1.9541184E0,-7.5337064E-1,-1.2954606E0,-3.7983353E0,-2.214525E0,-1.0164583E0,-4.100423E0,-3.3070712E0,-1.16981535E1,-2.5442466E-1,-3.7844799E0,-1.6557804E0,-7.3387017E0,-2.6414309E1,-3.574845E-1,-2.823802E1,-1.2602264E0,-8.6917716E-1,-3.3150327E-1,-1.6693511E0,-5.4132056E-1,-2.129998E0,-8.389893E0,-9.161498E-1,-5.3468966E0,-5.3055058E0,-2.1608704E1,-4.796579E0,-2.280955E1,-1.1864415E0,-4.2409E0,-6.211661E-1,-8.8355476E-1,-9.050416E-1,-1.4082267E0,-4.8079176E0,-1.8833017E0,-1.8162832E0,-3.2542844E0,-2.3819013E0,-7.962218E-2,-3.9919446E0,-6.262257E-1,-1.2486247E1,-7.2647274E-1,-5.125206E-1,-2.5339493E-1,3.0122425E-2,-1.2690239E1,-1.1953056E0,-2.197376E0,-9.294391E0,-3.0594156E0,-2.921133E-1,-2.257983E0,-1.0638977E1,-3.9493454E1,-4.9706858E-2,-4.1689773E0,-6.971276E-1,-1.5772585E0,-8.8280946E-1,-3.1898615E-1,-1.5094234E0,-3.5325792E0,-5.305505E-1,-3.63004E0,-3.622471E0,-1.3150357E0,-4.403694E0,-1.4101347E1,-8.916618E-1,-7.643783E0,-1.9818162E0,-1.2274666E1,-2.9379065E0,-8.830981E0,-2.422262E1,-1.6556399E0,-1.2713144E1,-3.886668E-2,-3.6454933E1,-3.461779E0,-1.1373781E0,-1.3563821E1,-3.4505732E0,-1.3146528E1],"categories":[],"categories_nodes":[],"categories_segments":[],"categories_sizes":[],"default_left":[1,1,1,1,1,1,1,1,1,1,1,1,1,1,1,1,1,1,1,1,1,1,1,1,1,1,1,0,1,1,1,1,1,1,1,1,0,1,1,1,1,1,1,0,1,1,1,1,1,1,1,1,1,1,1,1,1,1,1,1,1,0,0,0,0,0,0,0,0,0,0,0,0,0,0,0,0,0,0,0,0,0,0,0,0,0,0,0,0,0,0,0,0,0,0,0,0,0,0,0,0,0,0,0,0,0,0,0,0,0,0,0,0,0,0,0,0],"id":6,"left_children":[1,3,5,7,9,11,13,15,17,19,21,23,25,27,29,31,33,35,37,39,41,43,45,47,49,51,53,-1,55,57,59,61,63,65,67,69,-1,71,73,75,77,79,81,-1,83,85,87,89,91,93,95,97,99,101,103,105,107,109,111,113,115,-1,-1,-1,-1,-1,-1,-1,-1,-1,-1,-1,-1,-1,-1,-1,-1,-1,-1,-1,-1,-1,-1,-1,-1,-1,-1,-1,-1,-1,-1,-1,-1,-1,-1,-1,-1,-1,-1,-1,-1,-1,-1,-1,-1,-1,-1,-1,-1,-1,-1,-1,-1,-1,-1,-1,-1],"loss_changes":[2.9270156E3,9.8821484E2,4.518459E3,1.1666647E3,4.5366797E2,1.0157178E3,3.7552969E3,2.974098E2,2.74005E2,2.9233203E2,1.439866E3,2.5531445E2,6.645376E2,7.5218574E3,2.0488623E3,3.554608E1,4.8464966E1,1.6504189E1,1.1666907E2,2.4915234E2,2.2093231E2,1.3569094E3,1.1888176E4,1.9431836E2,4.207981E2,7.813561E2,4.272412E2,0E0,1.8057778E3,1.0245837E3,1.8277207E3,7.798462E0,6.0338135E0,4.8946777E1,2.8871674E1,6.20633E0,0E0,4.8442993E0,1.1198291E2,2.4197266E2,6.798208E2,1.158876E1,3.8516205E1,0E0,3.8845337E2,2.9472725E3,1.4856967E3,8.539624E1,8.7861694E1,9.925946E1,1.9118176E2,1.9349475E2,4.6154272E2,4.0801514E2,4.8854895E2,4.4148267E2,3.771416E2,3.008238E2,1.7218552E3,4.6007104E2,1.798686E3,0E0,0E0,0E0,0E0,0E0,0E0,0E0,0E0,0E0,0E0,0E0,0E0,0E0,0E0,0E0,0E0,0E0,0E0,0E0,0E0,0E0,0E0,0E0,0E0,0E0,0E0,0E0,0E0,0E0,0E0,0E0,0E0,0E0,0E0,0E0,0E0,0E0,0E0,0E0,0E0,0E0,0E0,0E0,0E0,0E0,0E0,0E0,0E0,0E0,0E0,0E0,0E0,0E0,0E0,0E0,0E0],"parents":[2147483647,0,0,1,1,2,2,3,3,4,4,5,5,6,6,7,7,8,8,9,9,10,10,11,11,12,12,13,13,14,14,15,15,16,16,17,17,18,18,19,19,20,20,21,21,22,22,23,23,24,24,25,25,26,26,28,28,29,29,30,30,31,31,32,32,33,33,34,34,35,35,37,37,38,38,39,39,40,40,41,41,42,42,44,44,45,45,46,46,47,47,48,48,49,49,50,50,51,51,52,52,53,53,54,54,55,55,56,56,57,57,58,58,59,59,60,60],"right_children":[2,4,6,8,10,12,14,16,18,20,22,24,26,28,30,32,34,36,38,40,42,44,46,48,50,52,54,-1,56,58,60,62,64,66,68,70,-1,72,74,76,78,80,82,-1,84,86,88,90,92,94,96,98,100,102,104,106,108,110,112,114,116,-1,-1,-1,-1,-1,-1,-1,-1,-1,-1,-1,-1,-1,-1,-1,-1,-1,-1,-1,-1,-1,-1,-1,-1,-1,-1,-1,-1,-1,-1,-1,-1,-1,-1,-1,-1,-1,-1,-1,-1,-1,-1,-1,-1,-1,-1,-1,-1,-1,-1,-1,-1,-1,-1,-1,-1],"split_conditions":[2.0469546E0,-1.0985465E0,3.5919557E0,2.4125276E0,6.5785203E0,8.2276356E-1,1.3307021E0,1.2229196E-1,1.1156678E0,1.4134401E0,-4.851544E-1,-2.1304867E-1,8.263263E-3,2.055782E0,-1.6827294E0,-2.792678E-1,5E-1,4.2150393E0,1.2712665E0,9.062793E1,1.1673236E0,6.578637E0,1.3550218E0,-6.752444E-1,-5.4151464E-1,2.0518527E0,4.402769E0,-5.9042583E0,4.995294E0,4.7556696E0,-4.2673606E-1,-4.2264372E-1,5E-1,1.2966287E0,1.1907846E-2,5E-1,-4.100423E-1,5E-1,1.9013033E0,-6.901033E-1,-7.0768416E-1,-1.830937E-1,8.729154E-1,-2.6414309E0,1.6585507E0,1.3142836E0,7.228502E-1,-4.0359557E-1,-1.6243111E0,5.079154E0,1.5594858E0,-2.443374E-1,-2.3690796E-1,2.6694334E0,3.304854E0,2.9517593E0,7.616824E0,4.2034516E0,2.541287E0,4.2879196E1,3.4740586E0,-6.211661E-2,-8.8355474E-2,-9.050416E-2,-1.4082268E-1,-4.8079178E-1,-1.8833017E-1,-1.8162833E-1,-3.2542846E-1,-2.3819013E-1,-7.9622185E-3,-3.9919445E-1,-6.262257E-2,-1.2486247E0,-7.264727E-2,-5.1252063E-2,-2.5339494E-2,3.0122425E-3,-1.2690239E0,-1.1953056E-1,-2.197376E-1,-9.2943907E-1,-3.0594155E-1,-2.9211331E-2,-2.257983E-1,-1.0638977E0,-3.9493454E0,-4.970686E-3,-4.1689774E-1,-6.971276E-2,-1.5772586E-1,-8.8280946E-2,-3.1898614E-2,-1.5094234E-1,-3.5325792E-1,-5.3055048E-2,-3.63004E-1,-3.622471E-1,-1.3150357E-1,-4.4036943E-1,-1.4101347E0,-8.916619E-2,-7.643783E-1,-1.9818161E-1,-1.2274666E0,-2.9379067E-1,-8.830981E-1,-2.422262E0,-1.6556399E-1,-1.2713145E0,-3.886668E-3,-3.6454933E0,-3.461779E-1,-1.13737814E-1,-1.3563821E0,-3.4505734E-1,-1.3146528E0],"split_indices":[20,8,10,10,10,10,9,10,20,8,8,10,9,20,8,10,6,12,9,15,10,10,8,9,9,10,19,0,20,9,8,9,6,20,14,4,0,2,20,9,12,10,20,0,20,20,20,10,8,20,8,9,9,8,20,20,19,10,20,19,14,0,0,0,0,0,0,0,0,0,0,0,0,0,0,0,0,0,0,0,0,0,0,0,0,0,0,0,0,0,0,0,0,0,0,0,0,0,0,0,0,0,0,0,0,0,0,0,0,0,0,0,0,0,0,0,0],"split_type":[0,0,0,0,0,0,0,0,0,0,0,0,0,0,0,0,0,0,0,0,0,0,0,0,0,0,0,0,0,0,0,0,0,0,0,0,0,0,0,0,0,0,0,0,0,0,0,0,0,0,0,0,0,0,0,0,0,0,0,0,0,0,0,0,0,0,0,0,0,0,0,0,0,0,0,0,0,0,0,0,0,0,0,0,0,0,0,0,0,0,0,0,0,0,0,0,0,0,0,0,0,0,0,0,0,0,0,0,0,0,0,0,0,0,0,0,0],"sum_hessian":[9.38863E5,9.15386E5,2.3477E4,7.85E2,9.14601E5,2.2357E4,1.12E3,7.61E2,2.4E1,9.11032E5,3.569E3,1.9635E4,2.722E3,6.4E1,1.056E3,6.49E2,1.12E2,8E0,1.6E1,9.10969E5,6.3E1,3.132E3,4.37E2,1.3481E4,6.154E3,1.84E2,2.538E3,2E0,6.2E1,1.3E1,1.043E3,4.84E2,1.65E2,2.9E1,8.3E1,4E0,4E0,3E0,1.3E1,9.1095E5,1.9E1,5.6E1,7E0,1E0,3.131E3,1.6E1,4.21E2,7.09E2,1.2772E4,3.5E2,5.804E3,1.62E2,2.2E1,2.517E3,2.1E1,5.5E1,7E0,7E0,6E0,7.82E2,2.61E2,2.43E2,2.41E2,3.9E1,1.26E2,1.8E1,1.1E1,6.2E1,2.1E1,1E0,3E0,2E0,1E0,1.2E1,1E0,3.618E3,9.07332E5,1.4E1,5E0,3.2E1,2.4E1,4E0,3E0,3.028E3,1.03E2,7E0,9E0,2.98E2,1.23E2,5.72E2,1.37E2,2.82E2,1.249E4,3.24E2,2.6E1,5.785E3,1.9E1,5.6E1,1.06E2,1.4E1,8E0,2.509E3,8E0,1.5E1,6E0,3.4E1,2.1E1,6E0,1E0,2E0,5E0,3E0,3E0,7.8E2,2E0,2.41E2,2E1],"tree_param":{"num_deleted":"0","num_feature":"21","num_nodes":"117","size_leaf_vector":"0"}},{"base_weights":[-2.3939985E-1,-2.3090358E-1,-5.4061455E-1,-1.247917E0,-2.3004723E-1,-4.5788285E-1,-2.2880347E0,-9.531521E-1,-5.649533E0,-2.2955132E-1,-1.084397E0,-3.860482E-1,-9.8863155E-1,-8.9577675E0,-1.8854047E0,-7.4120915E-1,-1.88459E0,-4.589717E0,-1.1201354E1,-2.2984193E-1,8.1434834E-1,-9.461839E0,-4.5346436E-1,-1.0877513E0,-3.7016347E-1,-9.6077335E-1,-8.296376E0,-4.1116955E1,-6.773728E0,-1.3107315E1,-1.7390031E0,-5.931066E-1,-9.250579E-1,-1.8000925E0,-4.9461246E0,-5.108286E0,-1.2671167E0,-1.958693E1,-6.53927E0,-2.2979057E-1,-1.5761915E1,9.387176E-1,-9.904119E0,-5.5299153E0,-5.2180336E1,-3.3084098E-1,-2.0371666E1,-8.8256496E-1,-2.2168345E0,-2.7666333E-1,-5.0056726E-1,-2.5586154E0,-8.499234E-1,-3.4913113E0,-1.3364191E1,4.257028E-1,-5.5106407E1,-4.795971E0,-1.977131E1,-4.476321E0,-2.1098833E1,-1.0157893E0,-3.9102333E0,-6.257681E-1,-2.4672136E-1,-3.5674563E-1,-9.7587854E-1,-6.3192695E-1,-1.9805796E0,-5.3793874E0,-3.330394E-1,-2.1268818E0,-4.9783424E-1,-7.2280517E0,-1.5476811E0,-2.2903661E-1,-6.8767524E-1,6.544787E-2,-2.370832E1,1.064217E0,-1.6599538E0,9.197341E-1,-1.5775912E1,-4.901566E1,-2.8092859E0,-3.4662945E0,2.8790006E-1,1.1606508E0,-3.1718151E1,-7.4645156E-1,-1.1107963E0,-2.2659335E0,6.591478E-1,-2.6541606E-1,-7.709856E-1,-2.5619623E-1,-7.4350303E-1,-1.9657373E0,-6.9697466E0,-8.308847E-1,-8.145444E0,9.098757E-1,-4.3764887E0,-4.934149E-1,-6.5046577E0,-2.2146395E1,-1.5728579E0,-1.1865602E1,-3.5627764E-2,-3.3720814E1,-3.2021456E0,-8.5548204E-1,-4.1876683E0,-3.2266502E0,-1.1894478E1],"categories":[],"categories_nodes":[],"categories_segments":[],"categories_sizes":[],"default_left":[1,1,1,1,1,1,1,1,1,1,1,1,1,1,1,1,1,1,1,1,1,1,1,1,1,1,1,1,1,1,1,1,1,1,0,1,1,0,1,1,1,1,1,1,0,1,1,1,1,1,1,1,1,1,0,0,0,1,1,1,1,1,1,0,0,0,0,0,0,0,0,0,0,0,0,0,0,0,0,0,0,0,0,0,0,0,0,0,0,0,0,0,0,0,0,0,0,0,0,0,0,0,0,0,0,0,0,0,0,0,0,0,0,0,0],"id":7,"left_children":[1,3,5,7,9,11,13,15,17,19,21,23,25,27,29,31,33,35,37,39,41,43,45,47,49,51,53,55,57,59,61,63,65,67,-1,69,71,-1,73,75,77,79,81,83,-1,85,87,89,91,93,95,97,99,101,-1,-1,-1,103,105,107,109,111,113,-1,-1,-1,-1,-1,-1,-1,-1,-1,-1,-1,-1,-1,-1,-1,-1,-1,-1,-1,-1,-1,-1,-1,-1,-1,-1,-1,-1,-1,-1,-1,-1,-1,-1,-1,-1,-1,-1,-1,-1,-1,-1,-1,-1,-1,-1,-1,-1,-1,-1,-1,-1],"loss_changes":[2.4026133E3,7.9497266E2,3.7222754E3,9.910504E2,3.8629297E2,9.372173E2,3.1089565E3,1.4093701E2,2.3101672E2,2.768164E2,2.7917925E3,2.4104956E2,5.887239E2,4.357124E3,1.7827595E3,1.5488892E1,2.5502655E1,6.589307E1,1.4557556E2,7.236836E2,3.478913E2,5.9261836E3,1.1973816E3,1.0901459E2,2.5815332E2,5.151948E2,2.212044E2,2.3480952E3,1.5246589E3,8.712012E2,1.7013345E3,3.5677338E0,7.190048E0,2.6368286E1,0E0,4.481317E1,3.570982E0,0E0,9.441986E0,3.1453516E2,3.788636E2,8.3951706E1,2.0517596E2,4.003102E3,0E0,9.5355457E2,7.697621E2,1.1814453E1,1.1801819E1,6.8403015E1,5.2490576E2,4.8058398E2,3.7283838E2,3.1252876E1,0E0,0E0,0E0,4.0848682E2,3.1094995E2,2.6208548E2,1.4732627E3,4.1133337E2,1.4407095E3,0E0,0E0,0E0,0E0,0E0,0E0,0E0,0E0,0E0,0E0,0E0,0E0,0E0,0E0,0E0,0E0,0E0,0E0,0E0,0E0,0E0,0E0,0E0,0E0,0E0,0E0,0E0,0E0,0E0,0E0,0E0,0E0,0E0,0E0,0E0,0E0,0E0,0E0,0E0,0E0,0E0,0E0,0E0,0E0,0E0,0E0,0E0,0E0,0E0,0E0,0E0,0E0],"parents":[2147483647,0,0,1,1,2,2,3,3,4,4,5,5,6,6,7,7,8,8,9,9,10,10,11,11,12,12,13,13,14,14,15,15,16,16,17,17,18,18,19,19,20,20,21,21,22,22,23,23,24,24,25,25,26,26,27,27,28,28,29,29,30,30,31,31,32,32,33,33,35,35,36,36,38,38,39,39,40,40,41,41,42,42,43,43,45,45,46,46,47,47,48,48,49,49,50,50,51,51,52,52,53,53,57,57,58,58,59,59,60,60,61,61,62,62],"right_children":[2,4,6,8,10,12,14,16,18,20,22,24,26,28,30,32,34,36,38,40,42,44,46,48,50,52,54,56,58,60,62,64,66,68,-1,70,72,-1,74,76,78,80,82,84,-1,86,88,90,92,94,96,98,100,102,-1,-1,-1,104,106,108,110,112,114,-1,-1,-1,-1,-1,-1,-1,-1,-1,-1,-1,-1,-1,-1,-1,-1,-1,-1,-1,-1,-1,-1,-1,-1,-1,-1,-1,-1,-1,-1,-1,-1,-1,-1,-1,-1,-1,-1,-1,-1,-1,-1,-1,-1,-1,-1,-1,-1,-1,-1,-1,-1],"split_conditions":[1.9763358E0,-1.0985465E0,3.5919557E0,1.1501663E0,1.3085647E1,8.2276356E-1,1.3307021E0,-7.945542E-2,5.6620603E0,1.1774048E1,1.292935E1,-1.0985465E0,2.6694334E0,2.055782E0,-1.6827294E0,-3.8760957E-1,-1.5366836E0,8.0889183E-1,6.1821203E0,8.9929214E1,1.3446445E2,1.2922026E1,1.8968896E0,1.4986334E-2,-6.896184E-1,8.263263E-3,2.2204456E0,8.500914E0,4.995294E0,4.7556696E0,-4.2673606E-1,4.0295237E-1,-3.630309E-2,2.329315E-1,-4.9461246E-1,5.060276E0,-2.0332391E0,-1.9586929E0,-1.7703568E0,7.8920054E0,4.287616E0,4.8753937E1,6.286133E0,3.6784022E0,-5.218034E0,5.9072313E0,6.5461626E0,-3.7306565E-1,3.6663895E0,4.734887E0,5E-1,2.0518527E0,1.2619793E1,9.959186E-1,-1.3364191E0,4.257028E-2,-5.5106406E0,3.3515823E-1,7.616824E0,4.2034516E0,2.541287E0,9.639285E0,3.4740586E0,-6.2576815E-2,-2.4672136E-2,-3.5674565E-2,-9.758785E-2,-6.3192695E-2,-1.9805796E-1,-5.379388E-1,-3.3303943E-2,-2.126882E-1,-4.9783424E-2,-7.228052E-1,-1.5476811E-1,-2.2903662E-2,-6.8767525E-2,6.544787E-3,-2.3708322E0,1.064217E-1,-1.6599539E-1,9.197342E-2,-1.5775913E0,-4.901566E0,-2.8092858E-1,-3.4662947E-1,2.8790006E-2,1.16065085E-1,-3.1718152E0,-7.4645154E-2,-1.1107963E-1,-2.2659336E-1,6.591478E-2,-2.6541606E-2,-7.709856E-2,-2.5619624E-2,-7.4350305E-2,-1.9657373E-1,-6.969747E-1,-8.308847E-2,-8.145444E-1,9.098757E-2,-4.3764886E-1,-4.9341492E-2,-6.504658E-1,-2.2146394E0,-1.572858E-1,-1.1865602E0,-3.5627764E-3,-3.3720815E0,-3.2021457E-1,-8.554821E-2,-4.1876683E-1,-3.2266504E-1,-1.1894478E0],"split_indices":[20,8,10,12,12,10,9,12,9,10,10,8,8,20,8,10,8,11,9,16,13,10,20,10,8,9,10,10,20,9,8,18,20,20,0,9,8,0,8,12,9,16,9,9,0,9,9,10,11,20,0,10,19,10,0,0,0,9,19,10,20,11,14,0,0,0,0,0,0,0,0,0,0,0,0,0,0,0,0,0,0,0,0,0,0,0,0,0,0,0,0,0,0,0,0,0,0,0,0,0,0,0,0,0,0,0,0,0,0,0,0,0,0,0,0],"split_type":[0,0,0,0,0,0,0,0,0,0,0,0,0,0,0,0,0,0,0,0,0,0,0,0,0,0,0,0,0,0,0,0,0,0,0,0,0,0,0,0,0,0,0,0,0,0,0,0,0,0,0,0,0,0,0,0,0,0,0,0,0,0,0,0,0,0,0,0,0,0,0,0,0,0,0,0,0,0,0,0,0,0,0,0,0,0,0,0,0,0,0,0,0,0,0,0,0,0,0,0,0,0,0,0,0,0,0,0,0,0,0,0,0,0,0],"sum_hessian":[9.38863E5,9.13109E5,2.5754E4,7.67E2,9.12342E5,2.4591E4,1.163E3,7.2E2,4.7E1,9.11814E5,5.28E2,2.1661E4,2.93E3,6.5E1,1.098E3,5.88E2,1.32E2,4.1E1,6E0,9.11561E5,2.53E2,3.6E1,4.92E2,4.78E2,2.1183E4,2.92E3,1E1,3E0,6.2E1,1.3E1,1.085E3,3.28E2,2.6E2,1.3E2,2E0,3.5E1,6E0,1E0,5E0,9.11559E5,2E0,2.51E2,2E0,3.4E1,2E0,4.9E2,2E0,4.06E2,7.2E1,1.2339E4,8.844E3,1.88E2,2.732E3,6E0,4E0,1E0,2E0,5.5E1,7E0,7E0,6E0,8.15E2,2.7E2,2.99E2,2.9E1,2.2E1,2.38E2,1.8E1,1.12E2,3.3E1,2E0,2E0,4E0,4E0,1E0,9.10062E5,1.497E3,1E0,1E0,2.4E2,1.1E1,1E0,1E0,1E0,3.3E1,8E1,4.1E2,1E0,1E0,2.57E2,1.49E2,7.1E1,1E0,1.2066E4,2.73E2,4.41E3,4.434E3,1.67E2,2.1E1,2.726E3,6E0,1E0,5E0,1.6E1,3.9E1,6E0,1E0,2E0,5E0,3E0,3E0,7.77E2,3.8E1,2.5E2,2E1],"tree_param":{"num_deleted":"0","num_feature":"21","num_nodes":"115","size_leaf_vector":"0"}},{"base_weights":[-2.1550447E-1,-2.0605811E-1,-4.38398E-1,-1.0770317E0,-2.0539983E-1,-3.4831935E-1,-1.7072297E0,-8.4289736E-1,-4.8021097E0,-2.0473616E-1,-7.1552056E-1,-2.8368914E-1,-5.6913555E-1,-1.1009417E0,-3.739165E0,-6.1808836E-1,-1.5378608E0,-3.0932755E0,-9.619285E0,-2.0466377E-1,-3.447574E0,-2.4656641E1,-6.5336215E-1,-8.788634E-1,-2.7147603E-1,-1.6436003E0,-5.290116E-1,-7.345483E0,-9.5628476E-1,-4.4564004E0,-1.144416E-1,-4.7671345E-1,-6.906052E-1,-1.2973626E0,-2.1807857E0,-7.181174E0,-2.2216916E0,-3.4913878E0,-1.3122651E1,-2.045423E-1,-2.0516748E0,4.868774E-2,-1.1613632E1,-1.764197E-1,-3.2505379E0,-7.194945E-1,-1.9528872E0,-7.797116E-1,-2.630532E-1,-1.1696893E0,-2.7541604E0,-2.2347407E0,-5.0561005E-1,-5.8210177E0,-2.6239502E1,-9.275923E-1,-1.8857262E1,-4.0930347E0,-2.3219616E1,-1.1742313E0,3.158012E0,-4.9857336E-1,-8.146955E-2,-6.0529345E-1,-8.7138516E-1,-1.3901134E0,1.0397254E0,-5.887142E-1,-2.898936E0,-8.892406E0,-3.0762165E0,7.8630155E-1,-2.4937832E0,-1.6117592E-1,-4.283647E0,-2.3618536E0,-1.480244E1,-5.2358586E-1,-2.038455E-1,-1.433995E0,-7.2688484E0,-1.0665377E-1,5.0254035E-1,-1.6022779E0,3.791339E-2,-2.097188E1,-2.7315702E0,-5.211505E-1,-9.3626934E-1,-1.5550985E0,-2.4753706E0,-5.984021E-1,-1.0407361E0,-2.3027189E-1,-3.616294E-1,-9.653385E-1,-2.6024017E0,-1.5951302E0,-4.6601763E0,-3.2558823E0,-1.8574551E0,-3.382571E-1,-7.533388E-1,-2.1866274E0,-7.5601187E0,-8.4895015E-1,-5.654251E0,-3.6954079E0,-1.2551246E1,-3.9223385E1,-2.571925E0,1.3264826E-1,-1.9235699E1],"categories":[],"categories_nodes":[],"categories_segments":[],"categories_sizes":[],"default_left":[1,1,1,1,1,1,1,1,1,1,1,1,1,1,1,1,1,1,1,1,1,0,1,1,1,1,1,1,1,1,1,1,1,1,1,1,1,1,1,1,1,1,0,1,1,1,1,1,1,1,1,1,1,1,0,1,0,1,1,1,0,0,0,0,0,0,0,0,0,0,0,0,0,0,0,0,0,0,0,0,0,0,0,0,0,0,0,0,0,0,0,0,0,0,0,0,0,0,0,0,0,0,0,0,0,0,0,0,0,0,0,0,0],"id":8,"left_children":[1,3,5,7,9,11,13,15,17,19,21,23,25,27,29,31,33,35,37,39,41,-1,43,45,47,49,51,53,55,57,59,61,63,65,67,69,71,73,75,77,79,81,-1,83,85,87,89,91,93,95,97,99,101,103,-1,105,-1,107,109,111,-1,-1,-1,-1,-1,-1,-1,-1,-1,-1,-1,-1,-1,-1,-1,-1,-1,-1,-1,-1,-1,-1,-1,-1,-1,-1,-1,-1,-1,-1,-1,-1,-1,-1,-1,-1,-1,-1,-1,-1,-1,-1,-1,-1,-1,-1,-1,-1,-1,-1,-1,-1,-1],"loss_changes":[1.9767188E3,5.161953E2,4.3621455E3,5.8902716E2,3.045547E2,5.084995E2,3.112687E3,9.9195526E1,2.9951495E2,2.1028125E2,1.7235286E3,2.0019482E2,3.4699902E2,1.7544424E3,1.5099609E3,4.6532745E0,2.1291779E1,9.449698E1,1.6886652E2,2.012461E2,5.7157904E2,0E0,1.4449932E3,9.342084E1,1.15465576E2,1.4940735E2,3.0942236E2,1.1146035E3,9.6198865E2,3.2116455E3,3.4011517E2,1.4108963E0,4.392395E0,2.659024E1,4.5170578E1,7.7677E0,2.4059006E1,1.2501526E1,7.349402E1,1.9969531E2,1.797066E2,1.1111302E0,0E0,3.0169644E2,1.607335E3,2.0322144E1,1.0907074E1,2.0200775E1,8.581543E1,5.7506866E1,1.8255157E2,3.4404907E1,3.179779E2,2.4893298E2,0E0,7.0331604E2,0E0,1.5578701E3,2.8730889E3,1.7492599E3,0E0,0E0,0E0,0E0,0E0,0E0,0E0,0E0,0E0,0E0,0E0,0E0,0E0,0E0,0E0,0E0,0E0,0E0,0E0,0E0,0E0,0E0,0E0,0E0,0E0,0E0,0E0,0E0,0E0,0E0,0E0,0E0,0E0,0E0,0E0,0E0,0E0,0E0,0E0,0E0,0E0,0E0,0E0,0E0,0E0,0E0,0E0,0E0,0E0,0E0,0E0,0E0,0E0],"parents":[2147483647,0,0,1,1,2,2,3,3,4,4,5,5,6,6,7,7,8,8,9,9,10,10,11,11,12,12,13,13,14,14,15,15,16,16,17,17,18,18,19,19,20,20,22,22,23,23,24,24,25,25,26,26,27,27,28,28,29,29,30,30,31,31,32,32,33,33,34,34,35,35,36,36,37,37,38,38,39,39,40,40,41,41,43,43,44,44,45,45,46,46,47,47,48,48,49,49,50,50,51,51,52,52,53,53,55,55,57,57,58,58,59,59],"right_children":[2,4,6,8,10,12,14,16,18,20,22,24,26,28,30,32,34,36,38,40,42,-1,44,46,48,50,52,54,56,58,60,62,64,66,68,70,72,74,76,78,80,82,-1,84,86,88,90,92,94,96,98,100,102,104,-1,106,-1,108,110,112,-1,-1,-1,-1,-1,-1,-1,-1,-1,-1,-1,-1,-1,-1,-1,-1,-1,-1,-1,-1,-1,-1,-1,-1,-1,-1,-1,-1,-1,-1,-1,-1,-1,-1,-1,-1,-1,-1,-1,-1,-1,-1,-1,-1,-1,-1,-1,-1,-1,-1,-1,-1,-1],"split_conditions":[1.7291696E0,-1.0985465E0,2.2048252E0,1.052233E0,9.997289E0,6.557361E-3,-3.9752692E-1,-1.5329236E-1,3.8641381E0,9.062793E1,9.649912E0,-6.901033E-1,-4.3750262E-1,-1.0985464E0,6.57588E0,-4.7230643E-1,4.3460882E-1,8.338317E-4,1.252492E0,1.4134401E0,-7.0768416E-1,-2.4656641E0,1.2171826E0,-3.1585556E-1,-1.6243111E0,3.1541145E-1,-9.8170984E-1,1.1877382E1,5.258746E1,1.2327547E1,1.0691936E1,1.6428131E-1,-1.8490195E-1,3.913455E-1,6.6547227E-1,-1.828775E0,4.243114E-1,3.694823E0,5E-1,-7.0496213E-1,1.8243396E0,2.125259E0,-1.1613632E0,4.6145105E0,2.9354591E0,-6.896184E-1,3.9271832E0,-3.735095E-1,-2.8156483E-1,4.756955E0,9.9028535E-2,5E-1,-5.727818E-1,3.2271533E0,-2.6239502E0,4.845229E0,-1.8857262E0,8.5980425E0,1.3397152E1,9.25573E0,3.158012E-1,-4.9857337E-2,-8.146956E-3,-6.0529348E-2,-8.713852E-2,-1.3901134E-1,1.0397255E-1,-5.887142E-2,-2.898936E-1,-8.892407E-1,-3.0762166E-1,7.863016E-2,-2.4937832E-1,-1.6117593E-2,-4.2836472E-1,-2.3618536E-1,-1.480244E0,-5.2358586E-2,-2.038455E-2,-1.433995E-1,-7.2688484E-1,-1.0665378E-2,5.0254036E-2,-1.6022779E-1,3.791339E-3,-2.097188E0,-2.7315703E-1,-5.2115053E-2,-9.362694E-2,-1.5550986E-1,-2.4753706E-1,-5.984021E-2,-1.0407361E-1,-2.302719E-2,-3.616294E-2,-9.653386E-2,-2.6024017E-1,-1.5951303E-1,-4.6601763E-1,-3.2558823E-1,-1.8574552E-1,-3.382571E-2,-7.5333886E-2,-2.1866274E-1,-7.560119E-1,-8.4895015E-2,-5.654251E-1,-3.6954078E-1,-1.2551246E0,-3.9223385E0,-2.571925E-1,1.32648265E-2,-1.9235699E0],"split_indices":[20,8,10,12,12,10,8,10,9,15,10,9,9,8,9,12,10,9,20,8,12,0,20,10,8,12,8,10,11,12,10,9,9,10,20,8,9,10,6,9,10,10,0,9,9,8,20,10,10,20,8,4,8,10,0,20,0,14,12,10,0,0,0,0,0,0,0,0,0,0,0,0,0,0,0,0,0,0,0,0,0,0,0,0,0,0,0,0,0,0,0,0,0,0,0,0,0,0,0,0,0,0,0,0,0,0,0,0,0,0,0,0,0],"split_type":[0,0,0,0,0,0,0,0,0,0,0,0,0,0,0,0,0,0,0,0,0,0,0,0,0,0,0,0,0,0,0,0,0,0,0,0,0,0,0,0,0,0,0,0,0,0,0,0,0,0,0,0,0,0,0,0,0,0,0,0,0,0,0,0,0,0,0,0,0,0,0,0,0,0,0,0,0,0,0,0,0,0,0,0,0,0,0,0,0,0,0,0,0,0,0,0,0,0,0,0,0,0,0,0,0,0,0,0,0,0,0,0,0],"sum_hessian":[9.38863E5,9.00693E5,3.817E4,6.79E2,9.00014E5,3.5641E4,2.529E3,6.4E2,3.9E1,8.98846E5,1.168E3,2.7573E4,8.068E3,1.949E3,5.8E2,4.85E2,1.55E2,3E1,9E0,8.98827E5,1.9E1,2E0,1.166E3,5.53E2,2.702E4,2.89E2,7.779E3,4.3E1,1.906E3,4.84E2,9.6E1,1.67E2,3.18E2,1.15E2,4E1,4E0,2.6E1,4E0,5E0,8.98769E5,5.8E1,1.4E1,5E0,9.86E2,1.8E2,4.83E2,7E1,4.39E2,2.6581E4,2.04E2,8.5E1,1.04E2,7.675E3,4.1E1,2E0,1.904E3,2E0,4.76E2,8E0,7.3E1,2.3E1,1.58E2,9E0,2.19E2,9.9E1,1.11E2,4E0,1.3E1,2.7E1,2E0,2E0,2E0,2.4E1,1E0,3E0,1E0,4E0,1.957E3,8.96812E5,5.3E1,5E0,1.1E1,3E0,1.28E2,8.58E2,4E0,1.76E2,2.54E2,2.29E2,4.2E1,2.8E1,2.61E2,1.78E2,1.995E4,6.631E3,1.8E2,2.4E1,5.4E1,3.1E1,2.6E1,7.8E1,4.582E3,3.093E3,1.4E1,2.7E1,1.874E3,3E1,4.56E2,2E1,4E0,4E0,6.9E1,4E0],"tree_param":{"num_deleted":"0","num_feature":"21","num_nodes":"113","size_leaf_vector":"0"}},{"base_weights":[-1.9398287E-1,-1.8808202E-1,-4.880228E-1,-1.0717776E0,-1.8727362E-1,-4.3038356E-1,-2.4927208E0,-8.456555E-1,-9.861035E0,-1.8672577E-1,-1.1073775E0,-3.4360847E-1,-9.381517E-1,-6.5145607E0,-1.7507532E0,-6.7392313E-1,-2.1509585E0,-7.434139E0,-2.9199478E1,-1.8304825E-1,-2.6766002E-1,-9.3577945E-1,-4.739996E1,-3.376955E-1,-2.1445677E0,-8.996098E-1,-9.997815E0,-5.2635484E0,-2.1066458E1,-2.0893536E1,-1.6589267E0,-5.394263E-1,-9.875357E-1,-2.8492556E0,-1.0285326E0,-1.0231473E1,-1.9592031E0,-1.8301933E-1,-8.600481E0,-2.3464069E-1,-1.0030501E0,-8.389342E0,-3.774864E-1,-9.5694286E-1,-3.2146215E-1,-1.5976175E0,-4.816354E0,-8.060796E-1,-3.394459E0,-2.5199747E0,-1.3910871E1,-2.968907E1,-4.53227E0,6.563022E-1,-3.209191E1,-2.308968E0,2.8854966E-1,-4.3085623E-1,-6.501728E-1,-9.3888366E-1,-2.5419853E0,-8.3662045E-1,-3.251125E0,-1.7632852E0,7.103717E-1,-4.759822E0,-1.5821763E1,-3.0042539E0,7.839663E-1,-1.8329978E-1,8.4045684E-1,2.0762022E0,-1.4976924E1,-2.0490353E-1,-4.0467986E-1,-4.3390474E-1,-4.911976E0,-4.855096E0,-4.800385E1,-7.945824E0,-5.1693827E-2,-7.7406543E-1,-2.3077204E0,-2.3287165E-1,-4.494462E-1,-9.227859E-1,-2.3275347E0,-5.2790036E0,-7.889025E-1,-7.936892E-1,-1.59902E1,-2.1472526E0,-8.917262E0,-3.600993E0,9.020488E-1,-3.2392504E0,-1.6445566E1,1.4931701E0,-5.087168E-1,-2.012181E0,-3.369124E1,-4.841953E0,2.015845E0],"categories":[],"categories_nodes":[],"categories_segments":[],"categories_sizes":[],"default_left":[1,1,1,1,1,1,1,1,1,1,1,1,1,1,1,1,1,1,0,1,1,1,0,1,1,1,1,1,1,0,1,1,1,1,1,1,1,1,1,1,1,1,1,1,1,1,1,1,1,1,0,0,1,1,0,1,1,0,0,0,0,0,0,0,0,0,0,0,0,0,0,0,0,0,0,0,0,0,0,0,0,0,0,0,0,0,0,0,0,0,0,0,0,0,0,0,0,0,0,0,0,0,0],"id":9,"left_children":[1,3,5,7,9,11,13,15,17,19,21,23,25,27,29,31,33,35,-1,37,39,41,-1,43,45,47,49,51,53,-1,55,57,59,61,63,65,67,69,71,73,75,77,79,81,83,85,87,89,91,93,-1,-1,95,97,-1,99,101,-1,-1,-1,-1,-1,-1,-1,-1,-1,-1,-1,-1,-1,-1,-1,-1,-1,-1,-1,-1,-1,-1,-1,-1,-1,-1,-1,-1,-1,-1,-1,-1,-1,-1,-1,-1,-1,-1,-1,-1,-1,-1,-1,-1,-1,-1],"loss_changes":[1.628918E3,6.5731836E2,2.1331216E3,1.6631019E3,4.6332617E2,7.9080444E2,1.5283777E3,1.8258813E2,7.685072E2,2.7348047E2,4.3008574E3,1.6258911E2,9.058496E2,1.3454844E3,7.3350354E2,3.013205E1,7.1529175E1,2.8625903E2,0E0,2.1252734E2,9.6961597E2,2.2688877E3,0E0,1.5336414E2,6.5371994E1,6.062908E2,2.868181E2,1.2050801E3,1.4580818E3,0E0,5.526161E2,5.8640137E0,1.4024475E1,4.4191376E1,4.9803837E1,3.2233667E2,2.5289246E1,2.5248438E2,2.353329E2,1.9320605E2,3.8155342E3,5.087218E3,1.2546348E3,9.455411E1,1.6881128E2,1.9032738E1,1.0741791E1,4.6085144E2,6.283314E2,2.174462E1,0E0,0E0,1.0866339E3,3.6845021E0,0E0,2.9778362E3,9.84569E2,0E0,0E0,0E0,0E0,0E0,0E0,0E0,0E0,0E0,0E0,0E0,0E0,0E0,0E0,0E0,0E0,0E0,0E0,0E0,0E0,0E0,0E0,0E0,0E0,0E0,0E0,0E0,0E0,0E0,0E0,0E0,0E0,0E0,0E0,0E0,0E0,0E0,0E0,0E0,0E0,0E0,0E0,0E0,0E0,0E0,0E0],"parents":[2147483647,0,0,1,1,2,2,3,3,4,4,5,5,6,6,7,7,8,8,9,9,10,10,11,11,12,12,13,13,14,14,15,15,16,16,17,17,19,19,20,20,21,21,23,23,24,24,25,25,26,26,27,27,28,28,30,30,31,31,32,32,33,33,34,34,35,35,36,36,37,37,38,38,39,39,40,40,41,41,42,42,43,43,44,44,45,45,46,46,47,47,48,48,49,49,52,52,53,53,55,55,56,56],"right_children":[2,4,6,8,10,12,14,16,18,20,22,24,26,28,30,32,34,36,-1,38,40,42,-1,44,46,48,50,52,54,-1,56,58,60,62,64,66,68,70,72,74,76,78,80,82,84,86,88,90,92,94,-1,-1,96,98,-1,100,102,-1,-1,-1,-1,-1,-1,-1,-1,-1,-1,-1,-1,-1,-1,-1,-1,-1,-1,-1,-1,-1,-1,-1,-1,-1,-1,-1,-1,-1,-1,-1,-1,-1,-1,-1,-1,-1,-1,-1,-1,-1,-1,-1,-1,-1,-1],"split_conditions":[2.2411566E0,-1.0985465E0,5.655164E0,3.3892083E0,1.3085647E1,8.3631337E-1,2.9503179E0,3.286222E-1,1.1489753E1,1.4908309E0,4.8529053E-1,1.4134401E0,2.6694334E0,1.2233021E1,-2.0332391E0,-2.792678E-1,1.3495929E0,5.5264177E0,-2.9199479E0,1.7302179E2,2.13379E0,1.292935E1,-4.739996E0,-1.6827294E0,1.6436206E-1,4.924675E0,2.2204456E0,2.2720525E0,1.9027681E0,-2.0893536E0,3.485815E0,-4.2264372E-1,5.503131E0,2.329315E-1,2.7720118E0,-1.9164025E0,5E-1,1.1774048E1,5E-1,1.9466321E-1,-5.143635E-1,1.2922026E1,2.9354591E0,1.1418927E-1,-6.896184E-1,-2.9196808E-1,7.007949E-1,2.3934864E1,3.5629354E0,3.837799E0,-1.391087E0,-2.968907E0,5.1850824E0,3.327017E-1,-3.209191E0,3.4725738E0,5E-1,-4.3085624E-2,-6.501728E-2,-9.3888365E-2,-2.5419852E-1,-8.366205E-2,-3.2511252E-1,-1.7632852E-1,7.1037166E-2,-4.759822E-1,-1.5821763E0,-3.0042538E-1,7.839663E-2,-1.8329978E-2,8.4045686E-2,2.0762022E-1,-1.4976925E0,-2.0490354E-2,-4.046799E-2,-4.3390475E-2,-4.911976E-1,-4.855096E-1,-4.800385E0,-7.945824E-1,-5.169383E-3,-7.740655E-2,-2.3077205E-1,-2.3287166E-2,-4.494462E-2,-9.227859E-2,-2.3275347E-1,-5.279004E-1,-7.889026E-2,-7.936892E-2,-1.59902E0,-2.1472526E-1,-8.917262E-1,-3.600993E-1,9.020489E-2,-3.2392505E-1,-1.6445566E0,1.4931701E-1,-5.087168E-2,-2.0121811E-1,-3.369124E0,-4.841953E-1,2.015845E-1],"split_indices":[20,8,10,10,12,12,9,12,12,20,11,8,8,10,8,10,20,12,0,13,10,10,0,8,10,20,10,20,9,0,20,9,15,20,9,8,2,10,6,10,8,10,9,10,8,10,10,14,12,8,0,0,20,8,0,20,6,0,0,0,0,0,0,0,0,0,0,0,0,0,0,0,0,0,0,0,0,0,0,0,0,0,0,0,0,0,0,0,0,0,0,0,0,0,0,0,0,0,0,0,0,0,0],"split_type":[0,0,0,0,0,0,0,0,0,0,0,0,0,0,0,0,0,0,0,0,0,0,0,0,0,0,0,0,0,0,0,0,0,0,0,0,0,0,0,0,0,0,0,0,0,0,0,0,0,0,0,0,0,0,0,0,0,0,0,0,0,0,0,0,0,0,0,0,0,0,0,0,0,0,0,0,0,0,0,0,0,0,0,0,0,0,0,0,0,0,0,0,0,0,0,0,0,0,0,0,0,0,0],"sum_hessian":[9.38863E5,9.20394E5,1.8469E4,8.4E2,9.19554E5,1.7954E4,5.15E2,8.2E2,2E1,9.19008E5,5.46E2,1.5335E4,2.619E3,7.9E1,4.36E2,7.26E2,9.4E1,1.9E1,1E0,8.79068E5,3.994E4,5.45E2,1E0,1.5286E4,4.9E1,2.609E3,1E1,7.4E1,5E0,1E0,4.35E2,5.1E2,2.16E2,5.7E1,3.7E1,1.2E1,7E0,8.79066E5,2E0,3.8225E4,1.715E3,3.7E1,5.08E2,3.89E2,1.4897E4,4.2E1,7E0,2.516E3,9.3E1,4E0,6E0,1E0,7.3E1,2E0,3E0,3.26E2,1.09E2,2.6E2,2.5E2,2.11E2,5E0,1E1,4.7E1,2.6E1,1.1E1,7E0,5E0,5E0,2E0,8.78826E5,2.4E2,1E0,1E0,3.2537E4,5.688E3,1.498E3,2.17E2,3.5E1,2E0,2E1,4.88E2,3.44E2,4.5E1,8.805E3,6.092E3,2.3E1,1.9E1,6E0,1E0,2.515E3,1E0,7.7E1,1.6E1,3E0,1E0,6.7E1,6E0,1E0,1E0,3.24E2,2E0,2.7E1,8.2E1],"tree_param":{"num_deleted":"0","num_feature":"21","num_nodes":"103","size_leaf_vector":"0"}},{"base_weights":[-1.7462565E-1,-1.6929427E-1,-4.4028953E-1,-9.7193676E-1,-1.6856001E-1,-3.876657E-1,-2.2705622E0,-9.070474E-1,-2.7739504E1,-1.6805516E-1,-1.0164307E0,-3.0867323E-1,-8.4396976E-1,-5.9637065E0,-1.5892758E0,-7.6227176E-1,-6.804734E0,-1.621891E-1,-2.1261758E-1,-8.5334736E-1,-4.502996E1,-6.030099E-1,-2.752998E-1,-8.0903244E-1,-9.149032E0,-4.8030252E0,-1.947827E1,-1.9848858E1,-1.5018711E0,-6.071583E-1,-1.941274E0,-9.366646E0,-1.7910364E0,-1.6215932E-1,-8.170457E0,-2.1221332E-1,-1.4546423E1,-7.6895103E0,-3.41309E-1,-4.5236447E-1,-1.6661118E0,-1.9418834E-1,-4.1495416E-1,-1.839554E0,-6.2789506E-1,-2.3219562E0,-1.271851E1,-2.8204617E1,-4.105644E0,6.234872E-1,-2.968502E1,-8.4568745E-1,-3.3047426E0,-4.8569524E-1,-8.903862E-1,-3.4171872E0,-1.4496676E0,-4.3433375E0,-1.4503283E1,-2.7538993E0,7.317018E-1,-1.6243552E-1,8.0095017E-1,1.9723921E0,-1.4228078E1,-1.6671877E-1,-3.145966E-1,6.8391335E-1,-2.2503548E1,-4.601209E1,-4.282365E0,-7.1890793E0,-4.6535E-2,-3.5092655E-1,-7.883103E-1,-1.5415707E0,-4.3534293E0,-7.017665E-1,-1.8670739E-1,-4.047567E-1,-3.0943704E0,-1.1455159E0,-6.0965242E0,-6.09221E-1,-1.0942416E1,-3.3309183E0,8.569464E-1,-2.920089E0,-1.5035946E1,1.4185116E0,-4.832809E-1,-2.6945646E0,4.2681828E-1,-1.1395567E1,-2.1729338E0],"categories":[],"categories_nodes":[],"categories_segments":[],"categories_sizes":[],"default_left":[1,1,1,1,1,1,1,1,0,1,1,1,1,1,1,1,1,1,1,1,0,1,1,1,1,1,1,0,1,1,1,1,1,1,1,1,1,1,1,1,1,1,1,1,1,1,0,0,1,1,0,1,1,0,0,0,0,0,0,0,0,0,0,0,0,0,0,0,0,0,0,0,0,0,0,0,0,0,0,0,0,0,0,0,0,0,0,0,0,0,0,0,0,0,0],"id":10,"left_children":[1,3,5,7,9,11,13,15,-1,17,19,21,23,25,27,29,31,33,35,37,-1,39,41,43,45,47,49,-1,51,53,55,57,59,61,63,65,67,69,71,73,75,77,79,81,83,85,-1,-1,87,89,-1,91,93,-1,-1,-1,-1,-1,-1,-1,-1,-1,-1,-1,-1,-1,-1,-1,-1,-1,-1,-1,-1,-1,-1,-1,-1,-1,-1,-1,-1,-1,-1,-1,-1,-1,-1,-1,-1,-1,-1,-1,-1,-1,-1],"loss_changes":[1.3296934E3,5.422676E2,1.7780759E3,1.4355977E3,3.9343555E2,6.469197E2,1.2888237E3,7.120396E2,0E0,2.4020117E2,3.8878704E3,1.5019519E2,7.6122363E2,1.161333E3,6.6762976E2,1.4896512E2,2.40117E2,1.9237305E2,6.163467E2,1.908582E3,0E0,2.4876227E2,1.5567346E2,4.914563E2,2.385282E2,1.1081892E3,1.24955E3,0E0,5.1299963E2,2.4577637E1,6.397525E1,2.7244507E2,2.1447441E1,2.1616016E2,2.1238797E2,4.9786572E2,3.789596E2,4.764642E3,1.0271047E3,4.6273407E1,5.7882385E1,3.2904266E1,1.3675732E2,1.157089E3,4.2594525E2,1.8891384E1,0E0,0E0,9.150209E2,3.3252625E0,0E0,7.56369E2,1.037481E3,0E0,0E0,0E0,0E0,0E0,0E0,0E0,0E0,0E0,0E0,0E0,0E0,0E0,0E0,0E0,0E0,0E0,0E0,0E0,0E0,0E0,0E0,0E0,0E0,0E0,0E0,0E0,0E0,0E0,0E0,0E0,0E0,0E0,0E0,0E0,0E0,0E0,0E0,0E0,0E0,0E0,0E0],"parents":[2147483647,0,0,1,1,2,2,3,3,4,4,5,5,6,6,7,7,9,9,10,10,11,11,12,12,13,13,14,14,15,15,16,16,17,17,18,18,19,19,21,21,22,22,23,23,24,24,25,25,26,26,28,28,29,29,30,30,31,31,32,32,33,33,34,34,35,35,36,36,37,37,38,38,39,39,40,40,41,41,42,42,43,43,44,44,45,45,48,48,49,49,51,51,52,52],"right_children":[2,4,6,8,10,12,14,16,-1,18,20,22,24,26,28,30,32,34,36,38,-1,40,42,44,46,48,50,-1,52,54,56,58,60,62,64,66,68,70,72,74,76,78,80,82,84,86,-1,-1,88,90,-1,92,94,-1,-1,-1,-1,-1,-1,-1,-1,-1,-1,-1,-1,-1,-1,-1,-1,-1,-1,-1,-1,-1,-1,-1,-1,-1,-1,-1,-1,-1,-1,-1,-1,-1,-1,-1,-1,-1,-1,-1,-1,-1,-1],"split_conditions":[2.2411566E0,-1.0985465E0,5.655164E0,1.1489753E1,1.3085647E1,8.1611025E-1,2.9503179E0,3.3892083E0,-2.7739503E0,1.1465635E0,4.8529053E-1,-6.306678E-1,2.6694334E0,1.2233021E1,-2.0332391E0,3.286222E-1,5.5264177E0,1.7302179E2,8.9929214E1,1.292935E1,-4.502996E0,-3.159177E-1,-2.3250061E-1,3.797348E-1,2.2204456E0,2.2720525E0,1.9027681E0,-1.9848858E0,-4.2673606E-1,-2.792678E-1,5E-1,-1.9164025E0,5E-1,1.16312275E1,5E-1,-6.604092E-1,5.877514E0,3.6784022E0,2.9354591E0,-4.2378086E-1,3.1291919E0,-1.8579842E0,1.5594858E0,2.0579565E0,2.3524612E1,3.837799E0,-1.271851E0,-2.8204618E0,5.1850824E0,3.327017E-1,-2.968502E0,7.5835085E0,2.3956356E0,-4.8569527E-2,-8.9038625E-2,-3.4171873E-1,-1.4496677E-1,-4.3433377E-1,-1.4503282E0,-2.7538994E-1,7.317018E-2,-1.6243553E-2,8.0095015E-2,1.972392E-1,-1.4228078E0,-1.6671877E-2,-3.145966E-2,6.839134E-2,-2.2503548E0,-4.601209E0,-4.2823648E-1,-7.1890795E-1,-4.6535E-3,-3.5092656E-2,-7.883103E-2,-1.5415707E-1,-4.3534294E-1,-7.017665E-2,-1.867074E-2,-4.047567E-2,-3.0943704E-1,-1.145516E-1,-6.0965246E-1,-6.0922097E-2,-1.0942416E0,-3.3309183E-1,8.569464E-2,-2.920089E-1,-1.5035946E0,1.4185117E-1,-4.832809E-2,-2.6945648E-1,4.268183E-2,-1.1395568E0,-2.1729338E-1],"split_indices":[20,8,10,12,12,10,9,10,0,20,11,9,8,10,8,12,12,13,16,10,0,10,10,9,10,20,9,0,8,10,6,8,2,10,6,8,9,9,9,10,19,8,8,10,19,8,0,0,20,8,0,12,20,0,0,0,0,0,0,0,0,0,0,0,0,0,0,0,0,0,0,0,0,0,0,0,0,0,0,0,0,0,0,0,0,0,0,0,0,0,0,0,0,0,0],"split_type":[0,0,0,0,0,0,0,0,0,0,0,0,0,0,0,0,0,0,0,0,0,0,0,0,0,0,0,0,0,0,0,0,0,0,0,0,0,0,0,0,0,0,0,0,0,0,0,0,0,0,0,0,0,0,0,0,0,0,0,0,0,0,0,0,0,0,0,0,0,0,0,0,0,0,0,0,0,0,0,0,0,0,0,0,0,0,0,0,0,0,0,0,0,0,0],"sum_hessian":[9.38863E5,9.20394E5,1.8469E4,8.4E2,9.19554E5,1.7954E4,5.15E2,8.39E2,1E0,9.19008E5,5.46E2,1.5306E4,2.648E3,7.9E1,4.36E2,8.2E2,1.9E1,8.12109E5,1.06899E5,5.45E2,1E0,1.557E3,1.3749E4,2.638E3,1E1,7.4E1,5E0,1E0,4.35E2,7.26E2,9.4E1,1.2E1,7E0,8.12107E5,2E0,1.06897E5,2E0,3.7E1,5.08E2,1.365E3,1.92E2,8.699E3,5.05E3,3.93E2,2.245E3,4E0,6E0,1E0,7.3E1,2E0,3E0,3.2E2,1.15E2,5.1E2,2.16E2,2.2E1,7.2E1,7E0,5E0,5E0,2E0,8.11875E5,2.32E2,1E0,1E0,7.4012E4,3.2885E4,1E0,1E0,2E0,3.5E1,2E1,4.88E2,1.05E3,3.15E2,1.85E2,7E0,1.25E2,8.574E3,5.032E3,1.8E1,3.39E2,5.4E1,2.242E3,3E0,3E0,1E0,6.7E1,6E0,1E0,1E0,1.3E2,1.9E2,1.3E1,1.02E2],"tree_param":{"num_deleted":"0","num_feature":"21","num_nodes":"95","size_leaf_vector":"0"}},{"base_weights":[-1.5720008E-1,-1.5013856E-1,-3.2382214E-1,-7.997422E-1,-1.4964758E-1,-2.723597E-1,-1.7326572E0,-6.117785E-1,-3.7918673E0,-1.4907542E-1,-5.894545E-1,-2.2886291E-1,-6.361944E-1,-6.6721916E0,-1.464403E0,-4.3429047E-1,-1.104915E0,-2.3815475E0,-7.7846723E0,-1.4900902E-1,-3.1260178E0,-2.2989815E1,-5.313649E-1,-2.010067E-1,-4.2397022E-1,-1.913303E0,-5.625355E-1,-4.93858E0,-3.3608738E1,-9.355852E-1,-3.2293432E0,-4.558532E-1,1.3609193E-1,4.3367E-3,-1.1821688E0,-6.22303E0,-1.5819563E0,-2.2334025E0,-1.1113285E1,-3.1369942E-1,-1.4785528E-1,7.875538E-2,-1.0616948E1,6.374446E-2,-2.1623979E0,-7.2928506E-1,-1.9415937E-1,-2.9559347E-1,-5.998084E-1,-1.4402684E0,-5.598149E0,-3.678464E-1,-9.310222E-1,-3.3652878E0,-1.5924288E1,-4.651141E1,2.5496397E0,-1.004513E1,-7.937514E-1,-1.2893107E1,-2.7363822E0,-4.242656E-1,-1.0067523E0,6.781364E-1,-6.7216225E-2,3.6172116E-1,-2.1957067E-1,-1.0696137E0,-2.1142442E0,-8.563382E0,-1.8083347E0,-3.0432074E0,-7.7081495E-3,8.1922516E-2,-2.8327143E0,-1.5333579E1,-5.1697435E0,-3.0590576E-1,-4.34091E0,-1.4774498E-1,-1.813834E0,-6.518479E-2,4.9088705E-1,-1.8949419E0,1.4458479E-1,-1.2114111E1,-1.8942794E0,-5.9173685E-1,-1.6792586E0,-1.590149E-1,-2.80746E-1,-5.3588504E-1,-1.955821E-1,-1.2974929E0,-3.935461E-1,-2.8005512E0,-7.1630853E-1,-2.0153632E0,-1.134553E1,-2.57609E0,-3.1573316E-1,-1.0173125E-1,-1.6756414E0,-2.1123304E0,-1.0091458E1,-1.8039541E1,-5.587554E-1,-1.3205355E1,1.9468282E0,-7.409697E-1,-1.7560068E1,-1.895819E1,1.8156804E0,-2.1969886E0,-9.665618E0],"categories":[],"categories_nodes":[],"categories_segments":[],"categories_sizes":[],"default_left":[1,1,1,1,1,1,1,1,1,1,1,1,1,1,1,1,1,1,1,1,1,0,1,1,1,1,1,1,1,1,1,1,1,1,1,1,1,1,1,1,1,1,0,1,1,1,1,1,1,1,1,1,1,1,1,0,0,1,1,1,1,0,0,0,0,0,0,0,0,0,0,0,0,0,0,0,0,0,0,0,0,0,0,0,0,0,0,0,0,0,0,0,0,0,0,0,0,0,0,0,0,0,0,0,0,0,0,0,0,0,0,0,0,0,0],"id":11,"left_children":[1,3,5,7,9,11,13,15,17,19,21,23,25,27,29,31,33,35,37,39,41,-1,43,45,47,49,51,53,55,57,59,61,63,65,67,69,71,73,75,77,79,81,-1,83,85,87,89,91,93,95,97,99,101,103,105,-1,-1,107,109,111,113,-1,-1,-1,-1,-1,-1,-1,-1,-1,-1,-1,-1,-1,-1,-1,-1,-1,-1,-1,-1,-1,-1,-1,-1,-1,-1,-1,-1,-1,-1,-1,-1,-1,-1,-1,-1,-1,-1,-1,-1,-1,-1,-1,-1,-1,-1,-1,-1,-1,-1,-1,-1,-1,-1],"loss_changes":[1.104625E3,2.8714648E2,2.7670046E3,3.8011966E2,2.2639258E2,5.826653E2,1.7724224E3,5.562422E1,2.0670575E2,1.7722461E2,1.5089188E3,1.7870288E2,3.6880847E2,3.0561487E3,1.1888433E3,5.8794556E0,1.4487396E1,8.537552E1,1.599599E2,1.7073828E2,4.8097076E2,0E0,1.1328783E3,1.0399292E2,9.257739E1,3.649519E2,2.6646008E2,1.0871361E3,1.9847466E3,1.2633953E3,1.3652942E3,7.5079956E0,2.0292187E0,1.0396755E0,1.4314346E1,3.617424E1,6.2086594E1,7.1700706E0,7.1230225E1,1.949018E2,1.6374219E2,9.218329E-1,0E0,1.3581375E2,8.095425E2,4.7091827E1,8.644165E1,5.7019012E1,2.4887842E2,1.860888E2,4.713338E2,2.7940326E2,7.933247E2,4.7591205E2,2.499364E2,0E0,0E0,5.9416797E2,8.4539496E2,1.283362E3,1.0290259E3,0E0,0E0,0E0,0E0,0E0,0E0,0E0,0E0,0E0,0E0,0E0,0E0,0E0,0E0,0E0,0E0,0E0,0E0,0E0,0E0,0E0,0E0,0E0,0E0,0E0,0E0,0E0,0E0,0E0,0E0,0E0,0E0,0E0,0E0,0E0,0E0,0E0,0E0,0E0,0E0,0E0,0E0,0E0,0E0,0E0,0E0,0E0,0E0,0E0,0E0,0E0,0E0,0E0,0E0],"parents":[2147483647,0,0,1,1,2,2,3,3,4,4,5,5,6,6,7,7,8,8,9,9,10,10,11,11,12,12,13,13,14,14,15,15,16,16,17,17,18,18,19,19,20,20,22,22,23,23,24,24,25,25,26,26,27,27,28,28,29,29,30,30,31,31,32,32,33,33,34,34,35,35,36,36,37,37,38,38,39,39,40,40,41,41,43,43,44,44,45,45,46,46,47,47,48,48,49,49,50,50,51,51,52,52,53,53,54,54,57,57,58,58,59,59,60,60],"right_children":[2,4,6,8,10,12,14,16,18,20,22,24,26,28,30,32,34,36,38,40,42,-1,44,46,48,50,52,54,56,58,60,62,64,66,68,70,72,74,76,78,80,82,-1,84,86,88,90,92,94,96,98,100,102,104,106,-1,-1,108,110,112,114,-1,-1,-1,-1,-1,-1,-1,-1,-1,-1,-1,-1,-1,-1,-1,-1,-1,-1,-1,-1,-1,-1,-1,-1,-1,-1,-1,-1,-1,-1,-1,-1,-1,-1,-1,-1,-1,-1,-1,-1,-1,-1,-1,-1,-1,-1,-1,-1,-1,-1,-1,-1,-1,-1],"split_conditions":[1.7291696E0,-1.0985465E0,3.6959002E0,1.052233E0,9.997289E0,8.281305E-1,1.3307021E0,-1.7908421E-1,3.8641381E0,9.062793E1,9.649912E0,3.3092675E0,8.263263E-3,1.225809E1,-4.2673606E-1,-2.3057644E-1,-2.0843668E-1,-2.0332391E0,1.252492E0,-6.752444E-1,-7.0768416E-1,-2.2989814E0,9.347069E-1,-1.6827294E0,-2.9866785E-1,2.0518527E0,-5.143635E-1,4.995294E0,1.0335248E0,-1.6827294E0,1.7997885E0,-2.639045E-1,-2.2064358E-1,1.14509955E-1,7.4372125E-1,5E-1,1.5916696E0,3.694823E0,5E-1,4.0153437E0,1.4134401E0,2.125259E0,-1.0616949E0,2.898312E0,9.4353426E-1,6.5190434E-2,-2.0604643E-1,-6.306678E-1,-4.820792E-1,-2.443374E-1,-2.3690796E-1,-1.1861739E0,5E-1,1.1672544E0,7.616824E0,-4.651141E0,2.5496396E-1,2.7487302E0,5.110257E1,6.5981684E0,3.4740586E0,-4.242656E-2,-1.00675225E-1,6.781364E-2,-6.721623E-3,3.6172118E-2,-2.1957068E-2,-1.0696137E-1,-2.1142443E-1,-8.563382E-1,-1.8083347E-1,-3.0432075E-1,-7.7081495E-4,8.192251E-3,-2.8327143E-1,-1.533358E0,-5.169744E-1,-3.0590577E-2,-4.34091E-1,-1.47744985E-2,-1.813834E-1,-6.518479E-3,4.9088705E-2,-1.894942E-1,1.4458479E-2,-1.2114111E0,-1.8942794E-1,-5.9173685E-2,-1.6792586E-1,-1.590149E-2,-2.8074602E-2,-5.3588506E-2,-1.9558212E-2,-1.2974928E-1,-3.935461E-2,-2.8005514E-1,-7.163086E-2,-2.0153633E-1,-1.134553E0,-2.57609E-1,-3.1573318E-2,-1.0173125E-2,-1.6756414E-1,-2.1123305E-1,-1.0091459E0,-1.8039541E0,-5.587554E-2,-1.3205355E0,1.9468282E-1,-7.409697E-2,-1.7560068E0,-1.8958191E0,1.8156804E-1,-2.1969886E-1,-9.665618E-1],"split_indices":[20,8,10,12,12,10,9,10,9,15,10,20,9,12,8,10,20,8,20,9,12,0,20,8,10,10,8,20,9,8,20,10,10,10,10,6,12,10,4,19,8,10,0,9,20,10,10,9,9,9,9,8,0,9,19,0,0,20,11,9,14,0,0,0,0,0,0,0,0,0,0,0,0,0,0,0,0,0,0,0,0,0,0,0,0,0,0,0,0,0,0,0,0,0,0,0,0,0,0,0,0,0,0,0,0,0,0,0,0,0,0,0,0,0,0],"split_type":[0,0,0,0,0,0,0,0,0,0,0,0,0,0,0,0,0,0,0,0,0,0,0,0,0,0,0,0,0,0,0,0,0,0,0,0,0,0,0,0,0,0,0,0,0,0,0,0,0,0,0,0,0,0,0,0,0,0,0,0,0,0,0,0,0,0,0,0,0,0,0,0,0,0,0,0,0,0,0,0,0,0,0,0,0,0,0,0,0,0,0,0,0,0,0,0,0,0,0,0,0,0,0,0,0,0,0,0,0,0,0,0,0,0,0],"sum_hessian":[9.38863E5,9.00693E5,3.817E4,6.79E2,9.00014E5,3.6826E4,1.344E3,6.4E2,3.9E1,8.98846E5,1.168E3,3.2895E4,3.931E3,6.8E1,1.276E3,4.72E2,1.68E2,3E1,9E0,8.98827E5,1.9E1,2E0,1.166E3,2.8787E4,4.108E3,2.13E2,3.718E3,6.5E1,3E0,9.83E2,2.93E2,4.55E2,1.7E1,1.1E1,1.57E2,4E0,2.6E1,4E0,5E0,6.251E3,8.92576E5,1.4E1,5E0,8.55E2,3.11E2,3.67E2,2.842E4,2.376E3,1.732E3,1.9E2,2.3E1,2.434E3,1.284E3,5.8E1,7E0,2E0,1E0,1.4E1,9.69E2,1.3E1,2.8E2,4.32E2,2.3E1,4E0,1.3E1,4E0,7E0,1.42E2,1.5E1,2E0,2E0,1.3E1,1.3E1,1E0,3E0,2E0,3E0,6.24E3,1.1E1,8.92518E5,5.8E1,1.1E1,3E0,3.3E1,8.22E2,7E0,3.04E2,3.22E2,4.5E1,2.0217E4,8.203E3,6.97E2,1.679E3,3.94E2,1.338E3,6.5E1,1.25E2,1.5E1,8E0,5.5E1,2.379E3,6.08E2,6.76E2,5E1,8E0,6E0,1E0,1.1E1,3E0,9.67E2,2E0,9E0,4E0,2.61E2,1.9E1],"tree_param":{"num_deleted":"0","num_feature":"21","num_nodes":"115","size_leaf_vector":"0"}},{"base_weights":[-1.4150736E-1,-1.3523608E-1,-2.943986E-1,-7.27606E-1,-1.3478501E-1,-2.4640393E-1,-1.594295E0,-5.524485E-1,-3.4002008E0,-1.3429148E-1,-5.27764E-1,-2.0603327E-1,-5.835058E-1,-6.2955794E0,-1.3412333E0,-4.2476997E-1,-1.09631E0,-2.4427226E0,-8.737949E0,-1.3425191E-1,-4.570081E0,-2.2287157E1,-4.306728E-1,-2.0302603E-1,-1.7704641E0,-5.6730527E-1,-6.1343765E0,-4.631503E0,-3.1346907E1,-9.585318E0,-1.2469211E0,-4.1707042E-1,-2.2258143E0,-9.565058E-1,-2.1064777E0,-5.0858154E0,-1.5382208E0,-1.558453E1,-4.251727E0,-1.3419895E-1,-3.3029904E0,8.8304496E-1,-2.1370983E1,6.8951124E-1,-2.8203703E1,-1.4539108E-1,-2.6936593E0,-1.7812899E-1,-3.718157E-1,-1.2851526E0,-4.1170382E0,-2.927564E0,-5.319075E-1,-2.691001E0,-9.728228E0,-2.863593E0,-1.2889289E1,-4.341065E1,2.4221578E0,-1.2854338E1,1.8008163E0,-7.332312E-1,-2.9236274E0,-4.3472382E-1,1.3394988E-1,-1.3017429E0,-2.2028197E-1,-2.883103E-1,-3.0845366E0,-6.5478735E0,2.0926168E-2,-2.5908103E0,1.6884889E-1,-8.2657146E-1,-4.9013734E0,-3.34436E-1,-1.3340028E-1,1.3151868E-1,-1.0198313E1,9.7041756E-2,9.978718E-1,-3.2988705E1,-6.9243484E0,-1.0550832E0,1.7356491E-1,-1.0665784E0,-1.0778275E1,-6.559292E-1,-1.7176415E-1,-3.6435655E-1,-2.6813703E0,-8.0266714E-1,-1.9066023E0,-4.6462545E0,-1.3334476E0,-6.689779E0,-1.7494649E0,-3.3243456E-1,-8.91247E-1,8.9788115E-1,-3.4387949E0,-1.6099406E0,-9.8708515E0,-1.4072055E1,-5.308175E-1,-1.6616642E1,2.7173553E0,-6.922178E-1,2.862567E0,-6.828598E-1,-1.6389397E1,-1.6761274E1,-2.4716327E0],"categories":[],"categories_nodes":[],"categories_segments":[],"categories_sizes":[],"default_left":[1,1,1,1,1,1,1,1,1,1,1,1,1,1,1,1,1,1,1,1,1,1,1,1,1,1,1,1,1,1,1,1,0,1,1,1,1,0,1,1,1,1,0,0,1,1,1,1,1,1,1,1,1,1,0,1,1,0,0,1,1,1,1,0,0,0,0,0,0,0,0,0,0,0,0,0,0,0,0,0,0,0,0,0,0,0,0,0,0,0,0,0,0,0,0,0,0,0,0,0,0,0,0,0,0,0,0,0,0,0,0,0,0],"id":12,"left_children":[1,3,5,7,9,11,13,15,17,19,21,23,25,27,29,31,33,35,37,39,41,43,45,47,49,51,53,55,57,59,61,63,-1,65,67,69,71,-1,73,75,77,79,-1,-1,81,83,85,87,89,91,93,95,97,99,-1,101,103,-1,-1,105,107,109,111,-1,-1,-1,-1,-1,-1,-1,-1,-1,-1,-1,-1,-1,-1,-1,-1,-1,-1,-1,-1,-1,-1,-1,-1,-1,-1,-1,-1,-1,-1,-1,-1,-1,-1,-1,-1,-1,-1,-1,-1,-1,-1,-1,-1,-1,-1,-1,-1,-1,-1],"loss_changes":[9.0016406E2,2.4088477E2,2.3074683E3,3.192553E2,1.7470898E2,4.8539575E2,1.5584116E3,4.4322754E1,1.9330829E2,1.5739453E2,2.377692E3,1.4953918E2,3.3959192E2,2.6478677E3,9.607217E2,6.3380966E0,1.5214691E1,8.063216E1,1.1803055E2,1.5059766E2,7.518111E2,6.991594E2,7.2654126E2,1.335774E2,6.417699E1,3.163429E2,1.09946106E2,8.9742773E2,1.7346726E3,5.442494E2,1.0641543E3,5.145653E0,0E0,2.7417992E1,2.4006535E1,6.733421E1,5.254592E1,0E0,7.074356E0,1.4389355E2,3.5657196E2,5.34945E-1,0E0,0E0,1.7886182E2,2.9062503E2,1.645949E3,8.417511E1,6.943103E1,1.406134E1,8.535675E0,2.3650314E2,2.6849817E2,2.1873837E1,0E0,4.5848044E2,1.5331921E2,0E0,0E0,6.8959314E2,1.2569442E1,7.372117E2,1.7723889E3,0E0,0E0,0E0,0E0,0E0,0E0,0E0,0E0,0E0,0E0,0E0,0E0,0E0,0E0,0E0,0E0,0E0,0E0,0E0,0E0,0E0,0E0,0E0,0E0,0E0,0E0,0E0,0E0,0E0,0E0,0E0,0E0,0E0,0E0,0E0,0E0,0E0,0E0,0E0,0E0,0E0,0E0,0E0,0E0,0E0,0E0,0E0,0E0,0E0,0E0],"parents":[2147483647,0,0,1,1,2,2,3,3,4,4,5,5,6,6,7,7,8,8,9,9,10,10,11,11,12,12,13,13,14,14,15,15,16,16,17,17,18,18,19,19,20,20,21,21,22,22,23,23,24,24,25,25,26,26,27,27,28,28,29,29,30,30,31,31,33,33,34,34,35,35,36,36,38,38,39,39,40,40,41,41,44,44,45,45,46,46,47,47,48,48,49,49,50,50,51,51,52,52,53,53,55,55,56,56,59,59,60,60,61,61,62,62],"right_children":[2,4,6,8,10,12,14,16,18,20,22,24,26,28,30,32,34,36,38,40,42,44,46,48,50,52,54,56,58,60,62,64,-1,66,68,70,72,-1,74,76,78,80,-1,-1,82,84,86,88,90,92,94,96,98,100,-1,102,104,-1,-1,106,108,110,112,-1,-1,-1,-1,-1,-1,-1,-1,-1,-1,-1,-1,-1,-1,-1,-1,-1,-1,-1,-1,-1,-1,-1,-1,-1,-1,-1,-1,-1,-1,-1,-1,-1,-1,-1,-1,-1,-1,-1,-1,-1,-1,-1,-1,-1,-1,-1,-1,-1,-1],"split_conditions":[1.7468243E0,-1.0985465E0,3.6959002E0,1.052233E0,1.0117847E1,8.281305E-1,1.3084137E0,-7.945542E-2,5.6620603E0,8.9929214E1,9.773774E0,1.4134401E0,2.6694334E0,1.2245533E1,-1.6827294E0,9.669538E-2,1.5526223E0,-2.0332391E0,6.1821203E0,1.108955E2,4.849005E0,5.691778E0,1.3275247E0,3.3092675E0,2.0983014E-1,-1.7411476E0,2.2204456E0,4.028698E0,1.0335248E0,2.7487302E0,-4.2673606E-1,-1.1186205E-1,-2.2258143E-1,1.278974E0,1.8414393E-2,4.933976E0,1.1995277E0,-1.558453E0,5E-1,-6.901033E-1,-7.0768416E-1,2.9577475E0,-2.1370983E0,6.895112E-2,1.3010426E0,5.9072313E0,-2.2227207E-1,-1.6827294E0,2.9332385E0,2.9615247E0,7.007949E-1,3.9459366E-1,-5.143635E-1,9.959186E-1,-9.728228E-1,1.1672544E0,7.616824E0,-4.341065E0,2.4221578E-1,5E-1,3.4258015E0,5.110257E1,1.7997885E0,-4.3472383E-2,1.3394988E-2,-1.301743E-1,-2.2028198E-2,-2.883103E-2,-3.0845365E-1,-6.5478736E-1,2.0926169E-3,-2.5908104E-1,1.688489E-2,-8.265715E-2,-4.9013734E-1,-3.34436E-2,-1.3340028E-2,1.3151868E-2,-1.0198313E0,9.704175E-3,9.978718E-2,-3.2988706E0,-6.9243485E-1,-1.0550832E-1,1.735649E-2,-1.0665784E-1,-1.0778275E0,-6.559292E-2,-1.7176416E-2,-3.6435656E-2,-2.6813704E-1,-8.0266714E-2,-1.9066022E-1,-4.6462545E-1,-1.3334475E-1,-6.689779E-1,-1.7494649E-1,-3.324346E-2,-8.91247E-2,8.978812E-2,-3.438795E-1,-1.6099407E-1,-9.8708516E-1,-1.4072055E0,-5.308175E-2,-1.6616642E0,2.7173552E-1,-6.922179E-2,2.862567E-1,-6.828598E-2,-1.6389397E0,-1.6761274E0,-2.4716328E-1],"split_indices":[20,8,10,12,12,10,9,12,9,16,10,8,8,12,8,10,20,8,9,15,11,9,20,20,10,8,10,20,9,20,8,10,0,20,10,9,20,0,4,9,12,9,0,0,20,9,8,8,19,8,10,9,8,10,0,9,19,0,0,2,9,11,20,0,0,0,0,0,0,0,0,0,0,0,0,0,0,0,0,0,0,0,0,0,0,0,0,0,0,0,0,0,0,0,0,0,0,0,0,0,0,0,0,0,0,0,0,0,0,0,0,0,0],"split_type":[0,0,0,0,0,0,0,0,0,0,0,0,0,0,0,0,0,0,0,0,0,0,0,0,0,0,0,0,0,0,0,0,0,0,0,0,0,0,0,0,0,0,0,0,0,0,0,0,0,0,0,0,0,0,0,0,0,0,0,0,0,0,0,0,0,0,0,0,0,0,0,0,0,0,0,0,0,0,0,0,0,0,0,0,0,0,0,0,0,0,0,0,0,0,0,0,0,0,0,0,0,0,0,0,0,0,0,0,0,0,0,0,0],"sum_hessian":[9.38863E5,9.01872E5,3.6991E4,6.85E2,9.01187E5,3.5675E4,1.316E3,6.44E2,4.1E1,9.00058E5,1.129E3,3.1861E4,3.814E3,6.6E1,1.25E3,5.23E2,1.21E2,3.6E1,5E0,9.00051E5,7E0,4E0,1.125E3,3.1801E4,6E1,3.804E3,1E1,6.3E1,3E0,1.3E1,1.237E3,5.22E2,1E0,1.08E2,1.3E1,8E0,2.8E1,1E0,4E0,9.00037E5,1.4E1,6E0,1E0,1E0,3E0,1E3,1.25E2,2.7715E4,4.086E3,5.1E1,9E0,5.5E1,3.749E3,6E0,4E0,5.3E1,1E1,2E0,1E0,1E1,3E0,9.48E2,2.89E2,5.06E2,1.6E1,7.3E1,3.5E1,5E0,8E0,6E0,2E0,1.7E1,1.1E1,1E0,3E0,3.574E3,8.96463E5,1E1,4E0,1E0,5E0,2E0,1E0,2.59E2,7.41E2,1.05E2,2E1,3.63E2,2.7352E4,4.074E3,1.2E1,3E1,2.1E1,7E0,2E0,1.2E1,4.3E1,2.412E3,1.337E3,1E0,5E0,4.6E1,7E0,9E0,1E0,8E0,2E0,1E0,2E0,9.46E2,2E0,8E0,2.81E2],"tree_param":{"num_deleted":"0","num_feature":"21","num_nodes":"113","size_leaf_vector":"0"}},{"base_weights":[-1.2738538E-1,-1.2151372E-1,-2.6060423E-1,-6.707446E-1,-1.21105894E-1,-2.0451686E-1,-1.0643647E0,-5.3483605E-1,-3.7532709E0,-1.206108E-1,-5.026994E-1,-1.4465602E-1,-3.1759837E-1,-6.620952E-1,-2.4324605E0,-3.8497487E-1,-1.1086581E0,-2.542737E0,-8.81318E0,-1.2057281E-1,-4.3665237E0,-2.1448267E1,-4.4819042E-1,-5.705304E-1,-1.3518044E-1,-1.3359141E0,-2.9732665E-1,-5.1084743E0,-5.6173587E-1,-3.0556011E0,7.0806295E-1,-3.774078E-1,-2.1145236E0,-1.0333511E0,-4.002405E0,-6.58529E0,-1.6516442E0,-1.3040382E1,-1.6482505E0,-1.2047533E-1,-1.6267353E0,8.1038207E-1,-2.0302433E1,-6.613014E-2,-2.5882206E0,-4.255078E-1,-1.0863895E0,-4.3423894E-1,-1.3032795E-1,-6.4698756E-1,-2.1927953E0,-6.634134E-2,-3.6628383E-1,-3.883788E0,-2.055126E1,-5.388255E-1,-1.5296771E1,-2.7564213E0,-1.8738827E1,-2.894601E-1,3.6324086E0,-3.89242E-1,2.508588E-1,-9.1492236E-1,-2.7250242E0,-6.85938E-2,-4.215527E0,-2.1872792E0,-2.850964E-1,-1.20747745E-1,4.1676185E-1,-1.0567274E0,-6.390683E0,9.218967E-2,9.147158E-1,2.1498418E0,-1.4023577E-1,-1.4255679E0,-9.892288E0,-7.025363E-1,-3.3475578E-1,-2.437673E-1,-1.2103451E0,-3.079573E-1,-7.430628E-1,-1.0384555E-1,-1.703584E-1,-8.535816E-1,6.352561E-1,-1.666656E0,-4.8185897E0,-1.2417352E-1,2.9426357E-1,-1.9593535E-1,-9.381893E-1,-9.682706E0,-3.0185676E0,-2.4861431E1,-5.965458E0,-4.9493855E-1,-5.5102434E0,-2.4271526E0,-9.869078E0,-3.2095345E1,-1.6345403E0,9.076908E-1,-1.699168E1],"categories":[],"categories_nodes":[],"categories_segments":[],"categories_sizes":[],"default_left":[1,1,1,1,1,1,1,1,1,1,1,1,1,1,1,1,1,1,1,1,1,0,1,1,1,1,1,1,1,1,1,1,0,1,0,0,1,0,1,1,1,1,0,1,1,1,1,1,1,1,1,1,1,1,1,1,0,1,1,1,0,0,0,0,0,0,0,0,0,0,0,0,0,0,0,0,0,0,0,0,0,0,0,0,0,0,0,0,0,0,0,0,0,0,0,0,0,0,0,0,0,0,0,0,0,0,0],"id":13,"left_children":[1,3,5,7,9,11,13,15,17,19,21,23,25,27,29,31,33,35,37,39,41,-1,43,45,47,49,51,53,55,57,59,61,-1,63,-1,-1,65,-1,67,69,71,73,-1,75,77,79,81,83,85,87,89,91,93,95,97,99,-1,101,103,105,-1,-1,-1,-1,-1,-1,-1,-1,-1,-1,-1,-1,-1,-1,-1,-1,-1,-1,-1,-1,-1,-1,-1,-1,-1,-1,-1,-1,-1,-1,-1,-1,-1,-1,-1,-1,-1,-1,-1,-1,-1,-1,-1,-1,-1,-1,-1],"loss_changes":[7.343633E2,2.0133887E2,1.7864702E3,2.7742673E2,1.6969922E2,2.507445E2,1.4210266E3,5.4609116E1,1.4909576E2,1.4420898E2,1.3193503E3,9.768863E1,2.643081E2,8.8915515E2,1.1509153E3,5.863556E0,2.462944E1,7.5578384E1,1.2994421E2,1.3156836E2,6.764424E2,0E0,9.4990375E2,3.8963257E1,3.4337738E1,1.4616336E2,2.002555E2,7.523363E2,6.5207385E2,2.247478E3,2.8692746E2,3.8746414E0,0E0,2.3551361E1,0E0,0E0,8.494472E1,0E0,1.5807514E0,1.3137598E2,1.5074513E2,4.4019508E-1,0E0,1.6238266E2,1.4805065E3,1.014801E1,1.1716446E1,1.4512711E1,2.47081E1,3.7628803E1,1.4531927E2,6.034795E1,9.4316516E2,1.8150037E2,4.0292114E1,4.235973E2,0E0,1.1048789E3,2.0036223E3,1.4950591E3,0E0,0E0,0E0,0E0,0E0,0E0,0E0,0E0,0E0,0E0,0E0,0E0,0E0,0E0,0E0,0E0,0E0,0E0,0E0,0E0,0E0,0E0,0E0,0E0,0E0,0E0,0E0,0E0,0E0,0E0,0E0,0E0,0E0,0E0,0E0,0E0,0E0,0E0,0E0,0E0,0E0,0E0,0E0,0E0,0E0,0E0,0E0],"parents":[2147483647,0,0,1,1,2,2,3,3,4,4,5,5,6,6,7,7,8,8,9,9,10,10,11,11,12,12,13,13,14,14,15,15,16,16,17,17,18,18,19,19,20,20,22,22,23,23,24,24,25,25,26,26,27,27,28,28,29,29,30,30,31,31,33,33,36,36,38,38,39,39,40,40,41,41,43,43,44,44,45,45,46,46,47,47,48,48,49,49,50,50,51,51,52,52,53,53,54,54,55,55,57,57,58,58,59,59],"right_children":[2,4,6,8,10,12,14,16,18,20,22,24,26,28,30,32,34,36,38,40,42,-1,44,46,48,50,52,54,56,58,60,62,-1,64,-1,-1,66,-1,68,70,72,74,-1,76,78,80,82,84,86,88,90,92,94,96,98,100,-1,102,104,106,-1,-1,-1,-1,-1,-1,-1,-1,-1,-1,-1,-1,-1,-1,-1,-1,-1,-1,-1,-1,-1,-1,-1,-1,-1,-1,-1,-1,-1,-1,-1,-1,-1,-1,-1,-1,-1,-1,-1,-1,-1,-1,-1,-1,-1,-1,-1],"split_conditions":[1.711515E0,-1.0985465E0,2.2048252E0,1.4545356E0,9.997289E0,-2.0604643E-1,-3.9752692E-1,-7.945542E-2,1.4246256E0,8.9929214E1,9.649912E0,-6.901033E-1,-5.712323E-1,-1.0985464E0,6.57588E0,9.669538E-2,-1.5366836E0,1.5468557E0,1.5349677E0,1.4134401E0,4.849005E0,-2.1448267E0,1.2171826E0,-4.0436167E-1,-1.6243111E0,-7.622634E-2,5E-1,1.1877382E1,5.258746E1,1.2327547E1,1.0691936E1,1.4198551E0,-2.1145236E-1,1.6585507E0,-4.002405E-1,-6.58529E-1,3.8641381E0,-1.3040383E0,5E-1,8.986181E0,1.8243396E0,2.9577475E0,-2.0302434E0,2.4896932E0,-2.2227207E-1,-7.346798E-1,2.2411566E0,-3.735095E-1,-5.727818E-1,4.7380197E-1,2.5140694E-1,1.4049964E0,-5.727818E-1,4.9117628E-1,5E-1,5.1586003E0,-1.5296772E0,8.5980425E0,1.3397152E1,9.25573E0,3.6324087E-1,-3.89242E-2,2.5085881E-2,-9.1492236E-2,-2.7250242E-1,-6.8593803E-3,-4.2155272E-1,-2.1872793E-1,-2.8509641E-2,-1.2074775E-2,4.1676186E-2,-1.0567274E-1,-6.390683E-1,9.2189675E-3,9.147158E-2,2.1498418E-1,-1.4023577E-2,-1.4255679E-1,-9.8922884E-1,-7.025363E-2,-3.3475578E-2,-2.4376731E-2,-1.2103452E-1,-3.0795729E-2,-7.430628E-2,-1.0384555E-2,-1.703584E-2,-8.5358165E-2,6.352561E-2,-1.666656E-1,-4.8185897E-1,-1.2417353E-2,2.9426357E-2,-1.9593535E-2,-9.381893E-2,-9.682706E-1,-3.0185676E-1,-2.486143E0,-5.965458E-1,-4.9493857E-2,-5.510244E-1,-2.4271527E-1,-9.869078E-1,-3.2095344E0,-1.6345404E-1,9.076908E-2,-1.6991681E0],"split_indices":[20,8,10,12,12,10,8,12,20,16,10,9,9,8,9,10,8,10,20,8,11,0,20,10,8,8,0,10,11,12,10,9,0,20,0,0,9,0,2,10,10,9,0,9,8,9,20,10,8,12,10,9,8,9,4,20,0,14,12,10,0,0,0,0,0,0,0,0,0,0,0,0,0,0,0,0,0,0,0,0,0,0,0,0,0,0,0,0,0,0,0,0,0,0,0,0,0,0,0,0,0,0,0,0,0,0,0],"split_type":[0,0,0,0,0,0,0,0,0,0,0,0,0,0,0,0,0,0,0,0,0,0,0,0,0,0,0,0,0,0,0,0,0,0,0,0,0,0,0,0,0,0,0,0,0,0,0,0,0,0,0,0,0,0,0,0,0,0,0,0,0,0,0,0,0,0,0,0,0,0,0,0,0,0,0,0,0,0,0,0,0,0,0,0,0,0,0,0,0,0,0,0,0,0,0,0,0,0,0,0,0,0,0,0,0,0,0],"sum_hessian":[9.38863E5,8.99231E5,3.9632E4,6.66E2,8.98565E5,3.7048E4,2.584E3,6.39E2,2.7E1,8.97402E5,1.163E3,2.4226E4,1.2822E4,1.998E3,5.86E2,5.08E2,1.31E2,2.3E1,4E0,8.97395E5,7E0,2E0,1.161E3,5.26E2,2.37E4,2.49E2,1.2573E4,4.3E1,1.955E3,4.89E2,9.7E1,5.07E2,1E0,1.29E2,2E0,3E0,2E1,2E0,2E0,8.97338E5,5.7E1,6E0,1E0,9.86E2,1.75E2,4.12E2,1.14E2,3.77E2,2.3323E4,1.39E2,1.1E2,2.891E3,9.682E3,4.1E1,2E0,1.953E3,2E0,4.81E2,8E0,7.3E1,2.4E1,4.98E2,9E0,1.22E2,7E0,1.3E1,7E0,1E0,1E0,8.96884E5,4.54E2,5.2E1,5E0,1E0,5E0,3.1E1,9.55E2,1.52E2,2.3E1,1E2,3.12E2,1.5E1,9.9E1,2.69E2,1.08E2,1.4039E4,9.284E3,1.2E2,1.9E1,9.3E1,1.7E1,2.492E3,3.99E2,7.461E3,2.221E3,4E0,3.7E1,1E0,1E0,1.937E3,1.6E1,4.61E2,2E1,4E0,4E0,6.9E1,4E0],"tree_param":{"num_deleted":"0","num_feature":"21","num_nodes":"107","size_leaf_vector":"0"}},{"base_weights":[-1.1467116E-1,-1.0937275E-1,-2.3488392E-1,-6.0910904E-1,-1.09001674E-1,-1.9942492E-1,-1.332608E0,-4.5674065E-1,-2.9860654E0,-1.0855527E-1,-4.6660218E-1,-1.5653004E-1,-4.2831576E-1,-5.6834617E0,-1.1026796E0,-3.1666833E-1,-8.415111E-1,-2.0890481E0,-7.7209873E0,-1.08518936E-1,-4.171066E0,-2.078028E1,-3.7517297E-1,-4.3139702E-1,-1.459043E-1,-2.1271584E0,-3.9304778E-1,-4.0463634E0,-2.84098E1,-6.9267327E-1,-2.5142007E0,-3.368613E-1,2.0013964E-1,1.8033135E-1,-9.1472E-1,-4.7955546E0,-1.2411518E0,-1.4153284E1,-3.6038713E0,-1.08462125E-1,-2.6521757E0,7.437282E-1,-1.9287312E1,-8.115088E0,-3.5720524E1,-1.12527415E-1,-2.6383886E0,-2.5858128E-1,-8.535348E-1,-1.09000325E-1,-2.1560323E-1,-1.8870022E0,-1.11044035E1,-3.840583E-1,-7.007375E0,-2.2899997E0,-1.0085035E1,-3.9430264E1,2.3257966E0,-8.4390745E0,-5.890787E-1,-3.7911396E0,5.402519E-1,-3.0988088E-1,-8.184207E-1,6.8980277E-1,1.0964253E-2,4.4303524E-1,-6.3999966E-3,-8.5926014E-1,-2.417756E0,-5.562793E0,2.8755647E-1,-1.7903193E0,1.6430831E0,-4.7957935E0,-1.2106586E0,-1.08311035E-1,-1.0362803E0,7.977708E-2,-9.040029E0,8.758019E-2,8.3848953E-1,6.6204745E-1,-1.1261482E1,-8.10558E-1,2.5257146E-1,-9.9870926E-1,-1.2128362E1,-5.017488E-1,-1.6882549E-1,-4.397226E-1,-1.0550249E0,-3.4577397E-1,-1.0520188E-1,-6.986592E-1,-1.9183618E-1,-8.0797786E-1,-3.4030573E0,-2.218939E0,-3.557201E-1,2.7429977E-2,-9.356882E0,-4.163694E0,4.2206078E0,1.1766185E0,-1.5220949E1,-1.4738473E1,3.1673613E-1,-8.642844E0,-5.075241E-1,-1.4565206E1,-3.100146E0,2.9179761E0,-9.750481E-1],"categories":[],"categories_nodes":[],"categories_segments":[],"categories_sizes":[],"default_left":[1,1,1,1,1,1,1,1,1,1,1,1,1,1,1,1,1,1,1,1,1,1,1,1,1,1,1,1,1,1,1,1,1,1,1,1,1,0,1,1,1,1,0,1,0,1,1,1,1,1,1,1,0,1,1,1,1,0,0,1,1,1,1,0,0,0,0,0,0,0,0,0,0,0,0,0,0,0,0,0,0,0,0,0,0,0,0,0,0,0,0,0,0,0,0,0,0,0,0,0,0,0,0,0,0,0,0,0,0,0,0,0,0,0,0],"id":14,"left_children":[1,3,5,7,9,11,13,15,17,19,21,23,25,27,29,31,33,35,37,39,41,43,45,47,49,51,53,55,57,59,61,63,65,67,69,71,73,-1,75,77,79,81,-1,83,-1,85,87,89,91,93,95,97,-1,99,101,103,105,-1,-1,107,109,111,113,-1,-1,-1,-1,-1,-1,-1,-1,-1,-1,-1,-1,-1,-1,-1,-1,-1,-1,-1,-1,-1,-1,-1,-1,-1,-1,-1,-1,-1,-1,-1,-1,-1,-1,-1,-1,-1,-1,-1,-1,-1,-1,-1,-1,-1,-1,-1,-1,-1,-1,-1,-1],"loss_changes":[5.979717E2,1.6668555E2,1.542417E3,2.4020554E2,1.433916E2,3.7689453E2,1.23421E3,3.358E1,1.5376273E2,1.3202051E2,2.0723386E3,9.437958E1,3.6218726E2,2.1917693E3,6.805842E2,4.8888016E0,1.2657883E1,7.4367294E1,1.0788843E2,1.2939551E2,6.086904E2,6.562302E2,6.630798E2,8.75406E1,8.005841E1,2.4422675E2,3.5031934E2,6.0266547E2,1.4465889E3,7.293026E2,1.0356407E3,5.5281334E0,1.6598167E0,5.91496E-1,1.0926407E1,3.279927E1,4.729164E1,0E0,8.456551E0,1.2569238E2,3.497474E2,3.6180735E-1,0E0,1.1792096E2,0E0,2.5530978E2,1.7929066E3,1.857626E1,2.8635376E1,1.827304E1,1.23594666E2,1.9518948E2,0E0,3.0755414E2,1.3248325E2,5.909209E2,7.698147E2,0E0,0E0,6.665442E2,5.893806E2,1.3470251E3,2.8747946E2,0E0,0E0,0E0,0E0,0E0,0E0,0E0,0E0,0E0,0E0,0E0,0E0,0E0,0E0,0E0,0E0,0E0,0E0,0E0,0E0,0E0,0E0,0E0,0E0,0E0,0E0,0E0,0E0,0E0,0E0,0E0,0E0,0E0,0E0,0E0,0E0,0E0,0E0,0E0,0E0,0E0,0E0,0E0,0E0,0E0,0E0,0E0,0E0,0E0,0E0,0E0,0E0],"parents":[2147483647,0,0,1,1,2,2,3,3,4,4,5,5,6,6,7,7,8,8,9,9,10,10,11,11,12,12,13,13,14,14,15,15,16,16,17,17,18,18,19,19,20,20,21,21,22,22,23,23,24,24,25,25,26,26,27,27,28,28,29,29,30,30,31,31,32,32,33,33,34,34,35,35,36,36,38,38,39,39,40,40,41,41,43,43,45,45,46,46,47,47,48,48,49,49,50,50,51,51,53,53,54,54,55,55,56,56,59,59,60,60,61,61,62,62],"right_children":[2,4,6,8,10,12,14,16,18,20,22,24,26,28,30,32,34,36,38,40,42,44,46,48,50,52,54,56,58,60,62,64,66,68,70,72,74,-1,76,78,80,82,-1,84,-1,86,88,90,92,94,96,98,-1,100,102,104,106,-1,-1,108,110,112,114,-1,-1,-1,-1,-1,-1,-1,-1,-1,-1,-1,-1,-1,-1,-1,-1,-1,-1,-1,-1,-1,-1,-1,-1,-1,-1,-1,-1,-1,-1,-1,-1,-1,-1,-1,-1,-1,-1,-1,-1,-1,-1,-1,-1,-1,-1,-1,-1,-1,-1,-1,-1],"split_conditions":[1.711515E0,-1.0985465E0,3.936695E0,1.052233E0,1.0117847E1,4.0327117E-1,1.4495728E0,-1.7908421E-1,5.6620603E0,8.9929214E1,9.773774E0,-6.6038555E-1,-3.4834945E-1,1.2702545E1,-4.2673606E-1,-2.3057644E-1,-2.0843668E-1,-2.0332391E0,6.1821203E0,9.062793E1,4.849005E0,5E-1,1.3275247E0,-4.2651483E-1,-2.8643388E-1,3.9358E0,1.6181852E1,1.1895428E0,1.0335248E0,-1.7995659E0,6.5981684E0,-2.639045E-1,-2.2064358E-1,1.14509955E-1,1.7026875E0,5.156859E0,1.3495929E0,-1.4153284E0,7.8857393E0,1.3758766E1,-7.0768416E-1,2.9577475E0,-1.9287312E0,5.691778E0,-3.5720525E0,6.397574E0,-2.2227207E-1,-7.0496213E-1,2.9076228E0,-1.6243111E0,-5.4151464E-1,9.9028535E-2,-1.1104404E0,-1.1861739E0,2.5103912E0,6.8785143E0,5.8682075E0,-3.9430263E0,2.3257966E-1,2.541287E0,3.958785E0,1.7997885E0,2.5721827E0,-3.0988088E-2,-8.184207E-2,6.898028E-2,1.0964253E-3,4.4303525E-2,-6.399997E-4,-8.592602E-2,-2.4177562E-1,-5.562793E-1,2.8755648E-2,-1.7903194E-1,1.6430831E-1,-4.7957936E-1,-1.21065855E-1,-1.0831104E-2,-1.0362803E-1,7.977708E-3,-9.0400285E-1,8.758019E-3,8.384895E-2,6.620475E-2,-1.1261482E0,-8.1055805E-2,2.5257146E-2,-9.987093E-2,-1.2128361E0,-5.017488E-2,-1.688255E-2,-4.397226E-2,-1.05502486E-1,-3.4577396E-2,-1.0520188E-2,-6.986592E-2,-1.9183619E-2,-8.0797784E-2,-3.4030575E-1,-2.218939E-1,-3.557201E-2,2.7429978E-3,-9.356882E-1,-4.163694E-1,4.220608E-1,1.1766185E-1,-1.522095E0,-1.4738473E0,3.1673614E-2,-8.6428446E-1,-5.075241E-2,-1.4565206E0,-3.100146E-1,2.917976E-1,-9.750482E-2],"split_indices":[20,8,10,12,12,10,9,10,9,16,10,9,9,12,8,10,20,8,9,15,11,6,20,10,10,